437 100
plane 0.015461 -0.21497 -0.27576 -0.080101 0.23689 -0.46989 0.82598 0.23121 0.5854 -0.22553 -0.42599 0.084521 -0.81218 0.55569 -0.17808 0.43887 0.14659 0.1227 -0.35337 -0.24848 1.0135 -0.31088 0.079038 -0.1848 0.46109 -0.41468 0.18343 0.13898 -0.024597 0.46501 0.13614 0.62127 0.45811 -0.023447 0.17371 -0.24454 -0.15544 -0.080242 0.15783 0.39438 -0.17713 0.7242 0.24939 0.13841 -0.0082713 -0.30114 0.066716 -0.56065 0.46856 -0.23239 -0.31525 -0.16914 0.5724 -0.79618 -0.7704 -0.10706 -0.34271 0.039656 0.72085 0.38951 -0.21874 -0.0077736 -0.17892 -0.14894 -0.089816 0.42529 -0.66966 0.10042 -0.26024 0.17582 -0.30589 -0.15526 -0.047727 0.38964 0.0045696 -0.136 -0.26367 0.52801 0.47472 -0.51966 -0.023526 -0.052266 0.35365 -0.22758 -0.029386 -0.32288 0.014294 0.19678 -0.40979 0.53897 0.22017 0.25482 0.043107 -0.39382 0.10278 0.39073 -0.29029 0.33628 0.012911 0.24239
stupid -0.70295 -0.65854 -0.10956 -0.135 0.27312 0.09293 -0.22195 0.089152 0.22694 -0.072587 -0.10571 0.26677 -0.48561 -0.33296 -0.082919 0.094604 -0.5034 -1.0948 0.086948 -0.0026725 0.56506 0.054801 -0.19803 0.15311 0.032555 -0.31497 0.75186 -0.14486 -0.060462 -0.17311 -0.075238 0.36393 -0.36259 -0.069003 0.3867 0.24878 -0.81534 0.49128 -0.077157 0.11689 -0.15932 0.030454 -0.026152 0.019029 0.11149 -0.14001 0.50518 0.44482 0.57132 0.39807 -0.26046 0.33464 -0.29853 0.44004 -0.60795 -0.088466 -0.48688 0.10159 0.064109 0.22174 0.20618 0.15208 0.26074 -0.32942 0.087123 0.037136 -0.64228 -0.095092 0.27779 0.097177 0.17093 0.062419 -0.21491 0.40171 -0.021615 -0.27463 0.23264 -0.038764 0.44641 0.2646 0.28531 0.17303 0.10396 -0.43715 -0.040992 0.53257 0.40873 0.0097358 -0.41145 0.02995 0.73536 0.33867 0.54564 -0.63677 0.13848 -0.13673 -0.19518 -0.32659 -0.23605 -0.0079237
egg -0.44948 0.27369 -0.26772 -0.36317 0.21242 -0.83774 0.31274 0.005986 0.55727 0.25494 -0.58376 -0.27757 -0.40536 0.20243 -0.15042 0.034065 -0.67383 -0.40015 0.3998 0.048766 0.24361 -0.30531 -0.054004 0.028473 0.053879 -0.18903 -0.16793 0.73369 -1.1677 0.28448 0.83395 1.3319 0.030973 -0.78473 -0.34675 -0.16505 -0.33477 0.57031 -0.40111 -0.07731 -0.081702 -0.12534 -0.30078 0.72168 0.08234 0.18539 -0.53544 -0.27963 0.42209 -0.26001 -0.11663 -0.35627 0.21874 0.6319 -0.16977 -0.32582 -0.57559 0.47471 -0.17778 0.43147 0.35945 -0.51412 -0.14152 -0.41249 -0.16824 -0.39305 0.33983 -0.49373 -0.25127 0.032282 -0.0061997 0.54178 -0.16054 -0.17018 0.18898 0.11994 -0.0092019 -0.54446 -0.22713 -0.42027 0.059946 0.018897 -0.30178 -0.43418 -0.1283 0.17236 0.099631 -0.23058 -0.5007 0.42651 0.35916 0.36673 -0.059991 -0.19318 0.38075 0.29593 0.12286 -0.43126 -0.52769 0.48964
year 0.021696 0.066023 0.18331 -0.44332 -0.074664 0.0042793 0.036194 -0.24702 -0.035875 -0.25331 0.099593 -0.32533 0.45318 -0.24704 -0.20226 -0.076547 -0.072413 -0.038159 0.2334 -0.30437 0.17415 -0.58753 -0.18116 0.1349 -0.62376 -0.33597 0.28854 0.39448 -0.22417 0.26868 0.18234 -0.075653 0.059608 -0.33992 -0.39679 -0.27945 0.11733 0.27769 0.064598 0.21362 -0.02324 0.15258 0.12892 0.49136 -0.26445 0.1177 -0.1859 0.14805 0.61227 -0.1314 -0.27805 0.37228 -0.031981 -0.31291 -0.24743 0.063289 -0.34683 -0.44008 0.11988 0.36103 0.29158 -0.22138 -0.10371 -0.10285 -0.18821 0.23854 -0.31981 0.11622 0.0054818 -0.45755 0.4432 0.13361 0.044691 -0.036473 -0.15861 0.017146 -3.7425E-4 0.17933 0.0099664 0.064762 -0.063903 0.24378 -0.2207 -0.019563 0.18877 0.28072 -0.32306 -0.14837 -0.080839 -0.18429 0.35384 0.39903 0.18973 -0.10485 0.069723 0.29022 -0.088642 0.28057 -0.10773 0.21361
psychiatry -0.63949 0.22305 0.12812 0.035493 0.69357 -0.13682 -0.26987 -0.038043 -0.097469 -0.17373 -0.39063 -1.0374 -0.046566 -0.28212 0.39991 0.17679 -0.24759 -0.50011 0.34166 -0.26324 0.69779 -0.059803 -0.35838 -0.56952 -0.67371 0.14038 0.44582 -0.39228 -0.58445 -0.62761 -0.20753 -0.038117 0.47963 -0.13634 -0.46502 -0.14242 -0.15996 -0.119 0.066394 -0.48913 -0.16059 -0.69201 -0.57344 0.88129 -0.23437 -0.73869 -0.26335 -0.059015 -0.23859 0.052648 0.34633 -0.041891 0.30288 -0.095764 -0.84825 0.45006 -0.49176 -0.28459 0.045987 -0.60844 0.063377 -0.18272 0.53459 0.30191 -0.33165 -0.30131 0.019828 -0.0018764 -0.8502 -0.082497 -0.18277 0.7984 0.030896 0.90001 -0.14829 0.010103 1.0428 -0.34924 0.04595 0.70822 -0.16857 -0.25526 0.73349 -0.28305 0.099433 -0.36824 -0.070291 0.46323 0.14188 0.10435 0.27621 0.052965 0.73676 -0.95253 -0.18574 0.45702 0.11997 -0.010123 0.86819 0.41339
asylum -0.051749 0.22162 -0.18727 -0.14291 0.50566 -0.31244 0.61999 -0.1658 0.19104 -0.16554 0.34597 -0.55481 0.34856 0.60767 -0.34768 0.76312 0.05427 0.14358 -0.04699 0.16041 0.87211 -0.46085 -0.1104 0.3502 0.039263 0.26406 0.49217 0.2059 -0.30615 -0.42094 -0.71598 0.21313 0.68701 -0.18003 -0.072622 0.67455 -0.33709 -0.046132 0.50916 -0.15444 -0.14792 0.34219 -0.18049 1.1222 -0.32001 -1.2311 0.4595 0.2467 0.24817 -0.43123 -0.6133 -0.40457 -0.21902 0.26236 -0.62297 0.16494 0.11436 0.20101 -0.2612 0.088236 0.24883 0.54959 -0.32467 -0.39127 -0.25356 0.54962 -0.34145 0.21824 -0.17507 0.068768 -0.04143 0.60328 0.020107 -0.040482 0.0071372 -0.1018 -0.39996 0.020267 0.73162 0.64048 -0.49691 0.643 -0.0030088 -0.032498 0.32324 0.022441 -0.85837 0.36432 -0.18808 0.14969 0.2835 -0.2202 0.27723 -0.84196 0.42846 0.66238 -0.30296 -0.36894 -0.10368 -0.1094
manslaughter -0.72037 -0.24169 0.26038 0.23202 0.063533 -0.60152 -0.049194 -0.32681 0.13921 0.79379 0.59835 -0.77309 0.23142 -0.041115 -0.24547 0.030117 -0.21904 -0.6596 -0.12291 -0.64389 0.53828 -0.40927 -0.41552 -0.88082 0.60862 0.17905 -0.036415 -0.1 -0.018208 0.026454 0.049221 0.0019038 0.47539 -0.26576 -0.34762 -0.8921 -0.60621 -0.28013 0.14691 -0.1993 -0.40135 -0.067173 -0.47011 0.31416 0.11478 0.46507 -0.52355 -0.98082 0.70249 -0.62467 -1.0329 -0.10323 0.35072 -0.17345 -0.97036 0.2408 -0.16551 0.087369 -0.16734 -0.22631 0.17068 0.24918 0.58529 0.26596 0.069823 0.1066 -1.0181 0.18954 -0.64374 -0.41345 0.078035 0.23395 0.33493 0.33097 0.53354 -0.38906 0.39672 -0.064903 0.34788 0.65074 0.27388 -0.074406 0.28393 -0.13351 0.28038 0.22014 -0.86859 -0.017784 0.11008 0.44106 -0.091828 -0.13685 0.45406 -0.71004 -0.23956 0.4589 0.27198 -1.2168 0.080754 0.47114
music -0.038441 -0.13709 -0.34797 -0.019334 -0.12592 -0.27951 -0.15266 -0.18493 0.32397 0.0013534 -0.39668 -0.47954 -0.42354 0.041148 0.42387 0.54435 -0.74006 -0.40407 -0.11309 -0.38806 0.76018 -0.19274 9.4652E-4 0.14089 -0.47911 0.2753 0.21279 -0.10245 -0.20259 0.16192 0.14645 -0.13124 0.52441 -0.34156 0.0117 -0.36041 0.067829 0.20407 0.47396 0.034341 -0.50079 0.32567 -0.0045209 0.21926 0.40366 0.2421 0.3184 0.32862 0.18812 0.080043 0.19259 0.52304 0.18552 -0.11716 -0.3231 -0.032824 -0.0095329 -0.27777 -0.24763 -0.5583 -0.062553 -0.26964 0.3193 0.051369 -0.60283 -0.79903 0.14336 0.12112 0.050168 -0.40326 -0.39777 0.19849 -0.10302 0.053867 -0.47423 -0.34474 0.032706 -0.63472 0.30015 -0.52165 0.059247 -7.1041E-4 0.60208 -0.33255 0.10847 0.25683 -0.41831 -0.23849 0.11391 0.27262 -0.17365 0.42048 0.77396 -0.033348 0.71669 0.19175 0.44983 0.47074 -0.5462 0.050255
record 0.11287 -0.40228 -0.8038 -0.64232 -0.48896 -0.34222 0.39891 0.060508 -0.10828 -0.32343 0.39492 -0.027314 -0.11793 -0.36694 -0.24442 -0.59967 -0.27311 -0.18019 -0.092338 -0.30625 0.16942 -0.22359 -0.64941 -0.13607 -0.63401 -0.068836 0.22008 0.02235 -0.21889 0.0014136 0.014606 -0.051156 0.42216 -0.21493 -0.51558 -0.090602 0.093962 0.24895 0.28926 -0.1921 0.13228 0.45948 0.5302 -0.1116 -0.26932 0.47268 0.013994 -0.20592 0.63371 0.33225 0.44224 0.17917 -0.17427 0.1763 -0.077826 0.10491 -0.065734 0.017338 0.25089 0.30279 0.21661 0.23757 0.032763 -0.37402 -0.51015 0.057885 0.19989 0.29132 0.31066 -0.46529 0.11167 0.14793 0.23554 -0.093678 -0.84068 -0.3583 0.17624 -0.10379 0.40612 -0.23416 -0.20599 -0.10266 -0.049663 -0.073308 0.52584 0.16412 -0.42179 0.39579 0.021523 0.16537 0.36234 0.35651 0.412 -0.015042 -0.14075 0.35348 0.0042611 -0.0039547 0.025583 0.0089552
energy 0.040225 -0.026555 -0.45692 0.56027 -0.031168 0.271 -0.21618 0.03551 0.1709 0.18931 -0.60095 0.23724 -0.32869 0.35916 0.30184 -0.4239 -0.41027 -0.22529 0.33293 0.026848 0.24534 -0.1869 0.14351 0.13676 -0.42059 -0.023697 0.2635 0.1409 -0.44914 0.33634 -0.60162 0.49769 -0.15964 -0.12278 -0.10195 -0.36108 -0.18514 -0.19781 0.39018 0.15813 -0.36386 0.45271 0.22875 0.67613 -0.021228 0.25864 0.24809 0.82435 0.47651 -0.42 0.053378 0.31458 0.17466 0.28257 -0.49271 0.24864 0.043329 -0.011935 0.087746 0.3327 0.6579 -0.50786 0.5079 0.28211 -0.43689 -0.072714 0.17624 0.63111 -0.16248 -0.32081 0.1139 0.20268 0.36473 -0.065221 0.059373 -0.27815 -0.075923 0.24893 -0.36143 -0.12885 -0.30733 -0.2126 0.043442 -0.15647 -0.021193 -0.10549 -0.39339 0.20736 -0.35872 0.61804 0.52111 0.51355 0.22878 0.21249 0.31473 0.24622 0.59878 -0.36322 0.61111 0.04399
announcement 0.10603 -0.083821 -0.12425 0.099533 -0.37525 0.21818 0.23462 0.11878 0.1875 0.14187 -0.23277 0.057187 0.25298 -0.35795 0.10383 0.030916 -0.3735 0.057101 -0.22238 -0.18113 0.7344 -0.76394 -0.16681 0.23715 -0.46138 -0.23458 -0.24829 0.43488 -0.19674 -0.0052864 0.14759 -0.11627 -0.18328 -0.3284 -0.14668 0.10221 -0.19947 0.12479 0.023955 0.32687 -0.2754 0.60403 0.15295 0.17561 0.19098 0.31196 0.53885 -0.16872 0.50459 -0.40907 -0.64435 -0.89152 0.18346 -0.13007 -0.36401 -0.11431 0.071718 -0.43947 0.18835 0.016094 0.36361 -0.12497 0.061228 0.017723 0.080951 -0.4703 -0.13767 0.36799 0.69259 -0.14358 0.37502 0.28386 0.23737 0.33713 -0.13737 -0.31719 -0.26315 -0.14411 -0.086293 0.15743 0.17033 0.19788 0.046922 -0.16703 -0.24539 -0.29415 0.1134 -0.10024 0.11396 -0.15082 0.11613 0.52411 0.0093839 -0.41528 -0.5766 0.2475 -0.1412 0.30453 0.29692 0.40217
mile -0.28918 -0.51356 -0.42004 -0.9533 -0.80038 -0.56757 -0.04935 -0.25742 0.22772 0.87495 0.18391 -0.31007 -0.23709 -0.13871 0.25796 0.090223 -0.33782 -0.098587 0.047875 -0.31983 -0.27209 0.34587 -0.45228 4.6216E-4 -0.013574 -0.37373 0.3188 0.27797 0.39136 0.32812 -0.31542 0.38348 0.14578 -0.65255 -0.5394 -0.23792 0.0012817 -0.040188 0.13358 -0.044998 0.035092 0.52646 -0.21744 0.3549 -0.14946 -0.40056 0.33227 0.028974 0.12243 -0.49382 0.065466 -0.034164 -0.061671 -0.28345 -0.71173 0.072663 -0.364 -0.21592 0.41209 0.41917 0.29742 -0.85909 -0.37146 -0.52334 -0.42284 0.37828 -0.094346 -0.42059 -0.16762 -0.55174 0.056403 -0.068069 -0.3904 0.26092 -0.0065902 -0.24658 -0.097877 0.64724 -0.083355 -0.064061 -0.51825 0.27322 -0.081054 -0.27737 0.29419 0.010455 0.40996 0.063152 -0.5601 0.32246 0.096942 0.19842 -0.0047693 -0.25565 0.20308 -0.051978 -0.26927 -0.36327 0.36735 0.28594
airport 0.39605 -0.43041 -0.45094 0.10188 0.23969 -0.5108 0.24471 -0.31852 0.735 0.15921 -0.38194 -0.13517 -0.62404 0.13516 -0.13498 0.12433 0.18573 0.47347 -0.12305 -0.2196 0.40484 -0.11874 0.1006 -0.1255 0.69258 -0.040907 0.054697 -0.21714 0.1551 0.43762 -0.24769 0.27482 0.3465 -0.10138 -0.024416 -0.11799 -0.020735 0.2257 0.45695 0.46095 -0.12431 0.52018 0.11431 0.66302 0.18537 -0.25008 -0.2324 0.083367 0.65877 -0.63457 -0.2437 -0.38045 0.50061 -0.91836 -1.1591 0.038251 -0.19465 -0.19609 0.37425 0.15713 0.21984 0.0024475 -0.073619 -0.3518 -0.25075 0.38759 -0.73147 -0.086981 0.16125 0.4896 -0.051755 0.1693 -0.23654 0.11372 -0.12158 7.629E-4 -0.42396 0.024522 0.6693 -0.32103 -0.46926 -0.23997 0.29028 -0.22478 0.14443 -0.54316 0.11487 0.25875 -0.44476 0.085793 0.060149 0.38949 0.19167 -0.9916 0.14733 0.21418 -0.16347 0.21474 -0.27613 0.17612
population 0.20045 0.21905 0.099364 -0.35387 0.031563 -0.49726 0.046953 -0.19255 -0.16973 0.15738 -0.17356 -0.11653 -0.3011 -0.051013 0.24766 -0.16816 -0.44253 0.11477 0.30534 -0.24669 0.73262 -0.034093 0.11355 0.2955 -0.18661 0.23655 0.39272 -0.043433 0.23595 -0.14218 -0.075122 0.37179 0.13873 -1.0152 -0.25051 0.46656 -0.076472 0.66201 -0.2129 -0.24599 -0.35567 0.37482 -0.6504 1.1638 -0.76132 -0.62047 -0.18825 0.4309 -0.011952 -0.37033 0.28444 0.086369 0.10877 0.26311 -0.45723 -0.030292 0.20967 0.14853 0.072274 0.60106 -0.055862 0.22709 0.032454 -0.49373 -0.23086 0.34763 -0.74049 0.18167 -0.38447 0.028657 0.40909 0.32819 -0.33058 -0.0052645 -0.17265 -0.25592 0.16841 -0.072589 -0.22178 -0.14276 -0.34756 -0.17905 -0.39978 0.063077 0.052706 0.25425 -0.45772 0.32553 -0.23184 0.46545 -0.047709 0.58268 0.0049878 -0.18116 -0.031429 0.46252 -0.39231 -0.17638 0.2831 0.39881
planning 0.23398 0.40633 0.024633 -0.031925 0.21866 0.1958 -0.061224 -0.37087 -0.044956 -0.061128 -0.16994 -0.4876 -0.21477 -0.18796 -0.078458 0.16077 -0.57547 0.14984 -0.086299 -0.17803 0.14993 -0.14027 -0.54747 -0.27333 0.11372 -0.0094436 0.012969 0.1569 -0.5145 -0.22409 -0.1072 -0.027297 -0.092133 -0.12389 -0.16427 0.12973 -0.060111 -0.13816 -0.18943 -0.05619 -0.36575 0.44036 0.12576 0.2453 0.41416 0.13196 0.096403 0.42077 0.56545 -0.51741 -0.11785 -0.14054 0.11495 -0.39317 -0.55323 -0.074038 -0.43442 -0.014224 0.1786 0.10344 0.64172 0.27983 0.11124 0.32358 -0.48285 0.13822 -0.43919 0.49232 0.43213 0.19941 0.27025 0.048819 -0.22947 0.11924 0.26994 -0.36744 0.095767 0.22337 0.37619 -0.14291 -0.060137 0.4085 0.047193 0.04847 -0.37577 -0.098458 -0.25207 0.049453 -0.25323 0.18412 0.29457 0.27723 0.23755 -0.066038 -0.12051 -0.13998 0.1355 0.19928 -0.013317 0.10861
canyon -0.28911 -0.17746 -0.65682 -0.11591 -0.51892 -0.68004 -0.046183 0.0036923 0.93371 0.82556 0.29906 -0.89743 -1.087 -0.28771 0.44885 0.26057 0.1131 -0.61452 0.058255 0.097268 0.25967 0.077284 -0.35973 0.029093 -0.69289 -0.45813 -0.08578 0.28296 0.59264 0.15927 0.31792 0.84412 0.021623 -8.2113E-4 -0.13618 -0.50692 0.52451 -0.50931 -0.073996 0.48395 -0.23601 0.33597 -0.38259 0.17181 -0.097392 -0.80789 0.47859 0.050854 0.25113 -0.13039 0.27815 0.060413 0.3937 -8.7225E-4 -0.7196 0.27372 -0.081393 -0.018635 0.018953 0.11363 -0.022956 0.071045 0.10668 0.036289 -0.57268 0.073756 0.20224 -0.09226 0.10648 -0.43203 0.17129 -0.47889 -0.041509 0.43501 0.078899 -0.16932 -0.12873 0.22898 0.28012 -0.49302 -0.5827 0.14158 0.093421 -0.011906 0.74717 0.25438 0.12774 0.47167 -0.40597 0.86488 -0.11934 -0.18901 -0.20994 -0.16498 0.37492 0.51389 -0.27445 -0.13974 0.079418 0.2997
delay 0.48448 -0.12091 -0.34871 -0.089275 0.12514 0.014527 -0.0039956 -0.27207 0.57044 -0.10123 0.063287 0.11472 0.14295 0.13045 0.16241 -0.080399 -0.38099 0.094292 0.013658 0.2135 0.31374 -0.20428 -0.20977 0.17658 0.39186 -0.65262 0.38186 0.57882 -0.23343 -0.30434 -0.033524 0.085291 0.68148 -0.36243 -0.26348 -0.045532 -0.13758 0.034093 -0.31904 -0.0065359 -0.33148 0.35401 0.28521 0.29396 0.24188 0.23593 0.32539 -0.24353 0.16619 -0.22156 -0.82054 -0.2383 0.17144 0.14974 -0.46154 -0.23819 -0.074441 -0.34464 0.31956 -0.047984 0.29597 -0.2324 0.24371 0.044407 -0.40704 -0.07577 -0.27299 0.24925 0.40457 -0.22286 0.52231 0.44855 0.13234 0.1413 0.27811 -0.68539 0.050437 0.10408 0.42222 0.31646 0.18735 0.42537 0.18489 0.026191 -0.12655 -0.19298 -0.10174 0.36765 0.23327 0.14783 0.59196 0.61921 0.071997 -0.040426 -0.47659 0.015348 -0.31503 0.074948 0.11454 -0.069497
size -0.27736 0.45017 -0.68263 -0.34786 -0.065516 -0.29027 0.2072 0.031724 -0.073468 0.27457 -0.3068 0.16266 0.025132 -0.20785 0.099643 -0.34753 -0.65457 0.025466 0.27137 0.0011181 0.3826 -0.1223 0.37099 -0.28595 -0.0068209 -0.46279 -0.27876 0.10577 0.15905 0.030759 0.27173 0.57772 -0.04475 -0.42177 -0.014636 0.17302 0.59178 0.42163 -0.065985 0.17195 -0.48181 0.49215 -0.3994 0.55662 -0.27691 0.094009 0.081874 0.40163 0.040514 -0.019071 0.0959 -0.15886 0.52626 -0.16379 -0.11602 -0.15838 -0.18121 -0.10477 0.12374 0.81378 0.2354 -0.069638 -0.34674 0.052976 -0.057181 -0.011971 -0.45681 0.036392 -0.61227 -0.028416 0.36291 0.16839 -0.55233 0.20392 -0.12944 -0.21118 0.32524 0.11574 -0.059386 -0.40559 0.29888 -0.18372 0.10025 -0.24112 0.13259 -0.072472 -0.1014 0.12119 -0.13866 0.49302 0.23738 0.42236 -0.18836 -0.10367 -0.0038165 0.061137 -0.22119 -0.26464 -0.15 0.1765
peace 0.12016 -0.85586 0.39041 0.20093 0.2826 -0.17005 0.53915 -0.62356 0.26415 -0.19681 -0.45658 -0.77936 -0.26811 0.21803 0.35865 -0.40269 -0.37086 -0.59671 0.45777 -0.44961 0.97643 -0.48129 -0.66346 0.203 -0.0056205 0.085032 0.39841 -0.52692 0.21971 -0.88894 -0.09176 0.60937 -0.047173 -0.11067 0.62243 0.35859 0.2238 -0.18232 -0.0078549 0.70417 -0.036147 0.23384 0.16048 0.55614 0.59317 -0.20507 -0.13964 0.14174 0.43951 -0.70419 -0.544 -0.22559 0.28796 -0.17517 -0.59584 -0.67993 0.09215 -0.12854 -0.18366 -0.025488 0.1457 -0.35875 -0.10572 -0.3933 -0.26071 -0.37366 0.37899 -0.010455 0.08855 -0.57993 -0.0061228 -0.34755 0.45406 -0.34746 -0.26328 0.048635 -0.066406 -0.43492 0.46048 -0.35075 -0.39979 0.65981 -0.57403 -0.67213 -0.0079484 0.23024 -0.61311 -0.19823 0.38465 0.29784 0.21339 -0.085181 -0.073248 -0.37994 0.06591 1.022 0.21257 -0.22866 0.60731 0.05479
science -0.81333 0.047633 -0.074627 0.06259 0.30057 0.38362 -0.21175 0.11886 0.2371 -0.69528 -0.4613 -0.29816 -0.37094 0.31368 0.4123 0.078711 -0.3621 -0.45275 0.29238 -0.20204 0.5091 0.15142 -0.17162 -0.075911 -0.519 0.065868 0.075776 -0.14211 -0.31869 -0.34505 -0.27766 0.036535 0.0031325 -0.28491 0.003783 0.010292 -0.55588 -0.034527 -0.21116 -0.058576 -0.23172 0.19895 -0.0099597 0.56937 0.11357 -0.6695 -0.31438 0.11987 0.27824 -0.22685 -0.073027 0.039406 -0.015154 -0.11412 -0.75297 0.33704 -0.26744 -0.22475 -0.11946 0.11985 -0.070112 -0.043719 -0.31027 0.53178 -0.54193 -0.16004 -0.12655 0.29254 -0.3006 -0.63256 -0.28586 0.50565 -0.16911 0.29332 -0.25492 -0.37631 0.54737 -0.4842 -0.069061 -0.099269 0.24911 -0.2415 0.21665 -0.67194 0.38421 -0.11634 0.16242 0.22065 -0.081797 0.55056 0.62927 0.13582 0.802 0.28227 -0.17795 -0.027095 0.13272 0.11184 0.68397 0.14155
dawn -8.9012E-4 -0.18157 -0.16588 -0.52817 -0.31958 -0.47892 0.17015 -0.30491 0.48312 0.095566 0.14406 -0.39369 -0.125 0.11242 0.68021 0.77266 0.21614 -0.14795 0.087416 -0.48563 0.74646 -0.065801 -0.12484 0.03226 0.071584 -0.31442 0.097214 0.54375 0.085889 0.047285 0.025384 0.40349 -0.17911 -0.6242 0.065395 -0.15654 -0.14076 -0.13155 0.35128 0.1053 -0.24565 0.50533 0.26848 0.28666 0.021229 -0.21905 0.20159 0.065845 0.48214 0.10868 -0.62981 -0.45814 -0.29761 -0.39286 -0.61694 -0.48444 0.20886 -0.058474 -0.42518 0.40111 0.73623 -0.19874 0.24659 -0.068528 -0.40855 0.13289 -0.04999 0.10958 0.15457 0.17944 -0.2013 -0.10136 0.13214 -0.43836 -0.36305 0.33171 0.097788 -0.044315 0.18291 0.047772 -0.087963 -0.25351 0.12333 -0.35631 -0.078349 0.24353 0.033925 -0.071386 -0.26505 0.49142 -0.2714 0.59027 -0.2563 -0.5027 -0.28896 -0.26558 0.073604 -0.0524 0.055292 0.32438
brother 0.49305 -0.31676 0.58677 0.021035 0.23282 -0.04139 0.45444 -0.35457 0.022503 0.41871 0.059977 -0.21216 -0.076932 0.31419 0.14165 0.47618 -0.044642 -0.36662 -0.41456 -0.29702 0.57914 -0.050614 -0.041841 -0.4952 -0.23737 -0.51795 0.20616 0.023807 0.032861 -0.32284 0.065606 -0.1074 0.12832 -0.44714 -0.56542 -0.18943 -0.18368 -0.055511 0.5063 -0.21175 -0.025525 0.064232 -0.62725 0.074872 0.12804 0.14298 0.6545 -0.32678 0.45237 -0.1268 -0.18385 -0.013361 -0.096134 -0.21106 -0.35946 0.13529 -0.55991 0.27301 -0.012879 0.11076 -0.097556 -0.40277 0.18658 -0.070433 -0.022976 -0.1699 -0.5705 0.61498 -0.34608 0.32916 -0.1271 0.21613 0.30571 0.37415 -0.78231 0.041245 0.16443 0.46989 0.46716 -0.01403 0.59044 -0.28569 0.047771 -0.16606 -0.39933 -0.17866 -0.52779 -0.29141 -0.15296 0.04354 -0.183 0.55594 0.19112 -0.32677 0.04003 0.34852 0.092327 -0.36347 0.085169 0.027393
wine -0.49455 -0.17098 -0.56301 0.21569 0.31357 -0.53656 0.14213 -0.32392 0.40804 0.46647 -0.57627 -0.31503 -0.11393 -0.14657 -0.027096 -0.077225 -0.30379 -0.11817 -0.27437 -0.24637 0.055729 0.47601 0.089079 0.035471 -0.42618 -0.29103 5.9916E-4 -0.1335 -0.73495 1.1324 0.25534 0.73209 0.069748 -0.11572 -0.22987 -0.15029 -0.072412 -0.040392 -0.018929 -0.028314 -0.73307 -0.22431 -0.25861 0.75516 -0.020877 0.017255 0.050074 0.11115 0.17258 -0.2667 -0.089263 0.30995 0.55081 -0.073949 -0.56094 -0.15016 0.075536 -0.49894 -0.026128 0.20399 0.12358 0.021699 0.58881 -0.41455 -0.12595 -0.48295 0.26697 -0.23565 0.31833 0.078237 -0.207 0.36967 -0.27539 0.020316 -0.60476 -0.10632 0.055751 -0.19377 0.036424 -0.51542 -0.10563 -0.27343 -0.060592 -0.16519 0.21441 0.65994 -0.74408 -0.20212 -0.27891 0.43153 0.41304 0.0091375 0.3269 -0.072388 0.7631 0.50556 0.37155 -0.042106 -0.0096793 -0.152
object -0.25719 0.13981 -0.65638 -0.19774 0.083199 -0.28894 0.13378 0.027685 0.37211 0.41732 -0.12488 0.06684 -0.19522 -0.18922 0.0042039 0.020508 -0.40999 -0.30887 0.16838 -0.30718 0.68964 -0.18624 0.16627 -0.074441 -0.065526 -0.078222 0.1791 0.38358 -0.068747 -0.32084 -0.013122 0.34622 0.32174 -0.25178 0.30026 -0.0626 0.087814 -0.2712 -0.10488 0.070421 -0.14999 0.50773 0.079911 -0.05699 0.11559 -0.074081 0.48252 -0.0041687 -0.12732 -0.20468 -0.021821 0.10675 0.21259 0.034998 -0.70855 0.22181 -0.44187 0.06848 -0.16371 0.30767 -0.12688 0.016536 0.096429 -0.0030516 0.30723 -0.051938 -0.048709 0.17991 -0.078081 0.067167 -0.17771 0.11875 -0.18017 0.50148 -0.28364 -0.32006 0.066036 -0.32596 -0.047308 -0.033085 -0.071618 0.35268 0.16925 -0.11151 0.45778 0.24763 0.17192 -0.0086868 -0.2456 0.50774 0.36936 0.50606 0.09065 -0.14895 -0.026331 -0.003257 0.057421 -0.47883 0.21152 -0.060405
attitude -0.39615 -0.51856 -0.23268 -0.23265 0.62458 -0.10352 0.34132 -0.62628 -0.19528 0.15793 -0.90461 0.34294 -0.027077 -0.27598 0.17702 0.44508 -0.46455 -0.48661 0.1624 -0.28017 0.13712 -0.11836 -0.21965 0.23191 -0.90761 -0.043159 0.19625 0.02538 -0.012867 -0.20031 -0.20252 0.28642 -0.28393 -0.15131 0.57541 0.30732 -0.11856 0.345 0.17877 0.16648 -0.032099 0.044416 -0.03591 0.078443 0.15144 -0.33612 0.10405 0.51753 -0.19235 -0.012559 0.10178 0.024763 0.008447 0.11233 -0.5244 -0.15624 -0.30123 0.03342 0.31176 0.006527 0.33827 0.13052 0.10572 0.097254 0.041313 -0.31229 -0.31428 0.59082 0.013791 -0.20444 0.10317 0.1834 -0.01798 0.49997 -0.015654 -0.20943 -0.35673 0.054952 0.62169 0.34322 0.32316 0.38401 0.34815 -0.028825 0.29842 0.018799 -0.25173 -0.23925 -0.028006 0.251 0.206 0.54169 0.054668 -0.70483 -0.15988 0.17136 -0.22715 -0.79523 0.0096954 0.19321
treatment 0.073225 0.11566 -0.19663 -0.026254 0.062354 -0.51421 0.25332 -0.094117 0.10158 0.2833 -0.6414 -0.5479 0.27723 0.2609 -0.25978 0.41314 -0.40159 -0.36356 0.34431 -0.015306 0.11787 -0.10798 -0.289 -0.025148 0.18463 -0.064431 0.63232 0.10065 -0.4084 0.074622 0.35298 0.33241 0.29845 0.24151 -0.52944 -0.073753 0.18898 0.50128 -0.13017 -0.34961 0.15363 -0.0038863 -0.20495 0.64055 -0.12919 -0.46119 -6.848E-4 0.16463 0.12917 -0.17841 -0.077443 -0.28958 0.032332 0.33835 -0.66806 0.14342 0.32934 0.050122 0.1527 -0.38658 0.73208 -0.17114 0.20558 0.13847 -0.36519 0.063811 -0.16482 0.58068 -0.092923 0.26134 0.41822 0.56925 0.46973 0.62969 0.23117 -0.34356 0.025423 0.21624 0.0073521 0.71871 -0.11656 0.34975 0.31126 -0.23518 0.25176 -0.033768 -0.34008 0.3911 -0.062327 -0.2532 0.21249 -0.27907 0.026295 -0.42105 0.00597 0.13617 -0.16104 -0.19823 0.51687 0.70441
flight 0.11135 -0.26242 -0.24734 0.0060028 0.20549 -0.4339 1.0013 -0.17701 0.61292 -0.13379 -0.48931 0.13545 -0.53049 0.49931 -0.17191 0.41222 -0.20019 -0.039969 -0.20354 -0.046297 0.57202 -0.11327 -0.0036634 -0.12187 0.56356 -0.20046 -0.34251 0.12905 0.012515 0.46467 0.083369 0.58514 0.66832 9.6579E-4 -0.019032 -0.40538 -0.29992 0.24554 -0.15334 0.37485 -0.31194 0.35342 0.27732 0.32042 -0.34183 -0.19944 -0.51961 -0.43651 0.47423 -0.27155 -0.13549 0.035397 0.26754 -0.91244 -0.72047 -0.18324 -0.33375 -0.45413 0.62401 0.23575 0.16483 0.073545 -0.11974 -0.027573 -0.40506 0.45317 -0.59155 0.18593 -0.045729 0.16766 -0.16562 0.019592 -0.05962 0.23338 0.13584 -0.24329 -0.070098 0.067091 0.80651 -0.47539 -0.14334 0.19883 0.52276 -0.51172 0.042718 -0.7963 -0.030442 0.25099 -0.31131 0.51388 -0.071196 0.35702 0.18366 -0.54136 0.0093754 0.30145 -0.50876 0.39319 0.14743 0.060645
forest -0.031235 0.012716 0.28925 -0.24749 -0.56875 -0.31067 -0.42886 0.018191 0.89205 0.3321 -0.024538 -0.48254 -0.96112 -0.19924 0.314 0.097396 -0.40374 -0.3846 0.21567 -0.04919 0.41716 0.19294 -0.20504 -0.037207 -0.11606 0.22416 0.26931 0.46569 0.17132 -0.13154 -0.37174 0.9015 -0.24265 -0.18017 -0.22086 -0.033527 0.26042 -0.31137 0.20498 0.19729 -0.82197 0.64712 -0.056612 0.77771 -0.47483 -0.7352 0.35215 0.11826 0.50605 -0.21054 0.22998 -0.0065873 0.62895 -0.058837 -0.39931 0.22469 0.080343 0.23044 -0.48723 0.06794 0.092911 0.053403 0.1036 -0.11592 -0.17446 0.037026 -0.090516 -0.20869 -0.034498 0.23474 0.209 0.071287 -0.05999 -0.077875 0.12238 -0.14493 0.24824 0.17064 0.29232 -0.55016 -0.58882 0.26418 -0.19298 0.31971 0.49372 0.4609 -0.64323 0.20649 -0.56739 0.80666 0.12899 0.186 0.039569 0.18609 -0.036005 0.46995 0.044831 -0.32168 -0.11122 0.64178
abuse -0.064004 -0.10668 -0.080768 0.40401 0.23298 -0.78338 0.061452 0.081684 -0.25898 0.20918 0.31717 -0.055003 0.16234 0.12564 -0.009023 0.46304 -0.89026 -0.33806 0.22809 -0.49303 0.3108 -0.28479 -0.16073 -0.39239 0.16839 0.076807 0.07405 -0.32776 -0.061049 -0.31659 0.50498 -0.61884 0.50369 -0.51055 0.17632 -0.41206 -0.39151 -0.48807 -0.11129 0.086324 -0.68654 -0.20825 -0.31234 0.55038 -0.046478 -0.21858 0.075673 0.42346 0.18225 -0.072342 0.016942 -0.43767 -0.24357 0.27574 -0.64328 -0.04298 0.021257 0.14759 -0.035636 -0.15266 0.55712 0.15737 0.2655 -0.20648 -0.12175 -0.10361 -0.0379 0.19205 -0.43837 -0.32387 0.71102 0.66184 0.13336 0.78725 0.029699 0.35472 0.16628 0.24941 0.63198 0.50263 0.10334 0.33178 0.49348 0.13353 0.76376 0.33593 -0.38423 0.41711 -0.15544 0.053506 0.23096 -0.04828 0.071412 -0.46989 0.3324 0.18752 0.20744 -0.74052 0.32967 0.30883
criterion -0.27621 0.37925 -0.6334 -0.11148 0.36678 0.39866 0.031687 -0.29471 -0.075221 0.013488 -0.30839 -0.092822 0.41282 -0.12592 -0.1535 -0.079314 -0.030589 -0.4068 0.49414 -0.041617 0.3101 -0.30554 -0.13534 -0.068034 -0.085326 0.055359 -0.27471 -0.11802 -0.45717 -0.11401 0.047367 0.49845 0.34195 -0.055381 -0.64616 0.28092 0.28128 0.20103 -0.033869 0.061903 -0.081774 0.021025 -0.21872 -0.046284 0.16185 -0.40505 -0.16256 0.093767 0.22224 0.091842 -0.096343 -0.4118 0.031105 0.43949 -0.65763 0.2593 -0.39718 0.3721 -0.059441 0.30617 0.12408 0.12588 -0.28862 0.093526 -0.029961 -0.15982 -0.45678 0.049376 -0.17191 -0.26958 -0.042585 0.33041 0.34104 0.23285 -0.30704 -0.52829 0.30681 -0.4521 0.13141 0.1043 -0.26077 0.22588 0.12385 -0.52345 0.071696 -0.072845 -0.53482 -0.3104 0.05916 -0.19269 0.36203 0.47211 0.58454 -0.029323 0.055733 0.23347 -0.21189 -0.32056 0.020028 0.28615
sea -0.2001 0.064476 -0.42392 -0.22778 -0.19228 -0.5115 0.26203 0.089382 0.75536 0.17425 -0.61515 -0.8574 -0.33071 -0.013765 0.54806 -0.043471 -0.23987 -0.050964 0.098122 -0.29229 0.54525 0.39551 0.21267 -0.27175 -0.079815 -0.083342 0.40966 0.49944 -0.02393 0.33906 -0.23469 1.0005 -0.20398 -0.56018 0.40558 -0.57485 -0.19014 -0.30141 -0.20491 -0.14362 -0.015806 0.33964 0.17422 0.27162 -0.31492 -0.44964 0.01255 0.026435 0.69701 0.24101 0.21012 0.049581 0.29827 0.036748 -0.8691 0.10221 0.097593 0.092973 0.31525 0.37205 0.014881 -0.10213 -0.16297 -0.21545 -0.31497 0.16449 0.0064284 -0.16756 -0.16945 -0.05479 0.63561 -0.087424 -0.13115 -0.26873 -0.45264 0.12795 0.23393 0.26424 0.34191 -0.33136 -0.1813 0.074455 -0.078988 -0.08058 0.68437 -0.050598 0.027448 0.073412 -0.091803 0.96902 -0.095565 -0.095189 -0.067136 0.32192 0.29333 0.62167 0.059904 -0.48167 0.1504 0.050816
dollar -0.62248 0.19371 -0.71032 -0.044633 0.44907 0.058926 -0.10497 0.31547 0.39401 -0.060693 0.042887 0.36885 -0.23039 -0.40485 -0.16805 -0.053071 -0.10823 -0.61336 0.077457 -0.51033 0.83766 -0.46778 -4.1771E-4 0.27921 -0.25181 -0.63629 0.28794 0.47479 0.019762 0.56641 -0.3039 0.30072 -0.047864 -0.68133 -0.010403 0.28963 0.10857 -0.26685 0.25396 0.29399 0.67903 0.5635 0.29117 0.13346 -0.92541 0.45747 0.19714 0.37381 0.65124 -0.14271 0.21877 0.50271 0.03615 0.029069 -0.40523 -0.4496 0.064394 -0.24656 0.32407 -0.091472 0.12974 -0.16627 0.17242 -0.29958 -0.57757 -0.26152 0.054195 0.061945 -0.38371 -0.06844 0.82447 0.50316 0.25289 0.029163 -0.31764 -0.34048 0.36065 0.46729 0.40342 0.14244 -0.45935 -0.032683 0.13439 0.38879 -0.24601 -0.85974 -0.92157 0.081379 -0.21255 -0.13829 0.11838 0.13545 -0.48477 -0.2771 -0.49777 0.74098 0.087289 -0.18218 -0.17765 0.014866
example -0.31588 -0.2107 -0.22094 -0.1004 0.24138 -0.034629 0.28448 -0.23985 0.017379 0.14315 -0.029497 -0.10062 -0.042059 0.015439 0.1145 0.010606 -0.33435 -0.024864 0.24789 0.023283 0.27074 -0.19665 -0.2671 -0.2267 -0.11338 -0.56082 -0.098778 0.098338 -0.21207 0.22315 -0.14167 -0.0029143 -0.20619 0.029585 -0.17533 0.32553 -0.074621 0.64031 0.031154 0.019543 -0.37903 0.19412 -0.11792 0.11838 -0.018251 -0.41031 0.0057238 0.37518 0.15886 0.22644 -0.1381 -0.0058458 0.29521 0.14225 -0.39198 0.14336 -0.38957 -0.27473 -0.23708 0.16437 0.24659 7.5377E-4 0.17602 -0.14887 0.029655 -0.022056 -0.048933 0.24235 -0.094366 0.080275 0.0021454 0.38484 0.028554 0.36077 0.065236 -0.46691 -0.14271 0.11818 0.029565 0.04458 0.068377 0.18618 0.037957 0.096652 0.12545 0.2895 -0.19881 -0.2509 -0.13494 0.13783 0.35752 0.57679 8.6273E-4 -0.17907 0.029691 0.32447 -0.086422 0.14007 0.15929 0.11469
journal -1.0562 -0.16607 0.57372 -0.52467 -0.41537 -0.4925 0.6325 0.0019697 -0.0033579 -0.57683 -0.71633 -0.34706 -0.073438 -0.45874 0.35521 0.10719 0.045557 -0.49346 0.1342 -0.42997 0.70055 -0.26797 -0.24195 0.0032339 -0.09204 -0.15329 -0.42035 -0.62113 -0.44275 -0.23045 -0.12923 0.55949 0.48212 -0.26154 -0.39849 -0.17451 -0.27679 -0.28474 -0.44523 0.14095 -0.79406 -0.11111 -0.21596 0.72369 -0.77178 -0.55745 0.13775 0.044937 0.65101 0.090467 -0.15034 -0.4789 0.55538 0.96467 -0.5831 0.98863 -0.57763 -0.70307 0.12709 0.30657 -0.1675 -0.096965 0.11519 -0.040338 -0.039869 -0.14102 0.31933 0.1079 -0.35544 -0.14893 -0.049949 0.353 -0.17577 0.36386 -0.26294 -0.58411 0.85426 -0.58657 -0.49406 0.60679 0.81251 0.26853 0.7402 -0.20044 0.030128 -0.74781 -0.095766 0.41717 0.44476 -0.46868 0.019445 0.38054 0.36861 -0.3445 -0.054199 0.34537 0.20327 0.30108 0.68194 0.10999
laundering -0.50393 -0.2299 -0.18936 0.070427 0.38033 -0.51714 0.36027 -0.48 0.14951 -0.15687 0.97356 -0.013012 -0.0088162 0.080032 -0.27529 -0.18242 -0.2531 -0.14361 0.32283 -0.35588 0.17637 -0.040898 0.33931 -0.51896 0.53401 -0.11602 -0.022511 -0.40729 -0.1663 0.58851 0.11228 -0.12521 0.42748 -0.022607 0.11302 -0.19559 -0.25777 -0.18739 0.5552 -0.22309 -0.30189 0.094029 -0.43546 0.6894 0.06062 0.070833 0.19037 0.52009 1.417 -0.98002 -0.35861 0.2644 -0.1637 0.26865 -0.59126 0.098127 -0.31171 0.33178 0.15179 -0.30274 0.4883 0.63044 0.3462 -0.38551 -0.65728 -0.12722 -0.1205 0.32035 -0.31063 -0.13867 0.40658 0.48522 0.04313 -0.32811 0.058597 0.061337 0.7761 0.35877 0.39561 0.11129 0.66026 0.41723 0.31712 0.21341 0.096216 -0.20754 -0.63185 0.62252 -0.7813 0.096516 0.42946 -0.61973 -0.14727 -1.0021 -0.10631 0.36031 0.59061 -0.51585 0.40995 -0.15109
hotel 0.0053712 0.060182 -0.45947 0.25889 0.10592 -0.33865 0.48653 -0.24868 0.60913 0.41854 -0.30001 -0.40163 -0.55646 -0.36374 -0.19348 0.28742 0.25953 0.0071507 0.35861 -0.17715 -0.1455 0.1165 -0.41633 -0.49864 0.27061 -0.010004 -0.080984 0.24394 -0.37603 0.24811 0.19463 0.14763 -0.23513 -0.20832 0.021722 -0.18811 0.20048 -0.073955 0.63204 0.48255 0.033311 -0.073923 -0.27277 0.34171 -0.1053 -0.072076 0.026032 0.086557 0.60164 -0.36022 -0.0053926 -0.022329 0.3381 -0.60933 -0.75819 0.14203 0.014269 -0.73801 0.32653 0.45313 0.21282 0.0058573 -0.015965 -0.21454 -0.56057 0.093072 -0.18903 -0.0078286 0.18521 0.31953 -0.055855 -0.025987 0.13014 0.23608 -0.46509 0.17045 0.1564 0.068275 0.46454 -0.14641 -0.42006 -0.35057 0.41997 0.123 -0.1846 0.16082 -0.30001 -0.40003 0.018889 0.50006 -0.10564 -0.046636 0.23887 -0.73824 0.60565 0.070645 -0.39767 -0.014477 -0.05048 -0.027924
term 0.075734 0.047955 -0.462 -0.27877 0.042867 0.12045 0.0025339 -0.42674 -0.13849 0.50213 0.072181 -0.29456 0.54441 -0.019566 -0.19522 -0.54477 -0.31249 -0.6488 1.0133 0.22899 0.29764 0.016955 0.02844 -0.034642 0.071481 -0.59127 0.23502 0.24555 -0.12219 0.010886 0.087008 -0.009924 -0.23682 -0.59427 -0.62138 0.26962 -0.0463 0.039724 -0.30224 0.23887 -0.36753 0.090241 -0.081462 0.11351 -0.23315 -0.13382 0.14482 -0.26125 0.30789 -0.36504 -0.24572 0.13481 -0.67411 0.2991 -0.28997 -0.2506 -0.25031 0.081896 -0.12132 0.11863 0.27137 -0.057799 0.47669 -0.14236 -0.38379 0.056322 -0.020439 0.2282 0.30754 -0.21893 0.41891 -0.10185 -0.42778 0.2378 -0.071295 -0.14059 0.10591 0.15247 0.42203 0.54405 0.0092676 -0.09168 -0.22698 -0.78069 0.2738 -0.35789 -0.68846 -0.062278 -0.023324 0.14462 0.14111 0.43317 0.28245 -0.16307 -0.51853 0.37007 -0.047742 0.056658 0.79044 -0.013734
listing -0.11692 0.67651 -0.5246 -0.11056 -0.29579 0.33805 0.50603 -0.32932 0.33887 0.39019 0.13614 -0.41497 -0.40799 -0.30182 -0.30609 -0.36753 0.096811 -0.037673 0.030634 -0.31854 0.49783 -0.1754 -0.20815 0.073363 -0.035848 -0.17989 -0.28396 -0.23303 -0.63922 0.32849 -0.14077 0.11082 0.30619 -0.22065 -0.251 0.40988 0.14857 0.14315 0.10594 0.35649 -0.16102 0.4712 0.27785 0.089806 -0.14344 -0.18544 0.018045 0.13116 0.38141 -0.19977 -0.035231 -0.59124 0.26438 0.39444 -0.25114 0.028848 -0.064028 -0.49351 0.015169 -0.1464 0.33736 0.29342 -0.13032 -0.43215 0.18135 -0.11576 0.21866 0.17799 0.52143 0.12503 0.22041 0.12917 0.29799 0.13347 -0.28092 -0.35753 0.55503 0.046877 0.40358 -0.50721 -0.0025806 0.24498 0.26845 -0.056418 0.15543 -0.32477 -0.6937 -0.33198 -0.15555 0.32925 0.19249 -0.13668 0.19597 -0.3432 -0.16337 0.23754 -0.35688 0.084853 -0.1774 0.060699
chemistry -1.0413 -0.1267 0.29185 -0.19346 0.39321 -0.056044 0.17165 -0.078222 0.35467 -0.27358 -0.34687 -0.11632 -0.24342 0.22513 0.36069 -0.14421 -0.73753 -0.39768 0.16628 0.0014654 0.43297 0.23649 0.014317 0.16473 -0.81442 -0.31644 0.22843 -0.29252 -0.36442 -0.056896 -0.17294 0.59734 0.42208 0.20258 -0.082291 -0.30469 -0.077435 0.012114 0.506 -0.079499 -0.24235 -0.18877 -0.38909 0.72315 0.35126 -0.31797 -0.077423 -0.3208 0.31878 -0.083615 0.36935 -0.19966 -0.12486 -0.32145 -0.28601 0.342 -0.13825 -0.23192 -0.33824 0.37917 0.47134 -0.30497 -0.1659 0.47018 -0.2957 -0.15729 -0.051737 0.52158 -0.39549 -0.16933 -0.36585 0.29114 0.12238 0.29763 -0.22899 -0.16043 0.51651 -0.98479 -0.005518 0.3374 0.27957 -0.14971 0.10344 -0.63125 0.45199 -0.48603 -0.20351 0.26807 0.044689 0.38556 0.65793 0.33906 0.45168 0.39966 0.24475 -0.19669 0.20963 0.13957 0.35625 0.40382
seafood -0.56832 0.044547 -0.4189 0.2997 0.72596 -0.39571 0.10697 -0.35746 0.57298 0.59994 -0.84217 -0.39806 -0.3677 -0.02924 0.26081 -0.0043064 -0.18176 0.017699 -0.3318 -0.22954 -0.22955 0.70348 -0.1246 0.32755 -0.68487 -0.030438 -0.30562 0.47578 -0.61204 1.1653 0.30013 0.98791 -0.28524 -0.46428 0.010514 -0.19264 -0.17625 -0.031987 -0.063201 -0.2336 -0.20844 0.15279 -0.12331 0.3576 -0.22296 -0.31788 -0.13187 0.20263 0.439 -0.091349 -0.042821 -0.15085 0.50003 0.19627 -1.1561 -0.012481 -0.1287 -0.4823 0.41893 0.4366 0.45329 0.095317 -0.14938 -0.53091 -0.16836 -0.20243 0.48952 -0.30714 -0.32931 0.32043 0.12564 0.58028 0.22987 -0.35006 -0.24957 -0.12723 0.52939 0.021226 0.24811 -0.19297 -0.22928 -0.49538 -0.26348 -0.17737 -0.15528 0.25999 -0.65834 0.014192 -0.06601 0.61448 0.23047 -0.43176 0.17225 -0.045235 -0.0078667 0.22534 0.4746 0.056571 0.089677 0.62551
CD -0.25263 -0.32099 -0.42026 -0.012898 -0.48702 -0.38994 0.28146 -0.09116 0.3181 0.0094329 0.14217 -0.20849 -0.22543 -0.22751 0.16207 0.35651 -0.43185 -0.64321 -0.3207 -0.48709 0.51991 -0.70058 0.082342 0.29176 0.056721 -0.31854 0.019935 -0.035307 -0.82503 0.0082444 -0.13698 0.27898 0.60245 -0.35398 -0.021479 -0.12758 0.34494 0.28083 0.42009 0.4287 -0.33089 0.086763 0.1579 0.047722 -0.68178 0.34028 0.13962 0.3575 0.47043 -0.29441 0.51876 0.44491 0.12248 0.045995 -0.0334 -0.12791 -0.29579 -0.084758 0.31283 -0.57135 0.41156 -0.24562 0.25984 0.23855 -0.65785 -0.71993 0.33313 -0.13848 -0.13772 -0.075805 0.15358 -0.053059 0.2993 0.40245 -0.59938 -0.47715 0.038706 -0.45739 0.85624 -0.70268 0.19696 0.1234 0.21414 0.0437 -0.10786 0.45488 -0.44928 -0.46683 0.31632 -0.41277 -0.26003 0.44044 0.52065 -0.20681 0.80319 0.0048987 0.59271 0.80572 -0.43713 0.080917
mind -0.27245 -0.16689 -0.41868 -0.26258 0.1049 0.12082 0.1396 -0.35088 0.28797 -0.13009 -0.22973 -0.21663 -0.21477 -0.16978 0.14913 0.028493 -0.33274 -0.52114 0.14984 -0.10949 0.32512 -0.14489 -0.29658 0.11153 -0.060093 0.11543 0.35403 -0.21923 -0.29712 -0.34896 -0.051853 0.5349 -0.061656 -0.12294 0.11975 -0.13448 0.10205 0.30174 -0.058503 0.054684 0.0089876 0.034053 -0.071395 -0.058592 -0.3489 -0.11734 0.53347 0.026204 -0.20276 -0.033029 -0.010976 -0.11595 -0.1387 -0.2988 -0.42353 0.18516 -0.40664 -0.16027 0.042949 0.34579 0.42726 -0.15802 0.3068 -0.021691 0.19922 -0.67922 -0.063806 0.44892 0.018321 -0.14846 -0.2203 -0.13793 0.025587 0.32051 -0.40887 -0.24042 0.15151 0.033203 0.42425 -0.13427 6.6294E-4 0.20689 -0.1157 -0.2294 0.075233 0.24916 -0.22204 -0.0043972 -0.36296 0.44727 0.41317 0.36654 0.31402 -0.2525 -0.23215 0.06736 -0.13041 -0.53227 -0.16664 0.16693
sex -0.45648 0.1077 -0.066012 0.24205 0.33793 -0.6538 0.050773 -0.43241 -0.077524 -0.077672 -0.048919 -0.23858 -0.41435 0.014087 -0.15625 0.39656 -0.84279 -0.66888 0.36699 -0.49297 0.23185 0.362 -0.16705 -0.19532 0.41507 -0.009277 0.18068 0.029033 0.26351 -0.18686 0.3028 -0.17774 0.63407 -0.68533 0.18893 -0.064372 -0.016028 -0.47125 -0.12717 0.29942 -0.26471 -0.32015 -0.40127 0.27338 -0.21059 -0.30577 -0.46273 0.092009 0.10478 -0.25472 0.052762 0.058223 -0.2814 -0.037214 -0.53516 0.33833 -0.16973 -0.22867 -0.25649 -0.20264 0.76992 0.28211 0.19663 -0.3419 -0.10301 -0.11137 0.22038 -0.35029 -0.097474 -0.097295 0.51586 0.72202 0.29478 0.67972 -0.64032 0.0070236 -0.013999 -0.13023 0.31873 0.57538 0.44587 0.49297 0.45969 0.053728 0.22098 0.1442 -0.72158 0.014951 -0.70743 0.23624 -0.19233 0.26609 0.13077 -0.5604 0.15099 -0.10629 0.20337 -0.63503 0.092504 0.19474
food -0.10012 -0.030999 -0.22336 0.03023 0.4738 -0.039032 -0.10624 -0.070036 0.4898 -0.15776 -0.7619 -0.17963 -0.26315 0.52023 0.33227 0.23299 -0.26598 0.0043534 0.12433 0.051806 0.025496 0.069537 -0.087318 0.32372 -0.061873 -0.21928 0.20523 -0.11219 -0.57048 0.4692 0.071055 0.68894 0.037425 -0.69503 0.037097 -0.20419 -0.13109 0.15345 -0.066279 0.13531 -0.42033 0.048202 -0.13787 0.44507 -0.15417 -0.023582 0.1761 0.2252 0.63305 -0.51284 -0.04533 -0.033081 0.4304 0.19656 -0.78483 0.013881 -0.20925 -0.16967 0.54153 0.27187 0.26959 -0.19336 -0.2101 -0.54979 -0.36992 -0.29485 0.16065 -0.11167 -0.37514 -0.041301 0.29055 0.91623 -0.09147 -0.23838 0.27408 -0.065276 0.12988 -0.014209 0.13304 -0.10198 -0.12942 -0.94056 -0.076653 0.37462 0.46161 0.50729 -0.68942 -0.074949 0.026321 0.30728 0.53112 -0.15429 0.42662 0.27077 0.27822 0.034819 0.42436 -0.1701 0.038724 0.23093
precedent -0.32542 0.047971 -0.80423 -0.19771 0.022025 0.10118 0.29281 -0.13301 -0.03313 0.25444 -0.03868 -0.30332 0.27306 -0.37174 0.33747 -0.19989 -0.30065 0.014401 0.31453 -0.34652 0.45893 -0.29245 -0.47463 0.2212 -0.003733 0.072227 0.23269 0.26949 -0.60748 -0.082297 0.29466 -0.056757 0.14151 0.055482 0.48447 0.23313 -0.2653 0.26552 -0.0020341 0.17593 -0.22098 -0.12417 0.18117 -0.0056 0.71464 -0.48034 0.57347 0.30657 0.063524 -0.089697 -0.28822 -0.07744 0.34257 0.22705 -0.51238 0.13513 -0.4526 0.36425 -0.32056 -0.054023 -0.38756 -8.5557E-4 0.24516 -0.26684 -0.26633 0.067798 -0.49196 0.37517 0.37764 -0.33857 0.22517 0.38972 0.24443 -0.024653 -0.2409 -0.64217 0.10529 -0.052869 0.68179 -0.046486 0.19269 0.21052 -0.30719 -0.35853 0.080076 0.4444 -0.41799 0.13136 0.11794 0.12049 0.53537 0.56364 0.30285 -0.41925 -0.46489 0.45764 0.076789 -0.24841 0.13514 -0.017411
series -0.018506 -0.067804 -0.33284 -0.26239 0.087596 0.26435 0.73933 0.017074 0.46066 -0.24202 -0.17609 -0.12617 -0.51003 -0.37485 0.76176 0.13232 0.1556 -0.4973 0.24548 -0.15127 0.35212 -0.5564 -0.68686 -0.020871 0.1576 -0.11874 -0.37704 -0.024207 0.20861 -0.097943 0.2011 -0.61568 0.20759 -0.26104 0.011193 -0.0040223 0.018339 -0.0061989 -0.093015 0.046254 -0.17193 -0.088609 0.14438 0.096382 0.1892 -0.14829 -0.33588 -0.039677 0.45636 0.05297 -0.22335 0.30581 0.37661 0.19991 5.2388E-4 0.32724 -0.2056 -0.20898 0.093266 -0.0043997 0.67493 0.23323 0.1767 0.63715 -0.4231 0.047868 0.16166 0.24867 0.30385 -0.30333 0.84131 0.029298 -0.084403 0.4919 -0.42177 -0.020106 0.37395 0.2604 0.24712 0.17626 0.15443 0.060943 0.033149 -0.16961 -0.092774 0.46633 -0.219 -0.073114 -0.26319 -0.086226 0.14583 0.17985 -0.0074373 0.014806 -0.25197 -0.08732 0.063194 0.24697 -0.15922 0.55346
kilometer -0.38191 -0.31086 -0.45921 -0.77502 -1.1272 -0.89408 0.27699 -0.07979 0.33709 0.89012 0.22634 0.18008 -0.24884 -0.33268 0.3532 0.055963 -0.29204 -0.02531 -0.53142 -0.23729 0.12962 0.56679 -0.20062 0.23603 -0.012618 -0.54998 0.62714 0.38508 0.55436 0.45803 -0.031453 0.32854 0.28254 -0.75879 -0.014206 -0.52403 0.27062 -0.056754 0.37054 -0.11147 -0.067755 0.68133 0.40683 0.8224 -0.25286 -1.1352 0.59172 0.22791 0.19447 -0.74237 0.0044561 0.052324 0.43038 -0.73725 -1.1205 -0.036827 -0.49576 -0.22093 -0.0032026 0.87688 0.0083994 -0.39196 -0.70014 -0.11477 -0.83824 0.63865 0.16598 -0.45504 -0.065747 -0.19001 0.13072 -0.12838 -0.58823 0.15544 -0.21462 -0.054116 0.18226 0.73341 -0.82178 -0.064683 -0.35367 0.19829 -0.16556 -0.053245 -0.47757 -0.88316 -0.10583 0.94371 -0.61858 0.29965 -0.37508 0.27324 0.50979 -0.20852 0.030516 0.08757 -0.43862 -0.37941 0.57483 0.62532
grocery -0.21211 0.49872 -0.20464 0.18577 0.37844 -0.11217 0.014983 -0.37356 0.32226 0.41125 -0.2386 -0.17759 -0.58587 0.25983 -0.084381 -0.02907 -0.042587 -0.10452 -0.14374 0.034751 -0.18487 0.13977 -0.12922 -0.031346 -0.036603 -0.31832 0.18608 0.23055 -0.28669 0.45968 0.25045 0.18408 -0.27102 -0.91054 -0.20311 -0.20585 0.15434 0.04513 0.030577 0.284 -0.60405 0.20881 -0.51638 0.22849 0.077324 0.59306 -0.11811 0.15973 0.28462 -0.35182 0.024078 0.20701 0.39789 0.11298 -0.87171 0.16715 -0.74367 -0.48931 0.52956 0.19576 0.62828 -0.62037 -0.16622 -0.94751 -0.29678 -0.62534 0.32265 -0.19371 -0.41976 -0.016489 0.006147 0.30254 -0.67443 -0.10228 0.07853 -0.25359 0.17633 0.20047 0.14959 -0.012693 -0.61921 -0.78623 0.22193 0.27107 -0.055588 0.28281 -0.72113 -0.16272 0.10738 0.28115 0.29642 0.034158 0.10324 -0.9126 0.59373 0.13747 0.52468 0.25436 -0.24211 0.26259
wizard -0.60284 0.036703 0.16603 -0.23763 -0.14491 0.29599 0.13425 -0.083239 0.48416 0.034252 -0.084407 -0.15928 -0.019285 0.024968 0.58483 0.35988 -0.70697 -1.1486 0.099068 -0.89274 0.7434 -0.33772 -0.32324 -0.3965 -0.23756 -0.43628 0.15656 -0.21033 -0.14762 -0.096579 0.329 -0.14096 -0.068369 -0.13819 0.12389 0.37472 -0.24487 -0.20174 0.18202 -0.86464 -0.28553 0.057726 -0.70353 -0.29348 -0.27222 0.19236 -0.080722 0.13481 0.15871 -0.098657 0.077394 0.10696 -0.29158 -0.14685 -0.22509 0.15914 -0.32446 0.094572 -0.15868 0.25574 -0.021491 -0.14293 -0.053741 0.45842 -0.63417 -0.20333 0.19298 0.018789 -0.053081 0.51797 -0.39078 0.29331 -0.37464 0.53725 -0.46299 -0.1694 0.16378 -0.16926 0.089223 -0.20729 0.51185 0.21171 0.23671 -0.37749 0.16781 0.18336 -0.14231 0.018955 -0.28878 0.21576 0.14577 0.21787 0.51073 -0.0086531 -0.23185 0.50825 -0.14112 0.23882 -0.36765 0.17407
information -0.47895 -0.45972 -0.59016 0.30798 0.066793 0.31599 0.55253 -0.48298 0.13316 0.15069 0.1863 -0.31179 -0.14034 0.088069 -0.18938 0.20697 -0.61012 0.114 0.26799 -0.1041 0.14502 -0.58322 0.052151 0.16663 0.21759 0.18437 0.41345 -0.11046 -0.42765 0.15367 0.39785 -0.053708 -0.1903 -0.14476 -0.35341 0.13734 -0.47004 0.10822 0.37085 -0.20879 -0.53306 0.5246 0.27115 0.0050954 -0.39539 -0.24945 0.73566 -0.027285 0.29158 -0.2853 0.098454 -0.52289 0.12658 0.26342 -0.74976 0.20553 -0.57141 -0.29404 0.19123 -0.091316 0.62325 0.12001 -0.096091 -0.31061 0.10843 -0.17265 -0.28482 0.50166 0.019249 -0.45019 -0.24484 0.86399 0.023122 0.033529 0.017227 -0.56206 -0.060153 -0.015824 -0.045217 -0.34974 0.036495 0.75476 0.057741 0.30728 -0.097486 -0.3867 0.13022 0.068506 0.16322 0.26315 0.25698 -0.54349 0.31741 0.044978 0.3077 -0.22668 0.20803 0.0033378 0.47605 0.48258
Israel 0.1961 -0.093113 -0.21517 0.0055092 0.28858 -0.36751 0.63045 -0.38217 -0.09554 0.16551 -0.3738 -0.21471 -0.64587 -0.031445 -0.23252 -0.11286 0.33191 0.15336 0.65861 -0.577 1.137 -0.50199 -0.23933 -0.095364 -0.1528 0.21759 0.10823 -0.66058 0.0041485 -0.62893 0.062673 0.44883 0.079764 -0.03981 0.19219 0.3234 -0.43908 0.41201 -0.027044 0.48661 0.85261 -0.1013 0.05529 0.77007 0.29405 -0.16857 0.4732 -0.19175 0.59708 -0.27492 -0.67422 -0.38672 0.22895 0.40727 -1.1994 -0.25136 -0.42809 0.27216 -0.082761 -0.30008 0.0098828 0.059603 -0.04227 0.32874 -0.37434 -0.2364 0.41578 -0.44694 -0.14239 -0.66808 0.17743 0.11297 0.0080175 0.20689 -0.43942 -0.057304 -0.44314 0.33628 -0.11606 0.27472 -0.67864 0.46421 -0.73666 -0.79939 -0.027382 0.50348 -0.26883 0.27993 0.46371 0.24435 0.23637 0.26665 -0.74366 -0.25703 0.084324 0.31427 0.35099 0.21687 0.17724 0.020989
brandy -0.32704 -0.088875 -0.36371 -0.21093 0.43413 -0.27443 0.1394 -0.35431 0.11939 0.55329 -0.063525 -0.20767 -0.40255 -0.18101 -0.12472 0.27624 -0.36582 -0.53334 -0.58918 -0.28263 0.028186 0.12154 0.015717 -0.13446 -0.3966 -0.57286 0.31778 -0.0015252 -0.59024 0.53785 0.52624 0.56812 -0.50502 -0.186 0.074385 -0.058237 0.23797 0.1486 0.11561 -0.058962 -0.61297 -0.16719 -0.4646 0.15294 0.27331 0.095676 0.18605 -0.18346 0.10006 -0.10403 -0.31309 0.16575 0.29117 -0.10199 -0.35903 0.032426 0.0061637 -0.2215 -0.0017729 0.11505 0.2109 -0.1217 0.026732 -0.43125 0.04793 -0.21819 0.33445 -0.15742 -0.10615 -0.037648 0.15924 0.17969 -0.57537 0.23548 -0.42869 0.17345 -0.29065 0.061047 0.30924 -0.095025 0.24996 -0.17317 -0.091905 0.049822 0.22981 0.27775 -0.52533 -0.35941 -0.33328 0.181 0.34445 -0.04137 0.069111 -0.092712 0.22576 0.13924 0.44689 -0.057219 -0.23191 0.52416
interview -0.10509 -0.3401 0.016944 -0.025497 -0.015262 0.1426 0.50766 0.12655 -0.3306 -0.1935 -0.51563 -0.45082 -0.032701 -0.42444 0.031743 0.42958 -0.31583 -0.32763 0.2981 0.095093 0.34197 -0.43222 -0.48901 0.060427 0.043941 -0.17843 -0.16267 -0.53166 -0.32947 -0.091638 0.2436 0.0063769 0.021652 -0.38293 -0.31114 -0.10038 -0.012501 0.074338 0.46548 0.33144 -0.35613 0.056533 0.31777 0.46749 0.10936 0.087384 0.46273 0.0097792 0.063897 -0.22517 -0.73863 -0.30374 0.27044 -0.099878 -0.1775 0.47397 -0.0811 -0.32137 0.26238 -0.096366 0.069567 0.15005 0.3891 0.20264 0.22819 -0.08993 0.2972 0.13174 0.50802 0.29005 -0.12006 0.25466 -0.015817 0.3345 -0.42768 0.061218 0.13777 0.16201 -0.26077 0.42371 0.41391 0.21499 0.16261 -0.25946 -0.083767 -0.26688 -0.62517 0.3463 0.079968 0.38768 -0.58317 0.75571 0.23436 -0.9651 0.53368 0.11874 -0.42952 0.056542 0.51421 0.66812
prominence 0.18283 -0.17363 -0.2192 -0.097454 0.37525 0.15218 0.7129 0.23135 -0.26574 0.3138 -0.41097 -0.046584 -0.055348 -0.24659 0.33052 -0.12925 -0.44882 -0.2936 0.0015804 -0.79046 0.68609 -0.4448 -0.20564 -0.016105 -0.76686 0.076448 0.19811 0.19871 -0.32465 -0.23122 -0.14599 -0.69111 -0.37837 -0.15285 -0.25212 -0.073317 0.29672 -0.20711 0.016524 0.17128 -0.63917 -0.024321 0.067077 0.32327 -0.018359 -0.04504 0.22993 -0.084598 -0.10607 -0.034808 0.030873 -0.27515 -0.24947 -0.038349 -0.44411 0.16797 0.1499 0.19703 -0.09904 0.2277 0.21192 0.098667 0.08551 -0.49115 -0.43045 -0.4235 0.19574 0.23476 -0.24918 -0.38027 -0.31203 0.50093 -0.083817 0.036921 -0.16338 0.024467 0.075798 0.10357 -0.15136 -0.073237 0.050598 -0.18427 0.26755 -0.075968 0.42877 -0.25142 -0.64729 -0.53798 -0.36222 0.10072 0.12333 0.52666 -0.12659 -0.034843 0.29157 0.29967 0.12662 -0.15475 0.031409 0.26209
bed 0.042355 -0.087996 0.087873 -0.066304 -0.02096 -0.60488 0.1003 0.13321 0.33043 -0.26993 -0.078613 -0.82588 -0.35145 0.036704 -0.055562 0.52902 0.11642 -0.7361 0.21845 -0.33606 -0.064994 0.012826 -0.31495 -0.53308 0.48546 -0.72727 0.37848 0.37794 -0.47981 0.05663 0.19665 0.94196 0.27642 -0.57656 -0.015217 -0.24484 0.1248 -0.15802 0.13012 0.02533 -0.033943 -0.05834 -0.3671 0.056585 -0.31251 -0.19955 0.52063 0.15585 0.62924 -0.02258 0.034763 -0.013696 -0.015767 -0.21562 -0.29808 0.2085 0.089998 -0.17705 0.24009 0.25573 0.081545 -0.31229 -0.13135 0.0098151 -0.15194 -0.38274 -0.069565 -0.19216 0.082871 0.26632 0.22471 -0.11312 0.088432 0.40166 -0.23084 -0.16546 0.1442 0.13537 0.18701 0.1294 0.0679 -0.14066 0.59078 -0.3107 0.15075 0.20286 0.0071164 -0.23775 -0.421 0.27449 -0.13275 0.43715 -0.010795 -0.2868 0.56503 0.22954 -0.053025 -0.67813 0.20399 0.34933
furnace 0.024467 0.26427 -0.40183 0.068744 -0.51857 -0.15292 0.13099 0.082432 0.76881 0.30779 0.10153 0.3092 -0.60381 0.60948 -0.043499 -0.17943 0.096095 -0.2803 -8.9786E-4 -0.21318 0.41582 0.065359 0.24258 -0.13094 -0.081119 -0.25323 0.14832 0.43959 -0.94841 -0.21603 0.14524 0.82776 0.32567 -0.58876 -0.21234 -0.18915 -0.37479 0.3275 0.36168 0.28889 -0.42818 0.094456 -0.3638 0.12344 -0.10196 0.14282 -0.0082457 0.45333 0.40648 -0.54727 -0.24649 -0.071127 0.11601 -0.5777 -0.6747 0.18453 0.4348 0.012284 -0.14373 0.72568 0.16605 -0.40158 0.21043 0.46328 -0.34714 -0.61365 -0.18324 0.096477 -0.24513 0.091884 0.57298 -0.40234 -0.19023 0.50081 -0.14385 -0.15649 -0.1477 0.047546 -0.26819 0.15265 -0.61082 -0.47469 0.057513 0.031626 0.14049 0.15267 -0.014139 0.055647 -0.17524 0.95083 0.178 0.58715 -0.10053 0.32305 0.48216 -0.18503 0.56273 -0.15145 0.39869 0.96058
evidence -0.72473 0.018633 -0.3905 0.33794 0.63311 -0.44282 0.3122 0.071834 0.13284 -0.16636 0.4146 -0.39063 0.15218 -0.44298 0.015094 0.029555 -0.33212 0.1453 0.14926 -0.45293 0.156 -0.58497 -0.074807 -0.069006 0.29345 0.27048 0.21237 -0.16248 -0.26023 -0.12541 0.072175 0.63066 0.016488 -0.17156 0.0069602 -0.22418 -0.28689 -0.54804 0.13079 0.15602 -0.50604 0.072484 0.18418 0.5684 0.11417 -0.49261 0.50695 -0.22167 -0.051259 -0.11599 -0.16536 -0.21258 0.44295 0.21999 -0.28897 -0.0030716 -0.45935 0.37524 0.42669 -0.019423 0.24183 -0.042569 -6.6007E-5 -0.15041 -0.35505 -0.16083 -0.056487 0.67206 0.22622 -0.41372 -0.26328 0.58035 0.14074 0.25609 -0.29599 -0.60818 0.30002 0.089303 0.44826 0.46696 0.26005 0.2268 0.32379 0.40499 0.23959 0.11272 -0.20132 -0.043479 0.12979 0.44658 0.13736 0.30847 0.12981 0.023237 -0.18292 0.032134 0.19772 -0.38779 0.4774 0.42382
sprint -0.98417 -0.46535 -0.7307 -0.49161 -0.49019 -0.18081 0.43782 0.089373 0.10589 0.51439 0.030917 -0.17755 -0.20736 -0.41319 0.47536 -0.031432 -0.28906 -0.46936 -0.20165 0.086348 0.48708 0.11261 -0.67853 -0.26367 -0.51252 0.10655 0.45734 -0.47847 -0.039303 0.53354 0.063479 0.29903 0.44007 -0.57567 -0.39359 -0.60248 0.34781 -0.5685 0.1254 -0.33785 0.1427 -0.071126 0.47937 0.21112 0.47949 0.19726 0.069712 -0.26199 0.01637 -0.1037 -0.11143 0.32192 -0.11605 -0.29338 -0.28628 0.25684 0.22381 0.51218 -0.5079 0.38226 0.62556 -0.43322 -0.48179 -0.5351 -0.94848 0.073091 -0.043296 0.41971 -0.0031372 -0.30837 0.19213 0.097273 -0.55895 -0.3231 0.056553 0.107 -0.59955 0.28109 0.29983 0.52232 0.11222 0.29342 -0.36437 -0.38126 0.47425 -0.42956 -0.28825 0.20029 -0.69533 -0.030928 -0.05771 0.57716 0.39228 -0.32785 -0.47042 0.43572 -0.969 0.19597 -0.010297 -0.11464
emergency 0.57738 0.1627 -0.48749 0.23233 -0.032952 -0.20117 0.050063 0.15541 0.3847 -0.14395 -0.10058 -0.76088 0.22017 0.97106 0.67114 0.35143 -0.028653 -0.04531 0.5385 -0.0877 0.78522 -0.28683 0.056391 -0.36615 0.19991 -0.31288 0.60253 0.064577 -0.73215 0.15267 -0.049954 0.072 0.14032 0.17314 -0.49403 0.1702 0.45678 0.47053 0.075128 0.30284 -0.15215 0.20347 0.30207 0.17718 -0.035209 0.073604 0.29481 0.30198 0.48936 -0.036537 -0.41765 -0.69148 0.44481 -0.26412 -0.24234 0.26675 -0.074279 -0.12056 0.39592 0.28687 0.25484 0.51897 0.4687 0.15496 -0.12312 0.2458 -0.54487 -0.29029 0.082871 -0.088565 0.46362 0.59648 0.31707 0.32127 0.041185 -0.25024 -0.092723 0.21989 0.45728 -0.29743 -0.059 -0.34655 0.15862 0.1884 -0.34844 0.23994 0.15911 0.461 -0.3771 -0.023049 0.13102 -0.12257 0.14917 -0.59369 -0.26208 0.011302 -0.37974 -0.26796 0.46736 0.33567
Jackson 0.51942 -0.40371 -0.1975 -0.18045 -0.37527 0.29224 -0.068613 0.50314 0.4969 0.16445 -0.073592 -0.73537 -0.52613 -0.43181 0.20264 0.19909 -0.17352 0.18117 -0.48223 -0.72444 0.58312 -0.32202 -0.1135 -0.50968 -0.051605 -0.33698 0.22448 -0.67092 0.038072 -0.13535 1.0659 0.12096 0.42144 0.14437 -0.80004 -0.16629 0.15314 0.20794 -0.042619 0.38179 -0.068127 0.043408 -0.39062 0.044619 0.46299 0.11665 0.32322 -0.3164 0.40623 -0.16893 0.057953 0.15337 0.14362 0.016564 -0.30747 0.24911 0.019469 0.17243 0.076346 -0.64349 0.32131 -0.4803 -0.50353 0.23189 -0.26213 -0.19111 -0.1685 0.16503 -0.031173 -0.61339 -0.18817 0.37456 0.49634 0.74657 -0.49266 0.31916 0.080256 -0.10854 0.57225 -0.073872 0.35362 -0.15184 0.20488 0.089263 -0.08445 0.22021 -0.61115 -0.082682 0.37025 0.22861 -0.013751 0.28162 0.15472 -0.30069 -0.13327 -0.24573 -0.059568 -0.10792 -0.36759 0.13971
institution -0.37273 0.0084182 -0.1148 0.04548 0.1689 -0.14054 -0.25648 -0.4572 -0.242 0.031797 -0.22458 -0.19152 0.037351 -0.062576 -0.076767 0.08109 -0.31139 -0.19017 1.0239 -0.40187 0.55395 -0.15534 0.030748 -0.16671 -0.60023 0.0059191 -0.17018 0.14013 -0.35327 -0.11204 0.24515 -0.33641 0.11015 -0.33104 -0.2728 0.43723 0.052545 0.18476 -0.017234 0.24727 -0.11105 -0.1639 0.19983 0.42078 0.097387 -0.60219 -0.026134 0.65407 0.1588 -0.1808 -0.17637 0.1282 0.24375 0.30761 -0.13977 0.088063 -0.049542 -0.40975 -0.15936 -0.16654 -0.25366 -0.22753 0.050583 -0.22226 -0.2513 -0.12258 -0.27193 0.20436 -0.42121 -0.2405 0.076459 0.352 -0.33835 0.44263 -0.28547 -0.34021 0.15104 -0.097986 0.58127 -0.26446 -0.39088 -0.18607 0.32185 -0.34882 0.025717 -0.10994 -0.10162 0.078511 -0.27763 0.065075 -0.08154 -0.027022 0.4441 -0.6807 -0.22774 0.27464 0.22141 -0.26925 0.21032 -0.2807
bird -0.10366 0.17309 0.12204 -0.13311 0.31005 -0.5919 0.29186 -0.39214 0.75181 -0.067919 -0.09147 -0.75199 -0.40574 -0.20111 -0.089613 0.48652 -0.38619 -0.57243 -0.22312 -0.46481 0.56098 -0.13134 -0.038001 -0.32705 -0.080703 0.26419 0.21013 0.30747 -0.23446 0.81285 0.074736 0.97224 -0.082777 -0.22227 -0.066484 -0.42137 -0.24223 0.19125 -0.51161 0.10822 -0.12577 0.5725 -0.2017 0.12288 -0.56276 -0.3428 -0.40346 0.097454 0.14551 0.039779 0.39383 0.10325 0.40382 0.51301 -0.68832 0.2073 -0.28335 0.20788 0.12761 0.6654 0.28641 0.55881 0.048263 -0.3763 -0.010233 -0.28784 0.14794 -0.24576 -0.49564 0.39877 0.19636 0.26875 -0.16051 0.11153 -0.43877 -0.17476 0.1399 -0.13866 0.35783 -0.70578 -0.40623 0.27538 -0.21966 -0.16779 0.29866 -0.17825 -0.024198 0.2191 0.035554 1.0054 -0.0072349 0.60244 -0.31322 0.18834 -0.16144 0.19859 -0.33881 0.35227 -0.27134 0.33942
Brazil 0.065588 -0.55848 -0.068162 0.3246 0.11369 -0.47521 0.034112 -0.11846 0.50952 0.021231 -0.60448 0.55859 -0.33455 -0.075467 0.1028 -0.065908 0.13856 0.033819 -0.0033923 -0.13346 0.36344 -0.49222 0.14045 -0.13732 -0.49871 -0.52246 -0.19752 0.37711 -0.064373 0.39673 -0.29201 0.27053 0.12888 0.12915 -0.27687 -0.30367 -0.012879 -0.072317 0.29142 0.46293 -0.053072 0.26901 0.26845 0.39495 -0.52677 -0.31648 0.34998 0.44825 0.69894 0.087555 -0.13955 -0.31273 0.11297 -0.0076825 -0.8395 0.24327 0.025487 0.56174 -0.51647 -0.026744 0.58058 -0.16645 -0.03945 0.25941 -0.13802 0.1 -0.14118 0.16193 0.27568 -0.24985 -0.13558 0.13613 -0.30142 -0.073769 -0.45903 -0.38043 -0.37528 0.1688 0.20483 0.12648 0.084356 0.082936 -0.61394 -0.080319 0.11465 0.48403 -1.2678 0.44501 -0.66184 -0.2586 -0.1674 0.19442 -0.3341 0.20614 0.085665 0.19263 -0.42211 0.19452 -0.053085 -0.3168
warning 0.27995 -0.020537 -0.38249 0.17694 -0.38862 -0.3332 0.21077 -0.12964 -0.17546 0.2536 -0.17956 -0.37815 0.17233 0.023344 0.31872 0.12063 -0.45696 -0.21452 -0.07924 -0.53603 0.83632 -0.1768 -0.38183 0.12398 -0.23314 -0.46664 0.17109 0.36552 -0.44147 0.019001 0.069381 0.17866 -0.21496 0.029272 0.41685 0.0079705 -0.14511 -0.15336 0.059511 -0.10873 -0.20245 -0.050109 0.49094 0.33331 0.2315 0.29041 -0.014534 0.40411 0.17182 -0.12412 -0.29406 -0.29171 0.090134 0.28738 -0.59001 0.0068268 -0.63557 0.18008 0.80671 0.096909 0.40038 0.16473 0.34109 -0.31068 0.28725 -0.13214 -0.10712 0.27921 0.52118 0.088088 0.48853 0.4299 -0.13924 -0.034791 -0.21396 -0.40273 -0.0043039 0.15139 0.48504 -0.099696 0.056145 0.052039 0.29962 0.1396 0.66117 0.30087 0.47012 0.43185 0.39357 0.32042 -0.16563 0.12867 0.0065714 -0.13834 -0.48872 0.10889 -0.079342 0.21202 0.21191 0.21728
implement 0.22824 -0.19683 -0.35058 0.0061517 0.017813 0.075218 0.046702 -0.56287 -0.29403 -0.34363 -0.082123 -0.074257 0.19602 0.29628 0.38619 -0.085904 0.19526 -0.16204 0.52478 0.28697 0.30698 -0.16603 -0.19504 0.10043 -0.016395 -0.10762 0.11944 0.093464 -0.3017 -0.023886 -0.17464 0.1669 -0.1113 -0.0087055 -0.078738 0.70147 0.67919 0.37241 0.16026 0.21308 -0.67421 0.12746 0.15602 -0.0068017 0.37317 0.12726 0.042788 0.60527 0.47888 -0.54751 -0.50169 -0.45391 0.23269 0.2532 -0.4542 0.085224 -0.31272 -0.047719 0.045987 0.093552 0.73785 -0.11682 -0.18247 0.19483 -0.31978 0.16437 -0.39972 0.010136 -0.23309 -0.0061525 0.68016 -0.15411 0.14111 0.18083 0.17241 -0.89707 0.46607 -0.46632 0.42654 0.22705 -0.14271 0.72132 -0.086794 -0.24812 0.014522 -0.03751 -0.31887 0.28861 -0.2484 0.55473 0.30227 -0.12919 0.26988 -0.29483 -0.24545 0.52456 -0.072848 0.11268 0.35643 0.1237
train -0.26268 -0.56054 -0.30471 -0.37913 0.14536 -0.13701 0.30595 -0.33384 0.36972 0.26816 -0.084095 -0.07515 -0.39531 0.40856 0.048576 0.53738 0.095001 0.041533 0.34915 -0.37702 0.49819 -0.10894 -0.50689 -0.38418 0.35417 -0.1075 0.38877 -0.27399 0.22319 0.19421 -0.33136 -0.0022844 0.40237 -0.37594 0.077545 -0.43825 0.11321 -0.28495 0.29135 0.26371 -0.18289 0.38206 0.36851 0.058116 0.35036 0.18827 -0.55082 0.046647 0.61187 -0.033972 -0.077306 -0.040683 0.17532 -0.64441 -0.67447 0.096306 -0.4098 0.15626 0.20092 0.48627 0.39907 -0.51757 0.35619 -0.42446 -0.31531 -0.11561 -0.43954 -0.22277 -0.30048 0.34446 0.0091892 -0.12051 -0.48197 0.33746 0.13999 -0.49524 -0.43794 -0.084202 0.21924 -0.12733 -0.63034 -0.030767 0.27323 -0.09428 -0.31844 -0.20613 0.10204 0.16821 -0.24731 0.37495 -0.030029 -0.010487 0.23398 -0.11772 0.11132 0.13264 -0.50398 0.33669 0.091187 0.27177
area -0.11825 -0.19189 -0.34354 0.0015237 -0.027739 -0.031932 0.31608 -0.43698 0.43284 0.44792 -0.042839 -0.51674 -0.48557 -0.31459 0.072061 0.17389 -0.12936 0.18592 0.18633 -0.39617 0.23143 0.20895 -0.11495 0.13471 -0.045118 -0.042629 0.31761 0.40449 0.19703 0.13677 0.085053 0.17522 0.010462 -0.31549 -0.12989 0.11732 0.41821 0.32655 0.1169 0.02064 -0.63061 0.35446 -0.12236 0.36174 -0.12003 -0.3833 0.13069 0.19937 0.50142 -0.13802 -0.12326 -0.099449 0.48183 -0.26382 -0.29327 0.35873 -0.13748 0.20489 -0.21702 0.26759 -0.04358 -0.07379 -0.14433 -0.39926 -0.29593 0.036832 -0.6296 0.17655 -0.065019 0.043366 0.065254 -0.038044 -0.14976 0.40496 -0.22164 -0.046739 0.1993 0.1797 0.04352 -0.067778 -0.58875 -0.11759 0.051462 0.11395 0.38024 0.20412 0.080505 0.28303 0.43042 0.2526 -0.35991 -0.049867 -0.41459 -0.43335 0.17157 -0.25384 -0.0054448 -0.075623 0.33187 0.44455
image -0.62983 -0.15515 -0.064221 0.2518 0.1816 -0.045958 0.67817 0.096646 0.13523 0.20603 -0.32132 -0.0079701 -0.41312 -0.13116 -0.069116 0.19857 -0.38188 -0.75567 0.59458 -0.20608 0.4278 -0.18322 0.036153 -0.1779 -0.4798 -0.060204 0.2418 -0.20748 -0.098318 -0.071758 0.2986 -0.13278 -0.27398 -0.044414 0.21189 0.11271 -0.091084 0.29957 0.25464 0.43841 -0.51199 0.41664 -0.068931 0.037144 -0.14941 -0.33763 -0.021051 0.22023 -0.28011 -0.30811 -0.013299 0.073111 0.40242 -0.20891 -0.38994 0.23442 -0.16506 8.1046E-4 0.32581 -0.006883 0.20108 0.3026 0.039519 -0.38619 -0.18931 0.10632 0.11313 0.52135 -0.11861 0.23361 0.11614 -0.40516 -0.48958 0.4047 -0.69893 -0.20461 -0.72373 -0.030827 0.35048 -0.37663 0.34396 0.58463 0.17136 -0.091401 0.32418 -0.049779 -0.29968 -0.14802 -0.10581 -0.23547 0.052482 0.48272 0.27436 0.016389 -0.075381 0.48829 0.22879 -0.64629 0.027572 0.32905
murder -0.84486 -0.21403 -0.046019 0.60319 0.19399 -0.62419 0.7479 -0.40423 -0.13135 0.45566 0.64953 -0.88495 0.08614 0.075413 0.096891 0.098119 -0.5437 -0.57278 -0.0096891 -0.19705 0.46736 -0.66578 -0.15446 -0.65407 0.56279 0.12871 -0.11365 -0.1937 0.057373 -0.35819 0.16076 -0.065932 0.12198 -0.42142 -0.045476 -0.64286 -0.7844 -0.14393 0.059382 -0.080191 -0.61796 0.29859 -0.39548 0.53585 0.27496 -0.012966 -0.30413 -0.72451 1.0266 -0.35897 -0.62226 -0.044657 -0.054048 -0.26242 -0.39348 0.15204 -0.14197 0.21675 -0.68523 -0.26962 -0.16258 0.072914 0.55545 -0.049342 0.03491 -0.039414 -0.61428 0.060069 -0.42426 0.0041792 -0.083416 -0.05932 0.040174 0.094625 -0.074256 -0.065999 0.49711 -0.26601 0.1797 0.50089 -0.15951 -0.12724 0.18144 -0.052605 0.087608 0.30283 -0.96094 0.10528 -0.32276 0.12039 0.05562 0.2172 0.3925 -0.65285 -0.1039 0.2091 0.11622 -0.7966 0.15635 0.23279
journey -0.21515 -0.66104 -0.13021 -0.84303 -0.45261 -0.45566 0.95858 -0.097908 0.25525 -0.017403 -0.52439 -0.14174 -0.045568 0.20422 0.47278 0.46861 -0.22398 -0.35623 0.48312 -0.14837 0.017388 -0.050575 -0.5092 -0.10611 0.12824 -0.4622 0.0378 -0.21138 0.82622 0.23321 -0.14479 0.42425 0.23861 -0.67672 -0.24523 -0.5332 -0.33145 -0.057347 -0.21881 -0.14533 -0.26342 0.55916 -0.17627 -0.029833 0.11189 -0.49955 -0.18605 0.10154 0.52329 -0.56681 -0.15981 -0.36781 0.12051 -0.51688 -0.74756 -0.02563 -0.42973 -0.47637 -0.0139 -0.38436 0.010624 -0.30302 -0.15079 -0.11691 -0.32622 0.14439 -0.12236 0.24451 0.30346 0.064466 0.062283 -0.037798 -0.083021 0.27631 0.28141 0.067587 -0.37637 -0.0062729 0.4208 -0.11026 -0.31112 0.31609 0.1742 -0.37105 -0.31041 -0.23893 -0.25577 0.10587 -0.41112 0.13823 0.034702 0.55163 0.21673 0.011589 -0.0047544 0.40462 -0.39307 -0.070618 0.17421 0.10052
minister 0.61065 -0.44413 -0.21476 0.12492 1.0116 -0.23808 0.11458 -0.23585 -0.03561 -0.16884 0.31391 -0.23067 -0.27089 0.071134 -0.25836 0.7574 0.13011 -0.38662 0.18059 0.25664 1.0076 0.1262 -0.18839 -0.42995 -0.016047 -0.1603 -0.019319 0.11291 -0.22332 -0.129 -0.20244 -0.064866 -0.50002 -0.31213 -0.24503 0.24433 -0.057024 -0.70333 0.03071 0.037075 -0.36532 0.14014 -0.089938 0.57834 0.38337 -0.21643 0.6531 0.30467 0.7279 -0.83129 -0.64678 -0.57957 -0.29095 0.30333 -0.32609 0.54167 -0.15972 -0.14582 -0.43391 0.39879 0.18593 0.39545 -0.15329 0.6653 -0.073577 -0.052567 -0.50521 -0.22888 0.038021 -0.18287 0.024593 0.31309 0.28096 0.1735 -0.84187 0.37517 -0.046165 0.45214 0.16682 0.35267 -0.05815 -0.256 -0.27881 -0.23005 0.18374 -0.51578 -0.23444 0.056173 0.18984 0.022002 0.09521 0.55383 0.044202 -0.11688 -0.17563 1.1406 0.32506 0.013082 0.41977 0.35692
planet -0.31553 -0.26761 -0.25849 -0.004583 -0.13748 -0.13679 -0.16839 -0.10219 0.53383 0.017397 -0.41347 -0.028206 -0.45676 0.16888 0.046064 -0.14293 -0.48601 -0.37158 0.3378 -0.27138 0.53652 -0.10607 0.35689 -0.25261 -0.077955 -0.62329 0.17786 -0.023976 0.30142 -0.11342 0.066067 0.90038 -0.073865 -0.47382 0.21309 -0.1929 -0.71097 -0.083706 -0.31482 0.66449 -0.21049 0.48663 -0.068467 0.48939 -0.84795 -0.84829 0.18501 0.30847 0.45247 -0.098003 -0.01379 0.38884 0.35341 -0.20578 -0.44521 0.71003 -0.054849 0.18017 -0.42876 0.29763 0.20266 0.11247 -0.027648 0.0076077 -0.26039 0.27205 0.15621 0.69554 -0.30948 -0.38907 0.16045 -0.25416 0.2442 -0.091726 -0.20539 -0.27693 0.21147 -0.25255 0.25282 -0.59983 -0.0054114 0.084436 -0.49107 -0.78329 0.60003 0.062645 0.059383 -0.11517 -0.3459 0.72808 -0.18043 0.51849 0.5343 0.47152 0.11743 0.14929 0.1662 -0.43012 0.13473 0.18542
article -1.2966 -0.97971 0.05876 0.083574 -0.45026 0.17229 0.50005 0.021853 0.087066 -0.070426 -0.33947 -0.067801 0.097466 -0.41476 -0.3389 -0.090569 0.4321 -0.64126 -0.12441 -0.46499 0.51259 -0.79076 -0.74633 0.10386 -0.041376 -0.19585 -0.025806 -0.58799 -0.31652 -0.11406 0.18318 0.34849 0.031189 -0.52839 -0.70763 0.15421 -0.29912 0.39815 -0.17392 0.2671 -0.6096 0.79091 0.22833 0.029479 -0.4282 -0.18351 -0.048499 0.51737 0.12016 0.21784 -0.647 -0.041527 -0.18468 0.42833 -0.64255 0.59068 -0.83364 -0.57677 -0.13196 0.58958 -0.81601 0.36944 0.14666 0.040554 0.35182 -0.23566 -0.30309 -0.51584 0.31194 0.43745 0.33103 0.40699 -0.067791 0.93713 -0.45318 -0.29231 0.47377 -0.58823 -0.34347 0.58528 0.39962 0.4105 0.29266 -0.54153 0.073717 -0.50996 -0.35692 0.39999 0.35962 -0.046993 -0.15596 0.47722 0.30711 -0.50714 -0.10084 0.36329 0.48124 0.091328 0.044818 0.22332
anxiety 0.45594 0.10097 -0.63526 -0.039786 0.53272 -0.27587 -0.0012594 -0.5407 0.29095 0.069528 -0.54194 -0.012243 -0.10429 -0.16148 0.27075 0.28859 -0.4117 -0.34444 0.10284 -0.31069 0.40533 -0.52487 -0.33921 0.034132 -0.53466 -0.48001 0.37454 -0.44844 -0.16916 -0.18806 0.23528 0.10767 0.63742 -0.55161 0.13399 -0.5213 -0.33845 0.011653 -0.08625 -0.18581 0.086811 -0.3 -0.19786 0.56397 -0.23411 -0.21464 0.20647 0.36311 -0.4771 0.10434 0.13006 -0.21481 0.048245 0.13232 -0.59401 -0.39405 -0.47848 -0.12913 0.53276 0.26011 0.30113 -0.031025 0.79478 -0.093667 0.11754 -0.3659 -0.13689 0.60922 -0.18207 -0.3177 0.39882 0.40591 0.16039 0.63293 -0.070331 -0.082061 -0.071594 -0.15698 -0.10461 0.48153 -0.19924 -0.20616 0.42605 0.18384 0.27892 -0.397 -0.14026 0.049433 0.0079078 0.21972 0.38776 -0.10851 -0.026709 -0.14009 -0.44718 -0.21625 0.14139 -0.57212 -0.029084 0.091847
month 0.10756 0.31893 0.29285 -0.26801 -0.061838 -0.05885 0.07926 -0.22975 0.067077 -0.032603 0.2191 -0.38243 0.3167 -0.30125 -0.08191 0.069542 -0.013518 0.072068 0.15676 -0.27218 0.24342 -0.51491 -0.35881 0.17186 -0.51249 -0.42627 -0.0098422 0.53496 -0.24698 0.21134 0.13916 -0.083324 -0.043375 -0.40436 -0.15638 -0.21375 0.12915 0.28302 0.1321 0.45861 0.075479 -0.091098 0.54995 0.55619 -0.31358 0.14378 -0.066121 -0.10204 0.61954 -0.194 -0.47255 0.17757 0.18941 -0.32042 -0.18029 0.22195 -0.53353 -0.48634 0.15317 0.25869 0.32345 -0.15377 -0.002438 -0.11783 -0.26047 0.10429 -0.23151 0.12919 -0.016397 -0.31378 0.19682 0.066339 -0.051772 0.017661 -0.31254 0.048194 0.0097506 0.36582 0.14336 0.28266 -0.15354 0.30704 -0.2707 0.19696 -0.12352 0.092902 -0.24658 0.043814 0.16258 -0.43742 0.3234 0.58046 0.33131 -0.20951 0.096273 0.30851 -0.034531 0.031221 0.099426 0.29123
carnivore -0.67325 -0.22868 0.10414 -0.15809 0.26028 -0.55442 -0.072289 -0.47489 0.64767 0.1192 -0.65841 -0.18213 -0.40671 -0.42935 0.37488 -0.047274 -0.32674 -0.14334 0.20954 -0.50728 0.20757 0.16742 0.19248 -0.2134 -0.32289 0.070682 0.20646 0.086021 -0.15882 0.10921 0.45671 0.80431 -0.17912 -0.61545 -0.11896 -0.38192 -0.54939 -0.014536 -0.67423 0.09939 -0.20204 0.41869 -0.63864 0.43835 -0.083745 -0.42204 0.083484 0.35457 0.16823 -0.023107 0.049475 -0.10886 0.53912 0.34967 -0.55189 0.10344 -0.1411 0.18535 -0.55631 0.26558 0.1489 0.097996 0.023566 -0.40997 -0.0035694 0.01785 0.4053 0.086269 -0.74838 0.30776 0.36812 0.43449 0.091294 0.041264 -0.25609 -0.35066 0.54136 -0.42621 -0.095108 -0.066033 0.08069 -0.12768 -0.38002 0.10114 0.076782 0.35652 -0.51042 -0.48921 -0.22578 0.71393 0.27609 0.47905 0.14783 0.11571 0.26963 0.24329 -0.10226 -0.19972 -0.11477 0.27368
party 0.33209 0.10325 -0.17399 0.34961 0.79731 -0.36925 0.499 -0.31442 0.084127 -0.30943 -0.29966 -0.049475 -0.2765 0.011915 -0.004508 0.23324 0.15342 -0.57839 -0.2684 -0.20002 0.37272 0.42855 0.037796 -0.22659 -0.017721 -0.1053 -0.011262 0.38621 -0.47409 -0.0035649 0.22542 -0.31985 0.095544 -0.47419 -0.19626 0.2822 0.1152 -0.40637 -0.077482 0.81359 -0.37457 0.7168 -0.25808 0.65073 0.48786 0.077989 0.68193 0.10281 0.12131 -0.51038 0.016631 0.27713 -0.24769 0.061174 -0.10266 0.23055 -0.077072 0.0073578 0.077334 0.14625 0.08994 0.17404 0.021753 -0.28781 -0.18906 -0.089655 -0.38765 0.26705 -0.036802 -0.68011 0.098232 -0.10937 -0.22301 -0.0021317 -0.31595 0.1338 -0.18873 -0.17021 0.49704 0.16578 -0.49708 0.28945 -0.22038 -0.34645 -0.27964 -0.067482 0.11305 -0.62082 -0.19316 0.051065 0.56229 0.21441 0.58799 -0.49306 -0.15283 0.25019 -0.23137 -0.089474 0.03386 0.16241
production -0.11971 0.054805 -0.012481 -0.3517 0.17249 -0.033568 -0.1427 0.042873 0.23022 0.1387 0.1489 0.024057 -0.29975 0.39771 0.13962 -0.086084 -0.48352 -0.081886 0.13211 -0.098972 0.3399 -0.16877 0.63075 0.2846 -0.37908 0.34286 -0.065021 0.10209 -0.16605 0.21417 0.052479 0.40012 0.12394 -0.41996 -0.055243 -0.15042 0.063764 0.15303 0.23369 -0.06026 -0.37832 0.38461 -0.083107 0.1623 0.0037231 0.57783 -0.17059 0.093394 0.43152 -0.29156 -0.040857 0.079789 0.69752 -0.046173 -0.60615 0.12581 0.24646 -0.14087 0.56222 -0.013014 0.33331 -0.42224 0.41491 0.89542 -0.72295 -0.13374 -0.058459 0.20893 0.38213 -0.098064 0.36223 0.052988 -0.010751 0.65847 -0.046168 -0.48303 0.18139 0.044164 -0.15712 0.38238 -0.34058 -0.27611 0.085571 -0.17224 -0.036001 0.075636 -1.0693 -0.012129 -0.59437 0.065269 0.39821 0.37609 0.13376 0.76739 0.16113 0.24197 0.17838 0.55728 -0.062218 0.64806
importance -0.27131 -0.017786 -0.1517 -0.1779 0.76351 0.15865 0.23183 -0.21691 0.0073272 -0.29882 -0.63638 0.033496 0.0024664 -0.37803 0.27004 -0.12157 -0.48004 -0.24246 0.36705 -0.14174 0.031237 0.045108 0.021787 0.37243 -0.39919 0.095637 0.18555 -0.4345 0.046312 -0.15859 0.074896 0.090133 -0.20052 -0.34422 -0.21099 -0.042153 0.29596 -0.30987 0.050066 -0.23958 -0.62115 0.1034 0.12853 0.29457 -0.26083 -0.12853 0.2509 0.52191 0.016698 0.31398 -0.61972 -0.39256 0.17503 0.068674 -0.6492 0.020718 -0.37879 -0.035248 0.13298 0.25005 0.072452 0.11856 -0.36988 0.12988 0.22119 -0.5882 -0.093322 0.78776 -0.18015 -0.50366 0.24266 0.30511 0.31216 0.46361 -0.36443 -0.51604 -0.051143 -0.15123 0.18297 -0.38894 -0.21238 0.063689 0.19123 -0.070063 -0.096953 -0.20546 -0.47901 0.2183 0.074317 -0.027226 0.086501 0.47211 -0.26225 -0.077749 -0.37516 0.014275 0.19572 -0.47469 0.41907 -0.010867
inmate -0.033954 0.14063 0.11596 0.12359 -0.18982 -0.47318 0.63913 0.088985 0.33555 0.68298 0.53469 -0.79112 -0.60223 0.2478 -0.11066 0.024485 -0.56761 -0.49606 0.18835 -0.22371 0.63236 -0.54236 0.34107 -0.38606 0.49421 -0.14706 0.24744 -0.17853 -0.1387 -0.07014 0.042237 0.0034412 0.037816 -0.29054 -0.94905 0.11251 -0.30564 0.56093 0.038057 -0.21446 0.069304 -0.29096 -0.3503 0.30075 0.032485 -0.19442 -0.58181 -0.396 0.14642 -0.3125 0.22851 0.17568 0.012306 0.10335 -0.46991 0.54697 0.28903 0.17985 0.056268 0.39106 0.069563 -0.15895 0.64929 -0.046189 -0.37742 0.28002 -0.47597 -0.50703 -0.21738 0.37098 0.14724 0.85541 0.046102 0.14564 -0.13848 0.30573 -0.13085 -0.17245 0.61984 0.5991 -0.21498 0.18633 -0.1236 0.046177 -0.0094558 0.12647 -0.50808 0.58008 0.20306 0.31865 0.27098 0.73053 0.56861 -0.89923 -0.068799 0.42076 0.17322 -0.30706 0.18865 0.1658
Harvard -0.26549 -0.11281 0.32627 -0.39657 0.034448 0.44757 -0.25175 -0.17835 0.092539 -0.43126 -0.37976 -0.41921 -0.45362 -0.29406 0.41412 -0.18488 -0.25717 -0.37441 0.45689 -3.6991E-5 0.60042 -0.54706 -0.047137 -0.5705 -0.59686 -0.51865 0.27937 -0.38187 -0.16354 0.03398 -0.031748 0.10852 0.11445 0.47309 -0.53669 0.39525 -0.082618 -0.10961 0.12253 -0.0063748 0.0018734 -0.019002 -0.29769 0.90425 0.034432 -0.48803 -0.42953 -0.55515 0.407 0.21151 -0.13258 -0.081408 -0.45383 0.56889 -0.71412 0.1162 -0.54437 -0.1871 -0.18275 0.014023 0.090374 -0.44696 0.10621 0.14099 -0.26251 -0.08983 -0.35786 -0.10283 -0.43287 -0.43862 -0.73035 0.63875 -0.50564 0.44501 -0.5049 0.26783 0.70326 -0.42683 -0.11074 0.18308 0.32764 -0.28907 0.50745 -0.12812 0.2432 -0.48486 0.12506 0.013246 -0.27503 0.044565 0.35703 0.28953 0.2116 -0.90849 0.17257 0.25746 0.036362 0.34302 0.45953 -0.41371
psychology -1.0058 0.23374 0.033035 -0.039682 0.28127 0.28924 -0.18126 -0.13434 -0.168 -0.20586 -0.32117 -0.5641 -0.34127 -0.17009 0.61415 0.37746 -0.48629 -0.5154 0.415 -0.045305 0.64078 -0.0397 -0.32385 -0.049873 -0.68516 -0.065366 0.45341 -0.21096 -0.1786 -0.31374 -0.23343 -0.24873 0.22823 -0.36091 0.17743 0.086256 -0.32149 0.017496 0.24943 -0.50147 -0.1654 -0.21286 -0.23004 0.64392 0.14031 -0.65308 -0.16042 -0.015109 -0.39531 0.1601 0.6263 0.096335 0.10882 -0.098122 -0.55441 0.14359 -0.51425 -0.36265 0.045045 -0.24491 0.13957 -0.3262 0.17079 0.37051 -0.40642 -0.2292 -0.16297 0.33982 -0.45141 -0.52553 -0.38693 0.41649 0.017069 0.64345 -0.14346 -0.075688 0.74424 -0.38476 0.15457 0.6344 0.056042 -0.2916 0.61558 -0.10903 0.27871 -0.50889 -0.35491 0.46438 -0.07839 0.17462 0.21622 0.11486 0.48819 -0.48512 -0.21366 0.33544 0.14091 -0.17171 0.51017 -0.17819
medal -1.0811 0.16795 -0.41386 -0.49702 -0.027025 -0.1381 1.3504 0.40946 0.29064 0.56007 -0.43378 -0.066179 0.50112 0.0040817 -0.13904 -0.24928 -0.35219 -0.69718 -0.16858 0.12498 0.60434 0.39523 -0.45896 -0.084969 -0.38014 -0.034217 0.34475 -0.67133 -0.07575 -0.029316 0.73401 0.61649 0.56232 0.077648 -0.36472 -0.019668 -0.1262 -0.55423 0.39636 -0.16137 0.12675 0.042092 0.16036 0.77995 0.2596 0.48805 0.45375 -0.41814 0.75692 -0.2376 0.37262 0.36738 -0.15455 -0.10236 -0.21813 0.54545 0.008631 0.017527 -0.65181 0.75104 0.49895 -0.39887 -0.63524 -0.58033 -0.26192 0.14953 -0.46692 0.6364 -0.10101 -0.20022 0.53148 0.073308 -0.4834 -0.60096 5.2433E-4 0.014261 -0.27661 -0.36534 0.20254 0.043381 -0.30293 -0.21916 -0.34101 -0.51857 0.92528 -0.37348 -0.63193 0.43789 -0.53455 -0.24523 -0.52301 0.59714 0.49243 -0.5224 -0.61794 0.58269 -0.44741 -0.064377 -0.33698 -0.19259
company -0.1559 0.068609 0.16037 -0.3019 0.031648 0.0042918 -0.17047 -0.32131 0.18422 0.24797 -0.10069 -7.2988E-5 -0.48412 -0.089389 -0.30156 -0.03582 -0.12152 0.16143 -0.035167 -0.16046 0.54022 -0.38817 0.16091 -0.12979 -0.10381 -0.12246 -0.0594 0.070315 -0.64452 0.15013 0.32798 -0.13284 -0.071736 -0.14041 -0.40431 0.19069 -0.01189 0.12954 0.20463 0.25597 -0.25259 0.40911 -0.23231 -0.061959 -0.29592 0.68651 0.046406 0.1668 0.29109 -0.16472 -0.12764 -0.21116 0.57604 0.012848 -0.16052 0.29591 -0.11543 -0.46478 0.16971 -0.16858 0.11315 -0.34208 -0.15193 0.03134 -0.30348 -0.012505 -0.20201 0.18317 0.014012 -0.22276 0.095002 0.2075 0.04844 0.069287 -0.26387 -0.69008 -0.060588 0.37653 0.2155 -0.10499 0.0050901 -0.065579 0.14199 -0.058785 0.10361 -0.39224 -0.47951 0.087231 -0.31809 0.4797 0.25064 -0.029053 0.41542 -0.13984 0.042754 0.40393 0.37961 0.50533 0.25542 0.25521
live 0.31471 0.031719 0.075349 -0.18092 -0.28933 -0.03749 0.33862 -0.0099046 -0.040537 -0.040829 -0.12902 -0.3004 -0.22086 -0.37177 0.22895 0.48595 -0.12065 -0.41166 0.42611 -0.17246 0.14216 0.24011 -0.39658 0.088458 0.022192 -0.046286 0.47195 -0.21588 0.21179 -0.060761 0.33329 0.134 0.35325 -1.0182 0.027381 0.24953 -0.35158 0.7337 0.27834 0.25384 -0.11289 0.25424 0.0037877 0.55117 -0.047414 -0.20002 0.075732 0.31239 0.44525 0.15932 -0.0057694 -0.025411 0.43487 0.11099 -0.42432 0.080947 0.19355 -0.23388 -0.38476 -0.2998 0.43501 -0.20478 0.23243 -0.090465 -0.058143 0.052078 -0.45531 0.019539 -0.072281 -0.11116 -0.13418 0.073356 0.15239 0.079709 -0.63439 -0.57245 -0.0182 0.02806 0.015519 -0.15951 0.12873 0.0076496 -0.51041 -0.39143 -0.16388 0.30143 -0.17274 -0.15334 0.15823 0.64226 -0.4344 0.10916 0.24671 0.017239 0.64528 -0.21614 -0.28034 -0.021753 0.040401 0.20789
holy -0.087359 0.36315 0.40644 -0.80682 -0.43125 -0.52004 0.35591 -0.16753 0.14212 0.82579 -0.3132 -0.41804 -0.42068 0.29631 -0.42289 0.19221 -0.11603 -0.25013 -0.0017035 -0.77263 0.52208 0.24213 -0.44114 0.17774 -0.05284 -0.32137 0.48381 -1.1953 -0.21038 -0.35067 0.24734 -0.19085 -0.204 -0.41944 0.017545 -0.21919 0.10805 -0.35083 -0.052638 -0.23356 -0.43229 0.15903 0.14386 0.51013 0.38717 -0.26463 0.35367 0.50821 0.63764 0.23308 -0.58528 0.081415 0.14763 0.22219 -1.1501 -1.0004 -0.61385 0.10377 -0.47707 0.02504 0.27559 -0.12374 0.01069 -0.047236 -0.6051 -0.12903 0.63628 -0.046794 0.16213 -0.062289 -0.30385 0.11762 -0.42063 0.30273 -0.38526 0.19056 0.45154 0.13049 0.32658 -0.09244 -0.6202 0.3131 -0.71188 -0.20302 -0.28769 0.47593 -0.0058191 0.033911 0.29816 0.08795 0.21593 0.87535 -0.13745 -0.27873 0.023682 0.46664 0.011581 -0.26989 -0.035556 0.31593
ticket -0.099838 0.099358 -0.8213 -0.30001 0.30671 0.1846 0.088311 0.29017 0.28067 -0.070258 -0.18859 0.082798 -0.42089 -0.14654 -0.20959 -0.22086 -0.19397 -0.20991 0.093443 -0.35337 0.17387 0.12796 -0.042529 0.17853 0.29257 -0.42103 -0.083839 0.19692 -0.34011 0.27988 -0.01333 0.06589 0.51983 -0.167 -0.11542 -0.32486 0.066385 0.0080345 0.54006 0.34897 0.16732 0.80455 -0.13764 0.31519 0.16898 0.53156 -0.15699 -0.25143 0.61959 -0.37973 0.24657 0.30879 -0.13941 -0.23983 -0.73297 -0.083098 -0.74517 -0.49391 0.68843 -0.2538 0.34235 0.30602 -0.22461 -1.0262 -0.024413 0.0075328 -0.42976 -0.064862 0.36436 -0.20349 0.14896 -0.23861 0.026385 0.37637 -0.1475 -0.19431 -0.272 -0.16869 0.28097 -0.23057 -0.60138 -4.2687E-4 0.02665 0.062195 -0.056707 -0.048613 -0.46903 -0.33324 -0.15444 -0.19116 0.32795 0.39203 0.41671 -0.53543 0.2559 0.22347 -0.7377 0.15933 -0.38348 -0.046514
victory -0.40418 -0.58411 -0.12236 -0.35154 -0.31673 -0.29873 1.0426 0.14202 -0.055471 0.055219 -0.28333 0.79719 -0.12419 -0.49531 0.73121 -0.23078 0.10724 -0.73836 0.12092 -0.49737 -0.29403 -0.38758 -0.76467 0.0036324 -0.37845 -0.2199 0.15333 0.087724 -0.1009 -0.22459 0.091123 0.082075 0.16448 0.14689 -0.41687 0.044078 0.12462 -0.24344 0.2039 -0.048284 -0.33467 0.49654 -0.076838 1.1975 0.58197 0.061351 0.24516 -0.53979 -0.01771 -0.13041 -0.41138 -0.18753 -0.22333 0.0049065 -0.34107 0.27293 0.24295 -0.38742 0.28545 -0.016902 0.37231 0.072793 0.031829 -0.54997 -0.1799 0.042596 -0.41624 0.40555 -0.093857 -0.36823 0.22893 -0.15064 0.004833 -0.36836 -0.39492 -0.16223 -0.037219 0.31491 0.65492 0.4461 -0.21128 -0.35276 -0.4458 -0.44501 -0.18181 -0.29759 0.091998 0.22449 -0.10745 -0.19524 -0.32205 0.24294 0.17004 -0.41986 -0.62881 0.67147 -0.30745 -0.0026301 -0.10737 0.34521
football -0.080765 -0.1162 -0.28544 0.018031 0.17275 -0.12126 -0.47521 0.060204 0.32876 0.31931 -0.76475 0.20458 -0.15316 -0.24212 0.13204 0.33637 -0.82063 -0.32229 0.33758 -0.28192 0.50243 0.14389 0.094924 -0.48216 -0.38014 0.28584 0.10712 -0.34289 -0.24668 -0.022985 -0.093639 0.076343 0.12586 -0.62453 0.21756 -0.10865 -0.041594 -0.0045668 0.20584 0.023148 -0.091345 0.62585 0.092413 -0.036554 0.57866 -0.060544 -0.20168 -0.18866 0.4683 0.46355 0.40235 0.078764 -0.13197 -0.55622 -0.16926 0.37935 0.095192 -0.27619 -0.53588 0.1166 0.51358 0.063366 -0.28543 -0.17279 -0.25496 -0.1191 -0.36903 0.51849 -0.27583 -0.82112 0.06973 0.022218 -0.4478 0.42637 -0.33862 0.11136 0.31866 -0.056092 0.57728 0.01595 0.50795 -0.33434 -0.37408 -0.098106 0.20824 0.38395 -0.19353 0.3388 -0.25416 -0.19099 0.012867 0.12041 0.17864 -0.70471 0.46115 0.85874 -0.11613 0.064939 -0.080704 0.34493
seepage -0.13597 0.050048 -0.22861 -0.050919 -0.59058 -0.17101 0.21554 0.11421 0.72164 0.1927 0.17012 -0.28938 -0.39521 0.10225 0.21634 0.11331 0.0092728 -0.28908 0.34421 -0.10078 0.48582 -0.19502 0.46304 0.42358 0.081848 -0.29483 0.091241 -0.42039 -0.61103 0.42124 0.22716 0.45375 0.17588 -0.47136 -0.17514 -0.27056 -0.069512 -0.045261 -0.11168 0.25155 -0.66851 0.15189 -0.030893 0.09808 -0.20114 -0.32516 0.20584 0.30313 0.18062 0.080797 -0.17915 -0.37699 0.52964 0.11652 -0.62142 0.16671 -0.2094 0.070652 0.096192 -0.22251 -0.033804 -0.098058 0.36454 -0.35055 -0.2682 -0.32401 0.20345 0.25537 -0.16019 -0.049381 0.11895 0.019541 -0.14503 0.42551 -0.18425 -0.13654 0.11391 -0.04956 -0.15285 0.030599 0.018066 0.50945 0.24986 0.19554 0.7182 -0.26798 0.1462 0.13512 -0.17392 0.55044 0.23451 0.13009 -0.1231 0.26735 0.17552 0.12982 0.24885 -0.15884 0.20244 0.36658
rook -0.86346 -0.21289 -0.018208 0.12619 0.14927 0.033174 0.08417 -0.091678 0.62248 0.28335 0.13513 -0.68139 -0.65432 -0.29707 0.12778 0.22272 -0.17496 -0.56055 -0.057803 -0.55183 -0.012776 -0.1337 -0.17221 -0.33511 -0.36227 -0.28424 0.26392 0.118 -0.35716 0.20113 -0.37408 0.59768 0.34867 -0.55261 -0.59751 -0.20058 0.105 0.43507 0.21448 0.068379 0.007931 0.057406 -0.30061 -0.073003 0.1963 -0.47171 -0.0056075 -0.3375 -0.040007 0.13985 -0.073749 0.056278 -0.13048 -0.21985 -0.22948 -0.059306 0.04693 -0.16528 -0.062009 0.3103 0.2684 -0.12854 0.042876 0.25631 -0.005237 -0.026287 -0.22344 0.31732 -0.36385 -0.052378 0.12883 0.19478 -0.072076 0.23458 -0.011422 0.0067523 0.56605 0.25829 0.31637 -0.065904 -0.087953 -0.35733 0.18875 -0.62234 0.35189 0.17418 0.14206 0.23155 -0.18605 0.40149 0.18151 0.097741 -0.03832 -0.069428 0.61395 0.13305 -0.46611 -0.47375 -0.11428 0.24127
stroke 0.097843 -0.32776 0.06061 0.40174 -0.41739 -0.47861 0.78051 -0.70046 0.22318 0.016014 -0.82401 -0.25652 -0.019744 -0.34147 0.17465 0.02304 -0.70568 -0.98274 -0.22536 0.060693 0.87369 -0.15227 -0.35328 -0.76428 0.13163 -0.53267 0.78678 0.27837 -0.52817 0.23908 0.53538 0.33727 0.098806 -0.19401 -0.91376 -0.036551 0.069311 0.13063 0.21657 0.066754 0.61444 -0.25349 0.033654 0.83935 -0.26398 -0.46981 0.1361 -0.59205 -0.60016 0.10947 -0.056231 -0.012049 0.28155 -0.10823 -0.37714 0.2152 0.2045 0.042807 0.25483 -0.046961 0.49678 -0.18774 0.30548 -0.091227 -0.14265 -0.41791 -0.51223 0.62732 -0.32612 -0.14732 0.54725 0.091008 0.060912 -0.17169 0.11102 0.17554 0.33606 0.042531 -0.45793 0.085753 -0.43422 0.22784 0.56665 -0.13756 0.25972 -0.022743 -0.27776 0.059829 0.18113 -0.041296 0.19147 0.067495 -0.12713 0.11531 -0.35938 0.10745 -0.37433 -0.010703 0.04797 0.29829
environment 0.0039885 0.10912 -0.18773 -0.028917 0.28455 0.16828 -0.34365 -0.36814 -0.13991 -0.13235 -0.68455 -0.06959 -0.52934 -0.39769 -0.0088028 0.049971 -0.00622 -0.35418 0.58962 0.10814 0.065757 0.34488 -0.25135 0.37772 -0.40952 -0.17483 0.37015 0.25919 -0.46407 0.038394 -0.10491 0.43836 -0.16629 -0.40886 0.12709 -0.016959 -0.45217 0.2817 0.21704 0.17768 -0.65529 0.10428 -0.22696 0.24833 -0.013144 -0.41868 0.13395 0.66899 0.50559 -0.26348 0.0021862 -0.12585 0.082897 0.038465 -0.49028 0.28697 -0.32921 0.2453 0.062863 0.15949 0.35656 -0.011389 -0.099138 0.21065 -0.2087 0.20643 -0.17156 0.3744 0.066676 -0.23697 0.44877 0.21912 0.7207 0.11615 -0.2214 0.022272 0.029798 -0.09894 0.42355 -0.31641 -0.2691 0.22669 -0.050194 -0.16886 0.36552 -0.43569 -0.45373 0.098346 0.37897 0.6766 -0.11215 0.14147 0.33305 0.26719 -0.14951 0.10062 0.2444 -0.29668 0.36454 0.26455
coffee -0.014491 0.022304 -0.60753 -0.22509 0.41552 -0.47497 -0.091454 -0.25397 0.56909 0.21034 -0.48429 -0.087381 -0.4189 0.17067 0.13596 0.32562 -0.32883 -0.20135 -0.10342 0.16495 -0.20161 0.37376 -0.2798 -0.030997 -0.069636 -0.73935 0.011889 -0.083983 -0.50824 0.63305 0.28888 0.71242 -0.0060188 -0.45688 0.028299 -0.10817 0.0082137 0.061281 0.17261 0.20545 -0.73943 -0.0037034 -0.5208 0.36386 -0.17696 0.49053 0.19891 0.066566 0.1737 0.0063273 -0.13781 -0.045758 0.17522 -0.19921 -0.70452 -0.21398 -0.034034 -0.42308 -0.040306 0.14457 0.34995 -0.38975 0.31889 -0.64976 -6.6053E-4 -0.38605 0.21953 -0.066828 0.03685 0.18678 -0.096868 0.46181 -0.65174 -0.1046 -0.36978 -0.067396 0.12773 -0.049936 -0.054292 -0.12556 -0.27406 -0.42078 0.11645 -0.16632 0.28552 0.17069 -0.43805 -0.50691 -0.097554 0.1925 0.2897 0.18353 0.1777 -0.64306 0.58059 0.10399 0.4933 0.1484 0.15899 0.42027
baby 0.061553 0.41157 0.49196 0.14205 0.27523 -0.51458 0.42893 -0.0017599 0.31909 0.083253 -0.24801 -0.5904 -0.0061866 0.71567 0.16811 0.52116 -0.36098 -0.80461 -0.52681 -0.28191 0.31235 -0.19418 0.097382 -0.37242 0.12542 -0.31507 0.14992 0.34649 -0.41521 -0.30023 0.38292 0.92568 0.066062 -0.52969 -0.55893 -0.38173 -0.37162 -0.05428 -0.011911 0.49368 -0.38951 -0.12163 -0.18406 0.024503 -0.25249 0.098878 -0.02727 0.25162 0.036625 -0.43413 0.20922 -0.057342 0.1042 0.28016 -0.57778 0.27432 -0.18498 -0.1144 0.0064289 0.41268 0.40523 -0.79702 -0.30042 -0.3111 0.028887 0.041138 -0.26948 -0.012226 -0.22873 0.35293 0.37637 0.083201 0.16511 0.30482 -0.14785 -0.35856 -0.41662 -0.27576 0.48653 0.060584 0.60279 -0.4022 0.23815 -0.2441 -0.0047753 0.2171 -0.56306 -0.18795 -0.16132 0.18975 0.13094 0.42197 -0.20961 -0.36603 0.023266 -0.084591 0.32911 -0.45241 -0.22393 0.2082
personnel -0.16981 -0.020874 -0.45804 -0.23195 0.40965 -0.036445 0.081072 0.18698 0.17705 0.2887 0.27058 -0.20344 -0.45724 0.12395 0.06715 0.37586 -0.38409 0.44094 0.47407 -0.26458 0.35195 -0.23382 0.31756 0.056195 0.13739 0.2547 0.17221 -0.31658 -0.1156 -0.63728 -0.14959 -0.10285 0.079065 0.0017388 -0.13065 0.079315 0.64255 0.12291 -0.053677 -0.25149 -0.21393 0.042051 0.33674 0.21274 -0.24873 0.2531 0.13946 -0.15213 0.69657 0.14601 -0.084041 -0.27597 0.39165 -0.058901 -0.8764 0.19792 -0.060287 0.13526 0.37456 0.62626 0.4688 -0.33457 -0.019626 0.14743 0.075241 0.26232 -0.91757 0.20812 -0.65401 -0.28706 0.74581 0.30747 -0.076102 0.005863 -0.041188 0.23725 -0.43404 -0.04717 0.41458 -0.40425 -0.17861 0.071803 0.62621 0.05915 -0.26192 -0.045792 -0.28349 0.51864 0.037899 0.48381 0.19199 -0.39537 0.17211 -0.39134 0.16452 0.34162 0.066523 0.35911 0.14454 0.1821
family 0.26618 0.25562 0.30642 -0.17646 0.15243 0.052937 0.55989 -0.18611 0.27665 0.13934 -0.40368 -0.48287 -0.2636 -0.018524 -0.16491 0.49348 -0.15444 -0.15601 -0.29948 -0.020098 0.14544 -0.022711 -0.14383 -0.4394 -0.14606 -0.15565 0.22836 0.15321 0.18092 -0.22097 0.21288 0.046568 0.20003 -0.70967 -0.22751 -0.052006 -0.1726 0.075881 -0.028879 -0.069373 -0.16911 0.08518 -0.48778 0.24752 0.044662 -0.026172 0.46009 -0.17765 0.60139 -0.20217 0.21359 -0.092345 0.30556 -0.15059 -0.23383 0.2481 -0.25453 -0.31488 0.0041993 -0.064211 -0.10574 -0.18705 0.21341 -0.17962 -0.089673 -0.092138 -0.27594 0.31295 -0.14856 -0.26672 -0.16958 0.3465 0.14791 0.39932 -0.35646 -0.1994 -0.22765 0.17245 0.5935 -0.35265 -0.10208 -0.15672 -0.071758 0.21315 -0.42025 0.213 -0.45283 -0.11122 -0.24697 0.62813 0.17887 0.043428 0.28416 -0.49909 0.18902 0.057811 0.33691 -0.3501 0.18258 -0.070272
hypertension 0.44691 -0.045015 -0.42372 -0.012052 0.12948 -0.50045 0.16392 -0.46377 0.19611 -0.10983 -0.95762 -0.51038 -0.15715 0.0039813 -0.0027115 0.17519 -0.54745 -0.35058 -0.060517 -0.17003 0.84238 0.05117 -0.12681 -0.40145 -0.16563 -0.70372 0.90267 -0.24014 -0.43641 -0.18983 0.55654 0.28265 0.59676 -0.25971 -0.40298 -0.20557 -0.058514 0.38284 -0.24747 -0.10115 -0.13766 -0.17478 -0.57741 0.5986 -0.22832 -0.39663 -0.16182 -0.081737 -0.22845 0.35651 0.3466 -0.21519 0.31439 0.36819 -0.77285 -0.14333 -0.019295 0.36687 0.33713 0.11129 0.35562 -0.2346 0.4981 -0.23295 -0.0068607 -0.21991 -0.16862 0.34781 -0.76143 -0.17208 0.57138 0.44336 0.051668 0.59903 0.060523 -0.34476 0.42424 -0.58565 -0.35823 0.40793 0.18217 -0.028841 0.55056 0.26345 -0.18502 -0.74821 -0.51071 0.13647 -0.12607 -0.35082 0.42853 -0.095684 0.0049571 -0.073649 0.0089283 0.11119 -0.099972 0.14373 0.43982 0.61947
president 0.23899 -0.52579 0.075667 -0.14244 0.50836 0.091932 -0.42791 0.070784 -0.4926 -0.060523 -0.22006 -0.1256 -0.34024 0.023728 0.17381 -0.14685 -0.094897 -0.51953 0.34423 0.46558 0.65719 -0.039268 0.22279 -0.48703 -0.43359 -0.1453 -0.30531 0.14976 -0.33593 -0.29332 0.21787 0.0081741 -0.12505 0.014027 0.072642 0.25438 -0.06927 -0.090904 0.059237 0.37174 -0.25592 0.16359 0.085973 0.082993 0.17925 0.17755 0.47614 -0.20181 0.07425 -0.25889 -0.26948 -0.43497 0.055436 0.27037 -0.81096 0.20108 -0.25111 -0.25791 0.16231 0.15208 0.0063177 -0.16258 0.28285 -0.30693 -0.16869 -0.2919 -0.68445 0.45362 0.11818 0.034551 0.11477 -0.072285 -0.21997 -0.064344 -0.37578 -0.28626 0.077425 0.35451 0.36303 0.19641 0.011226 -0.10353 -0.058241 -0.010098 -0.065345 -0.085664 -0.45903 -0.052746 -0.21614 -0.44957 -0.14646 0.49245 0.40974 -0.63082 0.1369 0.76609 -0.23388 0.43284 0.64094 0.0044263
atmosphere -0.082747 -0.29734 -0.54953 -0.26581 -0.17849 -0.20341 -0.02222 -0.34342 0.62503 -0.041099 -0.48522 0.36994 -0.34643 -0.34239 0.41113 -0.011343 -0.47057 -0.088575 0.34789 -0.20455 0.46329 0.30549 -0.099036 0.33737 -0.34445 -0.28645 -0.12736 0.092316 -0.3873 0.29414 0.20436 0.50463 -0.052681 -0.18504 0.79833 -0.48872 -0.47381 0.21961 0.074922 0.98585 -0.53487 0.11629 -0.09592 0.45796 0.25083 -0.4713 0.10792 -0.1474 0.57183 -0.072937 -0.0018494 0.58093 0.37138 -0.50917 -0.47375 0.029711 0.25592 -0.10522 -0.13989 0.53379 0.017507 0.030357 0.20237 0.19598 -0.40157 -0.17551 -0.23351 0.60993 0.053797 -0.34354 -0.0050424 -0.20343 0.24844 0.13912 -0.27114 0.30395 -0.28412 -0.64024 0.12847 0.10029 -0.45129 0.22592 0.068771 -0.26076 0.11782 -0.026672 -0.0013898 -0.050533 0.2842 0.65078 -0.18846 0.46164 0.39033 0.29114 0.060499 0.041276 0.13684 -0.8264 0.1397 0.40389
practice -0.44631 0.0013136 -0.088372 -0.23802 -0.14827 -0.40386 -0.090918 -0.2653 -0.087278 -0.095473 -0.20754 -0.22512 -0.5652 0.10922 -0.33418 0.37703 -0.22763 -0.154 0.34583 -0.26897 -0.019003 0.16001 -0.49412 -0.25349 -0.34086 0.2871 0.28615 0.0026477 -0.49221 0.27224 -0.17609 -0.11138 0.28778 0.037042 -0.48547 0.16719 0.42725 0.17394 -0.070255 0.21468 -0.19307 -0.05444 0.15724 -0.043339 0.051328 -0.23769 0.22508 0.13753 0.056693 0.2769 -0.60296 -0.23591 0.044234 -0.10776 -0.18612 -0.098363 0.012288 -0.10021 -0.23887 0.089684 0.53865 -0.27981 -0.072547 0.39421 -0.093453 -0.45102 -0.057283 0.46644 0.062553 -0.52269 -0.13679 0.66224 0.14899 0.26151 0.16683 -0.097682 0.29863 0.035344 0.55808 0.24457 0.26979 0.10867 0.29654 -0.24885 0.22642 -0.098732 -0.26664 0.28244 0.20463 0.28191 0.35655 0.20436 -0.078494 -0.59845 -0.137 0.2469 -0.2958 -0.062864 0.10764 0.39612
movie -0.19108 0.18078 -0.28182 -0.26217 0.18465 0.20292 -0.057389 0.22424 0.38263 0.47937 -0.1548 -0.44211 -0.32796 0.078639 0.38233 0.23925 -0.60929 -0.66467 -0.021819 -0.37894 0.77202 -0.20352 -0.21147 0.28266 0.13303 0.17592 0.11763 -0.20091 0.18126 0.091049 0.6387 -0.25781 0.27448 -0.15859 0.30957 0.19498 -0.50778 -0.14311 0.30223 -0.067856 -0.27934 0.34843 -0.45128 -0.050214 -0.18927 0.09445 0.25284 -0.21643 0.26732 -0.10582 0.28518 0.57217 0.4306 -0.26662 -0.47408 0.59036 0.055839 -0.45722 0.28147 -0.016519 0.015351 -0.04206 -0.044785 0.1639 -0.7772 -0.13264 -0.092125 -0.17059 0.19384 0.24573 -0.073054 -0.057336 0.35176 0.57223 -0.57125 -0.057592 0.026372 -0.31836 0.10802 0.22217 -0.058676 -0.18822 0.0059656 -0.39308 0.19093 0.45876 -0.70989 -0.32642 -0.26721 0.049845 0.41134 0.40937 0.37985 -0.20033 0.042529 0.22302 -0.088859 0.54597 -0.64464 0.30989
popcorn -0.10063 0.40528 -0.47758 -0.33517 0.26478 0.083613 -0.25648 0.41878 0.67573 0.42479 0.011789 -0.29519 -0.45673 -0.028111 0.59367 -0.2347 -0.73242 -0.70451 -0.090989 -0.18221 0.17617 0.034375 0.036595 0.14826 0.12089 -0.59669 0.22314 -0.12911 -0.54205 0.60642 1.1551 0.80343 0.26144 0.029069 -0.41124 -0.16241 0.068084 0.14688 -0.14228 0.21807 -0.59559 -0.024498 -0.31263 0.20989 -0.063139 0.40117 0.006965 -0.21661 0.41499 0.1596 -0.17052 0.1355 0.35643 0.098798 -0.54905 0.024484 0.18765 -0.43657 0.054606 0.44296 0.56343 -0.22091 0.066293 -0.35039 -0.14042 -0.26677 0.42708 -0.31517 -0.55708 0.37031 0.064939 0.26751 -0.13071 0.29383 -0.29459 -0.11627 -0.19477 -0.48994 -0.12388 -0.079422 0.090817 -0.80275 -0.17435 -0.55484 0.081813 0.42868 -0.24562 -0.74448 0.079597 -0.042219 0.79493 -0.091177 0.19463 -0.19936 0.2672 -0.029818 0.24297 0.44971 -0.42733 0.62834
recommendation -0.22208 0.048347 -0.70093 -0.034035 0.062837 0.20555 -0.16855 -0.11612 -0.131 0.15408 -0.44685 -0.64727 0.44441 -0.12254 -0.026307 0.11224 -0.034316 0.19819 -0.26928 -0.48668 0.34991 -0.59624 -0.39715 0.27469 -0.24668 -0.40879 -0.21521 -0.12071 -0.43571 0.018754 -0.017343 0.20716 0.29583 0.28191 -0.20222 0.41164 0.30842 0.22985 -0.47106 0.013862 -0.33895 -0.0054086 -0.043627 0.113 -0.022214 0.36491 0.46109 -0.27759 0.48539 -0.086455 -0.23731 -0.78138 0.27278 0.30021 -0.41807 0.23231 -0.51446 0.091435 0.38202 -0.0086172 0.4587 0.029485 -0.089937 0.003004 0.30733 -0.011237 -0.42926 0.20441 0.42209 -0.070477 0.29656 0.29927 -0.12241 0.32024 0.30724 -0.52393 0.4825 -0.31255 0.13794 -0.16272 0.063421 0.30168 0.35051 -0.21828 -0.22128 0.15154 -0.34971 -0.23623 0.063829 0.087962 0.04013 0.38021 0.62103 -0.23866 -0.16921 0.42582 -0.085807 -0.42816 0.43368 0.34868
focus -0.35101 -0.032428 -0.39387 0.1192 0.36925 0.37855 0.24407 -0.22069 -0.058954 -0.34822 -0.45583 -0.18998 -0.32472 -0.57221 0.35573 0.12904 -0.095149 0.031285 0.34576 -0.040362 0.15947 -0.21076 0.10057 0.034133 -0.23497 -0.36017 0.31325 -0.23501 -0.023378 -0.1737 -0.22689 -0.25106 -0.039393 -0.40697 0.023252 -0.117 0.24266 0.1503 -0.017336 0.065632 -0.69047 0.24063 0.04334 -0.010288 -0.37183 0.13123 0.08999 0.38066 0.090658 -0.11785 -0.43831 -0.46665 0.12892 0.14234 -0.37951 0.15794 -0.099653 0.080171 0.16616 0.37604 0.39148 -0.35149 -0.19285 0.28086 -0.39965 -0.40978 -0.040803 0.60342 -0.031687 -0.39295 0.052765 0.031643 0.21211 0.18054 0.30373 -0.53026 0.10309 0.020563 0.21529 0.09288 0.1301 0.12083 0.011868 -0.26831 0.011671 0.13458 -0.34774 -0.012419 -0.39439 3.7011E-5 0.24874 0.35152 -0.063876 -0.23396 -0.25151 -0.026315 0.097976 -0.3012 0.21667 -0.03211
attempt -0.21923 -0.026939 -0.53758 0.14717 -0.21142 -0.63679 0.41911 -0.41868 0.28035 -0.2721 -0.1336 0.0038407 -0.59701 0.40361 0.14706 -0.11508 -0.40733 -0.31081 0.22293 -0.053431 0.56439 -0.6783 -0.48798 -0.17711 -0.40121 -0.31545 -0.075913 -0.049933 -0.2852 -0.37331 0.27168 -0.17596 -0.2247 -0.15738 -0.12505 0.082979 -0.035777 0.14958 -0.30976 0.056642 -0.39009 0.3314 0.26509 0.20454 0.37227 0.16906 0.14332 -0.025608 0.23523 -0.21574 -0.74991 0.31323 0.103 -0.49471 -0.22318 0.4405 -0.10325 0.36371 0.25231 0.056071 0.18383 0.33518 -0.14033 -0.38249 -0.057946 0.45272 -0.49111 0.15547 0.43139 0.06771 -0.12327 0.18483 -0.02371 0.42776 0.0068801 0.043634 0.21553 0.15358 0.36981 0.45735 -0.10256 0.41463 0.22168 0.078478 0.1629 -0.21264 0.13129 -0.3606 -0.16803 -0.1258 0.31362 0.17385 -0.18373 0.21549 -0.046621 0.30666 0.01123 -0.28074 -0.16711 -0.38905
approach -0.3453 -0.40071 -0.46053 -0.2528 0.37983 0.10296 0.029493 -0.61043 -0.297 -0.067233 -0.68942 0.051727 -0.1621 -0.084194 0.36831 0.11378 -0.18643 -0.017405 0.23281 -0.09464 0.2718 -0.26902 -0.50102 0.014145 -0.39739 -0.41629 0.32426 0.41397 -0.14451 -0.0077097 -0.17581 0.17071 -0.40909 0.048632 0.15569 0.31555 0.39013 0.2195 0.0189 -0.011614 -0.26818 0.33778 -0.21672 -0.13754 0.16271 -0.056971 0.13995 0.2393 -0.067513 -0.050957 -0.37546 -0.014799 0.31602 0.14987 -0.32326 0.043568 -0.1485 -0.017499 0.23783 0.068488 0.21927 1.8552E-5 -0.31076 0.20291 -0.17968 -0.088186 0.032477 0.40239 0.06375 0.049829 0.23521 0.32348 0.16495 0.41623 0.13053 -0.50817 -0.0098223 -0.059086 0.1482 0.17211 -0.13589 0.70869 0.62009 -0.50016 0.013685 0.10916 -0.11604 0.11502 -0.18207 0.31398 0.069302 0.36038 0.048747 -0.29982 -0.50742 0.25272 -0.22898 -0.41943 0.22495 0.15251
number -0.32591 0.46724 -0.3996 -0.23773 -0.049567 -0.26086 0.479 -0.28668 0.29268 -0.21634 0.057154 -0.12449 -0.2025 -0.3177 -0.0019552 -0.34963 -0.19606 0.34315 0.0059291 0.0049389 0.59308 -0.68622 0.028821 -0.11875 0.21248 -0.12668 0.38231 0.054921 0.16658 0.19437 -0.1441 -0.093274 0.31899 -0.18144 -0.2388 0.12183 0.38666 0.010249 0.18876 0.10292 -0.21255 0.04895 0.20692 0.55471 -0.16778 0.056615 -0.11185 0.2578 0.21274 0.074256 -0.0054102 -0.29397 0.041222 0.41273 -0.227 -0.19116 -0.19134 0.18731 -0.044105 0.29478 0.47195 0.14778 -0.071623 0.12821 0.14075 -0.10447 -0.50649 0.44262 -0.0093351 -0.095354 0.61141 0.34637 -0.090978 0.34657 -0.58423 0.01098 -0.23999 0.023261 -0.20721 -0.38867 -0.053274 -0.16751 0.27636 0.15395 0.21388 0.54519 -0.35912 -0.25751 0.29906 0.29659 0.24461 0.2427 0.16211 -0.094592 0.14302 0.13873 -0.33375 0.29587 -0.29102 0.18827
property 0.03362 0.29933 -0.3708 0.038033 0.02673 -0.097992 0.21392 -0.37767 0.38636 0.67118 0.21224 -0.46221 -0.31945 -0.80408 -0.26568 -0.062818 -0.19102 -0.1936 0.20692 -0.077075 0.4687 0.14076 -0.02653 -0.036306 -0.017412 0.22135 -0.018835 0.22812 -0.54244 0.25659 0.1229 0.0017609 -0.10826 -0.4542 -0.25565 0.30033 -0.054884 0.19022 0.67218 0.14632 0.10186 0.58299 -0.41687 0.29242 -0.19759 -0.34289 0.0096929 0.23648 0.30593 -0.56116 0.13385 -0.2041 0.28691 0.14418 -0.29598 0.0099597 0.018476 0.081449 -0.04829 -0.1943 0.070242 -0.1136 0.2195 -0.30182 -0.21587 0.33127 -0.17107 0.16525 0.0028468 -0.48051 -0.039267 -0.37803 0.60344 0.3712 -0.30404 -0.23526 0.38283 0.60301 0.66797 -0.4355 -0.16872 -0.24449 0.48068 0.18625 0.38482 0.21893 -0.47187 0.088438 0.20829 0.5018 0.79918 -0.24717 -0.15031 -0.34029 0.44424 0.33828 0.44202 -0.42559 -0.026207 -0.34213
fingerprint -0.67692 0.10823 -0.35436 0.31636 0.12983 -0.36517 0.86678 -0.39489 0.49268 -0.13985 0.67912 -0.48888 -0.053352 0.049102 -0.1083 0.20668 -0.1077 -0.29151 0.29435 -0.069896 0.31462 -0.697 0.32094 -0.036553 0.40545 0.36491 0.064425 0.19403 -0.63543 -0.063479 0.057212 0.29553 0.16708 -0.083682 -0.060494 0.16323 0.18361 0.11103 0.29287 0.0958 -0.017648 -4.9318E-4 0.0078526 0.68222 -0.22558 -0.49704 -0.19293 -0.04447 0.40188 -0.16063 -0.19404 -0.39537 0.21873 -0.18035 -0.33354 0.4795 -0.61432 0.41358 0.20815 0.20765 0.75119 0.27046 -0.33957 -0.089639 0.16969 -0.0045679 0.14538 0.1684 -0.44845 0.28277 -0.35214 0.27845 -0.60015 0.079686 -0.4948 -0.66163 -0.082041 -0.5247 0.17167 -0.14346 0.58007 0.64419 0.13466 -0.075208 -0.031937 -0.065821 -0.35435 0.41059 0.29246 0.20879 0.3517 0.56075 0.49422 -0.25869 0.078957 -0.25983 0.12171 -0.059296 -0.053853 0.33027
reservation -0.0059328 -0.061167 -0.52625 -0.2092 0.21084 -0.23985 0.1862 -0.35105 0.38672 0.51362 0.013239 -0.40799 -0.53714 0.19998 0.12054 0.074657 -0.30109 -0.085445 0.068588 -0.11818 -0.044851 0.21164 -0.30567 0.073284 0.10151 -0.047301 -0.2861 0.344 -0.037462 0.2754 -0.34976 0.12442 0.089542 0.030703 -0.40477 -0.008802 0.31423 0.02483 0.15158 0.28303 -0.033456 0.47587 -0.20997 0.40403 -0.20973 -0.1254 0.1658 0.087119 0.60203 -0.099892 0.11154 -0.32623 0.13666 -0.0087585 -0.70336 -0.014343 -0.23951 -0.64705 0.13726 -0.056974 -0.046891 0.16257 0.19203 -0.43307 0.0063238 -0.27996 -0.47744 -0.038408 0.13943 0.086624 0.2658 0.21293 0.10849 0.72192 -0.19484 -0.50375 0.21274 0.028215 0.42019 -0.51348 -0.19471 0.24221 -0.13146 0.0030196 -0.043163 -0.12225 -0.13766 0.18237 0.024808 0.38088 0.18684 -0.080143 -0.073236 -0.19291 0.36302 -0.011422 -0.41903 0.025555 0.22095 -0.12041
block 0.30392 0.12756 -0.54768 0.19429 -0.051221 0.065247 0.17967 -0.33172 0.74681 0.40017 0.54554 -0.12177 -0.23922 0.14845 0.32795 -0.15299 -0.13857 -0.15665 0.11628 -0.34815 0.049773 -0.068644 0.020267 -0.18522 -0.06291 -0.40155 0.62829 0.32579 -0.23242 0.044371 0.33798 -0.12464 0.38816 -0.25018 0.18342 0.37823 0.46116 0.35878 0.32837 0.21438 -0.23878 0.41213 0.098182 -0.045038 0.47685 -0.070247 0.2993 0.052067 -0.076116 -0.077002 -0.64213 -0.32996 0.251 0.41237 -0.33896 0.65707 0.15623 0.044598 -0.1714 0.12094 5.0342E-4 -0.55374 -0.10515 -0.48828 -0.28844 0.42353 -0.083636 0.050511 0.10817 0.11086 -0.0023524 -0.020286 -0.25797 0.50044 -0.29453 -0.41834 0.35029 0.18739 0.024419 0.45044 -0.43592 0.44113 0.28687 -0.27309 0.062035 0.10116 0.074898 -0.035751 0.1358 0.11944 0.30069 0.11657 -0.18164 -0.25745 0.13026 -0.047243 0.085692 -0.20863 0.0061128 -0.33781
fear 0.18753 0.053489 -0.14337 0.024346 0.43396 -0.31725 0.17895 -0.59919 0.44695 -0.041029 -0.29059 -0.052502 -0.35951 -0.32851 0.064646 0.20306 -0.42432 -0.32736 0.25015 -0.1348 0.60206 -0.50232 -0.16904 0.12302 -0.020869 0.12166 0.51024 -0.065323 -0.044426 -0.47895 0.070296 -0.018832 0.020291 -0.27638 0.2249 -0.090416 -0.17252 0.020693 -0.16123 0.014786 0.021261 0.090453 0.14792 0.35188 0.11301 -0.24375 0.19046 0.45147 0.054703 -0.074615 -0.074669 0.16548 -0.14228 0.18301 -0.62027 -0.23953 -0.4328 0.19428 0.34902 0.32662 0.13874 -0.35981 0.74157 -0.27415 -0.014586 -0.17325 -0.05677 0.41905 0.1567 -0.17634 -0.024561 0.33686 -0.15717 0.24467 -0.040446 -0.59389 -0.053547 -0.12193 0.29772 0.33444 0.0013084 -0.23266 -0.29321 0.3584 0.2908 0.090649 0.046924 -0.073725 0.11672 0.59248 0.30461 0.053901 0.11451 -0.021926 -0.30154 -0.033313 -0.29438 -0.59724 -0.22069 -0.10039
surface -0.4036 -0.1237 -0.38595 -0.26293 -0.203 -0.29737 0.41695 0.1762 0.68324 0.32915 -0.0083188 -0.034513 -0.52871 -0.17994 0.070727 -0.023317 -0.29382 -0.17649 0.13913 -0.26607 0.60204 0.21235 0.055779 0.031322 0.051837 -0.61192 0.087949 0.094291 -0.30943 0.2393 0.14106 0.87136 0.12829 -0.42842 0.23798 -0.47786 0.082572 -0.062621 -0.045252 0.22539 -0.111 0.31174 -0.12471 0.12221 -0.32922 -0.42275 0.19538 -0.15702 0.076068 0.44543 0.20787 -0.21068 0.47488 -0.15406 -0.46004 0.16969 -0.23671 0.10735 -0.14215 0.32547 0.22168 -0.27043 -0.0024399 0.072454 -0.61218 -0.26043 0.17068 0.2335 -0.18502 -0.49779 0.44307 -0.18128 0.073715 -0.046336 -0.40471 0.022009 0.039778 -0.08359 -0.050561 0.2684 0.14105 0.63934 0.16977 -0.61116 0.63877 -0.27543 0.39058 0.36935 -0.27045 0.56254 -0.2799 0.30951 -0.12402 0.71953 0.085588 0.24237 0.1628 -0.34592 0.34976 0.45411
