421 100
plane 0.20921 0.28256 -0.36965 -0.24198 -0.47082 0.38739 0.51692 -0.053948 -0.41813 0.411 0.14719 -0.20243 0.3614 0.30049 -0.30802 0.25507 0.30027 0.023093 0.27913 0.32806 -0.063928 0.96396 -0.22905 0.82827 -0.033249 -0.38693 -0.39813 -0.074501 -0.27309 -0.29237 -0.068294 0.28538 0.076966 0.56019 -0.25849 -0.12918 -0.51119 0.55068 -0.25029 0.34734 -0.71901 0.50569 0.61613 0.65045 0.68682 -0.5193 0.48003 -0.5064 -0.18842 0.4883 0.12911 -0.58292 0.34227 0.10621 0.38931 0.044987 0.18808 0.2673 0.22617 0.44016 0.26076 0.35049 0.22823 0.10894 -0.20336 0.077552 -0.39554 0.60094 -0.036654 -0.47992 0.44866 0.4518 0.15533 0.35094 -9.2054E-4 0.30968 -0.25633 -0.38121 -0.15449 0.66974 0.56437 0.1212 0.59031 0.038563 -0.074541 0.7025 0.57921 -0.16982 -0.20527 0.095691 -0.05717 -0.0707 0.10184 -0.0057425 -0.31457 -0.30797 -0.21609 0.39788 -0.25139 0.29936
stupid 0.23807 -0.53901 0.33527 -0.32823 -0.15929 0.44048 0.096152 0.5393 0.54598 0.23703 0.15325 0.054064 -0.041659 0.035714 0.081401 0.48338 0.28009 -0.51353 -0.42082 0.04839 0.3795 0.9521 0.49144 -0.31349 -0.18809 -0.41956 -0.24866 0.36309 -0.20915 -0.6887 -0.20239 0.25178 -0.064164 0.21608 -0.076517 -0.729 -0.27322 0.34079 0.37521 -0.27407 -0.82848 0.01053 -0.036452 -0.2694 0.26133 0.19651 0.25686 -0.065818 0.66921 0.26436 0.46616 -0.067969 0.24716 0.03625 0.055388 -0.19568 -0.40592 -0.41752 -0.28532 0.14343 0.47302 0.06437 0.3409 0.073783 0.3192 0.23136 0.47333 -0.047626 -0.097033 -0.12278 0.1515 -0.29429 -0.23012 -0.18941 0.16531 -0.76684 -0.60904 -0.090586 0.5724 -0.49537 -0.06414 -0.52276 -0.0035846 0.054712 -0.2616 0.4944 -0.010582 -0.7541 0.14604 -0.14797 0.16236 -0.125 -0.19314 0.02901 0.42117 -0.028418 -0.1298 -0.12676 -0.51117 0.4705
egg -0.67717 -0.87687 -0.31123 -0.18012 0.40302 -0.14939 -0.045386 0.83675 0.29043 0.40238 0.35021 0.68224 0.089323 -0.2772 -0.41498 -0.1676 0.71647 -1.004 0.32734 0.40211 0.43726 0.57566 0.49883 -0.055756 -0.10747 -0.31813 -0.3965 0.11619 -0.25267 -0.62347 -0.25436 0.37929 0.56126 0.53265 0.087427 -0.17201 -0.53495 -0.49492 0.35748 0.10508 -0.32445 -0.0053435 0.026422 0.39889 0.037058 0.079837 -0.42661 -0.3037 0.038064 0.25079 0.71825 -0.43032 0.022194 -0.60487 0.022162 -0.35955 0.45652 -0.36096 0.16457 -0.32962 -0.45361 -0.29806 -0.030413 0.10255 0.045753 -0.4651 0.80321 0.15247 -0.28868 -0.43309 0.47115 -0.40335 -0.15623 0.436 0.34134 0.14059 -0.21794 -0.25103 -0.085978 0.007945 0.037131 -0.18513 0.80668 -0.35506 0.184 0.1856 0.053203 -0.64378 0.71794 0.41171 0.5142 0.0089613 -0.56901 -0.038463 -0.26997 -0.23049 -0.22227 -0.31506 -0.54041 0.055426
year 0.007184 -0.32427 -0.37997 0.11497 0.30536 -0.11464 0.23675 0.70587 0.27002 0.32918 -0.018109 0.044733 -0.15556 0.11748 -0.53641 -0.38582 -0.24795 -0.15883 -0.096722 -0.19411 0.045405 -0.30511 0.16796 0.011195 -0.19225 -0.22792 0.26761 0.12367 -0.33561 -0.28845 -0.02142 0.27137 0.10714 0.25541 -0.030333 -0.11804 0.43345 -0.040865 -0.25995 0.54666 -0.45275 0.15219 -0.080262 -0.3522 0.39178 0.27536 0.50264 0.021988 -0.35615 0.60175 -0.26301 0.094634 0.31786 0.17425 -0.23898 -0.11341 -0.16191 -0.16558 -0.32855 0.61688 -0.089916 0.26664 0.24853 0.50585 0.054906 0.21616 -0.13991 0.086212 0.30673 -0.58163 -0.036387 0.35857 -0.21961 -0.0015134 0.074469 0.017462 0.40459 0.26031 0.10484 0.059523 0.29451 -0.29229 0.31413 0.05338 0.35276 -0.11206 0.16416 -0.25355 0.39843 0.17884 0.2416 -0.33288 0.31183 0.22247 -0.2452 -0.086355 0.12491 -0.093322 -0.14939 0.37669
psychiatry 0.18152 0.15665 0.096669 0.10692 0.22097 0.4431 0.20562 0.13956 0.45886 -0.076785 0.11731 -0.51438 0.4055 -0.046218 0.12914 0.15405 -0.10563 -0.43678 0.010703 0.43507 -0.18276 0.49799 0.083032 -0.09947 0.056087 -0.12061 -0.20073 -0.057984 -0.26328 -0.42182 -0.94106 -0.29259 -0.096166 0.2138 0.064387 -0.32148 0.011802 -0.25008 -0.049534 0.51975 -0.91397 0.53115 -0.09442 0.001063 0.22562 0.38966 -0.14619 -0.079933 -0.30786 0.30607 1.0587 -0.30503 -0.42812 -0.92345 -0.59917 -0.1091 0.43485 0.37263 -0.018408 0.43461 0.41717 -0.43679 0.41904 0.90564 0.29573 0.48139 -0.14329 0.28133 0.097964 -0.066998 0.48875 0.19459 0.50437 -0.33047 0.051742 -0.50456 0.23484 0.35312 -0.43114 0.47877 -0.17964 -0.11033 0.58074 0.22221 -0.37345 -0.19894 -0.36913 0.25101 -0.26722 -0.23401 0.6774 -0.28275 0.10635 0.38779 0.16125 -0.22337 -0.51614 0.065301 -0.12241 0.76243
asylum -0.32958 -0.69609 -0.67178 -0.35724 0.1076 0.3304 0.46924 0.15184 0.49697 0.53901 -0.26273 -0.19635 -0.072186 0.14584 -0.26386 0.47226 0.052392 0.13568 -0.29036 -0.044927 0.24831 0.67777 0.42866 0.37073 0.20477 -0.038663 -0.30666 0.29249 0.36443 -0.23993 -0.47482 0.36785 -0.0087053 0.072019 -0.10164 -0.20855 0.1941 0.20761 0.25285 -0.046517 -0.02125 0.60965 -0.083364 0.90982 0.061213 0.023267 0.08631 -0.24284 0.08396 0.64534 0.0079089 -0.17195 -0.02463 0.085194 -0.060775 -0.23866 0.69136 0.057977 0.36774 0.28076 0.51814 0.020442 -0.10553 0.2639 0.25581 0.041664 0.12731 -0.035745 0.62595 0.038138 0.54426 0.032752 -0.047168 0.063745 -0.33136 -0.13746 0.22613 0.87798 0.064113 0.43383 0.33689 -0.83305 0.48734 0.38244 0.64398 0.073126 0.25551 -0.12772 0.32598 -0.012736 0.11 -0.44899 0.14207 0.29967 0.32017 0.27619 -0.62697 -0.26253 -0.26775 0.47517
manslaughter 0.23675 -0.024499 -0.51473 0.28618 -0.10469 0.30278 -0.014285 0.72845 0.56128 0.43903 -3.5552E-4 -0.31084 0.16416 0.24058 -0.2665 0.21174 0.76352 -0.38878 0.11707 -0.0018752 0.13623 0.84129 0.28748 0.46774 0.37679 -0.16478 -0.41373 0.06435 0.21756 -0.8302 0.071704 -0.534 0.10305 0.019749 0.24496 -0.063557 0.13037 -0.061696 0.095715 0.67251 -0.48036 0.61141 0.20257 -0.11473 0.33735 0.026725 1.0931 -0.56206 0.059341 0.74945 0.49857 0.32869 -0.21329 -0.1599 0.088184 -0.71125 0.37594 0.17308 -0.056537 -0.41599 0.0090983 -0.43351 -0.40329 0.49915 -0.061218 -0.61331 -0.24476 0.39642 0.0099593 -0.11603 -0.023583 0.062824 0.1028 -0.26005 0.12164 0.050697 0.17516 0.19803 -0.20859 0.29623 -0.48579 -0.45072 -0.017459 0.072123 0.3425 0.10984 0.0070304 0.223 0.13115 -0.4018 0.48289 -0.93385 0.15454 0.50561 0.069527 0.11354 -0.39645 -0.07796 -0.11181 0.39779
music 0.15753 -0.18099 -0.3064 0.23086 -0.041242 0.37095 0.34836 0.86485 0.19691 0.85949 0.16447 -0.36521 0.06572 -0.42248 0.41384 -0.081599 0.2342 -0.47861 -0.25004 -0.3187 0.18458 0.094316 -0.28519 -0.59426 -0.63187 0.31226 -0.37205 0.35932 0.10751 0.67554 -0.3642 -0.18376 -0.36113 0.64711 0.31809 -0.19407 -0.2066 -0.20952 -0.17658 -0.04423 -0.50737 0.40469 -1.1166 0.63727 0.40742 -0.0077777 -0.091353 -0.022707 -0.49992 0.11799 0.65771 -0.43773 0.24638 0.11876 -0.42032 -0.0027475 0.33582 0.10307 -0.14943 0.07597 -0.29394 0.058736 -0.16992 0.75581 0.22583 -0.12562 0.60018 0.020206 -0.73083 -0.20778 0.36247 0.65823 -0.02982 0.26503 0.37618 0.28537 0.14303 -0.39065 -0.16269 -0.29312 0.31092 -0.6609 0.049247 0.54515 -0.017596 -0.28701 0.077502 0.20661 0.1613 -0.15446 -0.35072 -0.47257 0.1444 -0.11783 0.038797 -0.17181 0.29908 0.075094 0.19879 0.14639
record 0.48254 0.012245 -0.6418 0.14773 -0.12374 0.24048 -0.28071 0.13087 -0.065594 0.50208 0.17086 0.19199 0.046336 -0.22107 -0.19455 -0.3039 -0.23064 -0.26487 0.061348 0.041321 0.15972 -0.037041 0.70775 -0.42896 -0.25969 0.12658 -5.833E-4 0.3422 -0.026577 -0.45051 0.57105 -0.6642 -0.30524 0.42671 0.18706 -0.42745 0.34052 -0.28564 0.35644 0.32298 -0.50463 0.57914 -0.027104 0.31904 0.21292 0.58944 -0.090648 -0.42555 -0.35948 0.50415 -0.26029 -0.22089 -0.17846 0.41113 -0.21579 0.10293 -0.34253 -0.53197 0.25905 0.36575 0.02619 -0.60789 -0.011735 0.21639 0.1189 0.048751 -0.4164 -0.55831 -0.025523 -0.292 0.14764 0.38361 -0.66276 0.045508 0.23871 0.27872 0.085988 0.16768 0.27739 -0.62468 0.72387 -0.64861 0.4812 -0.34711 0.1913 0.12632 0.53272 -0.24672 -0.022293 0.22851 0.35976 -0.70312 0.74101 -0.073231 -0.35699 -0.1695 -0.19396 -0.23668 -0.47246 0.17857
energy 0.15841 -0.80921 -0.085853 -0.25093 -0.0076521 -0.054626 0.037106 0.047593 0.18217 0.67768 0.17064 -0.32134 -0.11438 0.22354 0.6747 0.10341 -0.19082 -0.027033 0.6777 0.031707 0.69554 -0.02048 -0.13692 0.30977 -0.30183 0.17083 0.72454 -0.78595 0.2729 -0.47083 -0.89975 0.035012 -0.17289 0.10282 -0.1451 -0.51121 -0.37043 0.11824 0.03385 0.036101 -0.00634 0.6108 -0.17567 -0.33056 0.31474 -0.17783 -0.079476 -0.60975 -0.26723 0.24832 0.23719 -0.31498 -0.0665 0.2241 -0.22533 -0.11439 -0.45754 -0.19822 0.1162 0.35095 -0.9811 -0.47813 0.71528 0.47219 0.19837 0.24685 0.54638 0.3148 -0.093215 -0.57102 0.14159 0.019775 -0.10823 0.14142 1.0197 -0.20252 -0.46374 -0.036205 -0.44207 -0.015305 0.055447 -0.50246 0.12678 -0.042423 0.23346 -0.0060819 0.12543 0.19699 0.50162 0.32188 0.22995 0.30466 0.16506 0.066698 -0.37815 -0.30489 0.14497 0.09695 -0.019935 0.15471
announcement -0.2281 -0.68929 -0.45838 -0.45998 0.27537 -0.071636 0.19685 -0.040783 0.52042 0.39291 0.11411 -0.099016 0.031581 0.32385 0.40958 -0.17912 -0.16391 -0.0020317 0.028301 -0.087712 0.064842 0.25596 -0.065483 0.29917 -0.11801 0.048281 -0.0095601 -0.24726 -0.23597 -0.47554 0.26469 -0.075903 -0.15949 0.14934 0.58394 -0.15124 -0.46939 0.21494 0.33803 0.17759 -0.71194 0.16175 0.44952 -0.0039685 0.1566 -0.32858 0.027311 0.10306 0.42114 0.97916 8.6904E-4 0.10033 -0.23077 0.085137 -0.29566 -0.28223 -0.49056 -0.29587 -0.2507 -0.011711 0.16558 0.12181 -0.054035 0.36331 0.045789 -0.15361 -0.1069 -0.32582 0.2494 -0.82157 -0.075441 0.83703 -0.060303 -0.16152 0.32542 0.75168 0.15426 0.11002 -0.33077 0.45265 0.39669 -0.27918 0.14844 0.17916 0.40783 -0.41762 -0.19778 -0.19115 -0.24821 0.30958 0.17087 0.24752 0.23637 0.050923 0.34621 -0.11143 0.15482 0.18429 -0.19934 -0.25514
mile -0.14589 0.015844 -0.63332 -0.23021 -0.19087 -0.098284 0.15696 0.52369 -0.10449 -0.13545 0.69697 -0.13876 -0.39844 0.22038 -0.18168 0.33809 -0.064899 -0.2734 0.15944 0.45209 0.65921 0.43474 0.052924 -0.0093097 0.10913 0.34539 0.54841 0.24449 -0.56068 0.1626 0.08275 0.61296 0.43008 0.95621 -0.19706 0.063356 -0.16873 -0.052733 -0.12326 0.40267 -0.56436 0.32548 0.28408 -0.3307 -0.26809 0.060899 0.54434 0.28596 -0.37683 0.40045 0.060712 -0.15799 0.24902 0.017184 0.013919 -0.29913 -0.438 0.22274 -0.20005 -0.50691 -0.079825 -0.56563 0.76426 0.053815 -0.15786 -0.0035805 0.30929 0.39006 0.056118 -0.75885 0.76276 0.019732 -0.31026 0.085409 0.44703 0.28026 0.22395 0.39422 0.025517 0.089144 0.16213 0.21068 0.50002 0.50085 0.011401 0.29733 0.48044 0.30827 -0.2387 -0.42505 0.11202 -0.50025 -0.068998 -0.20737 -1.0343 0.017884 0.25953 0.96002 -0.77589 0.085637
airport 0.41209 -0.34949 -0.86777 -0.26229 -0.31505 0.087477 0.68351 -0.066738 -0.23399 0.69312 0.4864 0.051502 0.27444 0.013306 0.044379 0.58326 -0.070044 -0.25108 0.075457 0.18351 0.40036 0.12583 -0.067464 0.10399 0.34298 -0.19128 -0.397 -0.26297 -0.064484 0.39966 -0.83694 0.77914 0.028831 0.56477 0.18658 0.25038 0.005215 0.0097813 0.33042 0.21442 -0.015107 0.65108 0.36522 0.88743 0.38409 -0.13969 0.54035 -0.78512 -0.213 0.12874 0.38609 -0.52534 0.23255 -0.075505 -0.15853 -0.63145 -0.063995 0.30212 0.11216 0.29618 0.22105 0.19316 -0.03804 0.23488 -0.25967 0.043658 -0.65764 0.53759 -0.19174 -0.3707 0.42971 0.28645 0.099594 0.21066 -0.069002 0.2057 -0.44768 -0.35092 0.19287 0.83227 0.085882 0.14906 0.54974 0.24381 0.17798 0.53542 0.87894 0.24179 -0.30344 0.11993 -0.22689 -0.52793 0.5092 0.083286 -0.029157 -0.12099 -0.20069 0.55752 -0.68621 0.56038
population -0.32889 -0.47574 0.039286 0.22936 -0.20438 0.10405 -0.035347 -0.10935 0.11262 0.22752 -0.20909 -0.46824 -0.15789 -0.43881 -0.76284 -0.026338 -0.26751 -0.36053 -0.0036961 -0.58968 0.27104 0.18117 0.65674 0.36323 0.58352 -0.18141 -0.052441 -0.20524 -0.74491 -0.36707 -0.42481 0.59108 0.47422 0.73002 0.15236 -0.40288 -0.38761 0.20287 -0.55293 -0.35898 -0.33435 0.93169 0.10688 0.33645 -0.085035 0.069697 0.048583 -0.42272 0.04205 0.027027 -0.16777 -0.3455 -0.041739 0.076662 0.058728 0.21183 -0.21344 0.70237 0.23389 -0.2535 -0.0371 -0.35553 0.46857 0.56432 0.25727 -0.033671 0.51151 0.51628 -0.040652 -0.28148 0.50785 0.030325 -0.12916 0.099875 0.65034 -0.070481 -0.10278 0.67658 -0.26906 -0.033397 0.15547 -0.35022 0.066009 0.14235 0.44433 -0.25696 0.502 -0.24134 0.47272 -0.42399 0.14979 -0.18033 -0.082129 -0.093358 0.010691 -0.066315 -0.29311 -0.13733 -0.44222 0.51381
planning 0.037177 -0.21011 -0.021312 -0.40046 0.17595 0.0054876 0.56816 0.17833 0.38781 0.22058 0.36129 -0.35538 0.1213 0.16948 0.063999 0.36773 -0.26226 -0.068647 -0.084182 0.19437 0.20072 0.52122 0.12708 0.32469 0.15868 -0.033871 -0.059744 -0.15818 0.3692 -0.13194 -0.10104 -0.52832 -0.079402 0.027228 -0.074443 0.30528 0.0085074 0.096208 -0.19532 0.16443 -0.13979 0.18083 0.015268 0.3509 0.50917 0.39602 0.29561 0.044344 -0.083794 0.60048 0.46934 -0.047229 0.18013 0.2056 -0.30102 -0.038541 -0.2464 0.31067 -0.42056 0.37898 -0.18705 0.054654 0.19356 0.029547 0.042985 0.20842 -0.13254 0.0096993 -0.33704 -0.38973 0.32605 0.50569 -0.18343 -0.18862 0.11066 0.26678 0.092259 -0.0038537 -0.23708 0.19333 0.2891 -0.35954 0.18663 0.12731 0.17054 -0.12382 0.099115 -0.22006 0.3295 -0.04564 0.32637 0.020123 0.27742 -0.1833 0.57036 0.41464 -0.25632 0.10912 -0.21082 0.17615
canyon -0.30132 0.025338 -0.66691 -0.16545 -0.33505 0.073458 -0.1641 0.21767 0.3211 0.2505 0.25224 0.074256 -0.15333 0.26493 -0.13969 0.67475 0.10144 -0.52742 0.49408 0.056194 0.47553 0.38862 -0.25305 0.085127 0.14087 0.037933 -0.19877 0.38124 -0.64178 0.10604 0.047673 0.052103 0.18218 1.0979 -0.028053 0.1223 -0.42718 -0.34049 -0.14771 0.13668 -0.13891 0.38785 0.11465 0.15967 0.047903 -0.16517 0.050613 0.026275 -0.12238 -0.027687 0.089296 -0.47265 0.05457 0.11102 0.12441 -0.13921 0.18159 0.14475 0.37653 0.12653 -0.19959 -0.6363 0.40553 -0.14469 0.26727 -0.17771 0.4699 0.042331 -0.11468 -0.84477 0.72522 -0.11755 -0.54282 0.15379 0.088189 0.16471 -0.46836 -0.15552 0.016786 -0.015472 -9.3362E-4 0.15371 0.20762 -0.0034216 -0.081769 0.14729 0.41341 0.16175 0.099037 0.29132 0.16005 -0.2304 0.079975 0.010521 -0.35215 -0.1932 -0.37747 0.20771 0.058831 0.61879
delay -0.049198 -0.53912 -0.28539 -0.24575 -0.0091817 0.18177 0.45036 0.40388 0.20459 0.52354 0.25388 -0.060698 0.020658 -0.042701 0.17961 0.28107 -0.15249 -0.55645 0.029269 0.49315 0.47965 0.012547 -0.029712 0.56912 0.27982 0.21041 -0.03134 0.19886 0.80319 -0.33775 -0.041505 -0.57487 0.27823 0.59403 0.088522 0.022935 -0.58212 0.21758 0.40931 -0.31809 -0.46301 0.35823 0.28435 0.29879 0.12268 -0.09048 0.17629 -0.14292 -0.077163 0.55839 0.47544 -0.1862 0.047187 -0.14947 -0.40967 0.12536 0.26479 -0.24103 0.045493 0.021208 0.36544 0.7012 0.26293 0.19317 -0.066215 0.25671 -0.23432 -0.18457 0.015294 -0.55451 -0.22281 0.48241 -0.1373 0.25611 -0.11926 0.27452 0.46265 0.50328 0.27219 0.58897 0.35539 0.23129 0.29837 -0.10538 0.69275 -0.44784 0.048954 0.46519 -0.028621 -0.0096339 0.39484 0.081309 0.11203 0.47676 0.04267 -0.26055 -0.036332 0.31284 -0.023705 0.76803
size -0.22723 -0.31758 -0.21631 0.2947 -0.40787 0.54801 -0.28594 0.21928 0.07418 0.18887 -0.14689 0.24767 -0.40529 -0.4282 0.012307 0.11222 0.025439 -0.26414 0.19625 0.23203 0.19989 0.38862 -0.058457 -0.22809 0.18262 -0.052399 -0.14008 0.24681 -0.76063 0.099602 -0.19772 -0.052059 0.30331 0.50427 -0.064004 -0.042295 0.012572 0.0010836 -0.39762 0.36273 -0.73537 0.12039 0.41221 -0.14574 0.017583 0.0098542 0.06473 -0.093637 0.61813 0.5598 0.19611 0.18639 0.3329 0.3425 0.22514 0.038194 -0.44566 0.11581 -0.20885 -0.045994 0.17044 -0.28339 0.21929 7.339E-5 0.25956 0.19858 0.1183 0.26249 -0.24692 -0.4694 0.3291 0.40959 -0.18619 0.31541 0.82696 0.37322 -0.099779 -0.044701 -0.18316 0.38926 -0.17045 -0.22395 0.21082 0.035767 0.79905 -0.35327 0.12337 -0.45954 0.40344 0.27336 0.34222 0.34325 -0.139 -0.48834 -0.097236 -0.24011 0.18731 0.20688 -0.35915 0.18912
peace 0.06321 -0.997 0.2845 -0.34852 0.28733 -0.2417 0.344 -0.040305 0.3977 1.001 0.03369 -0.70162 0.06992 0.3447 0.90966 0.5241 -0.41378 -0.52178 -0.14218 -0.37368 0.075212 0.33517 0.47081 0.28307 -0.54615 0.09416 -0.60405 0.31633 -0.65588 -0.23147 -0.68375 -0.41603 -0.041253 0.17612 0.28064 -0.75283 0.10776 0.40265 -0.10252 0.0088539 0.043566 0.52697 -0.40284 -0.1285 -0.090103 0.51602 0.27874 -0.53706 -0.15769 0.21326 0.21369 -0.31674 0.28622 0.67101 -0.12139 -0.080545 0.64079 0.31223 -0.14064 -0.53102 0.044445 -0.18748 0.57104 0.63364 -0.79856 -0.019587 0.24007 -0.20375 0.93899 -0.27413 0.3724 0.45506 -0.23628 0.22101 -0.33921 0.8595 -0.42604 0.33512 0.75213 0.24398 -0.051859 -0.2486 -0.17901 0.32705 0.39704 -0.043036 -0.41555 -0.45658 0.54643 0.64997 0.2765 -0.45925 -0.011605 0.0070155 -0.69334 -0.036868 -0.80594 0.036841 0.25873 0.31256
science 0.0018271 9.9855E-4 0.30688 -0.40085 -0.22828 0.60932 0.44624 0.32144 0.24981 0.7222 0.62603 -0.21228 0.36802 0.1791 0.31777 0.37889 9.9076E-4 -0.57573 -0.24935 0.17667 -0.1548 -0.093646 -0.29073 0.58177 -0.18929 -0.24415 -0.24631 -0.10492 -0.19977 -0.76665 -0.48987 -0.51237 -0.4239 0.28519 -0.32651 -0.12519 0.012423 0.042411 -0.59928 0.2007 -0.63531 0.53878 -0.6614 -0.62704 0.48601 -0.19843 -0.41229 -0.13327 -0.18973 0.03555 0.61001 -0.55037 0.055404 -0.50084 -0.027822 -0.35537 -0.25949 0.24189 0.53624 0.27496 -0.19824 -0.22362 0.54749 0.28831 -0.02589 0.7363 0.30576 0.029925 -0.17094 -0.34377 0.30416 0.4479 -0.33872 -0.24333 0.47937 -0.84068 0.048264 0.38434 0.087687 -0.0091475 0.036048 -0.59692 0.11568 0.22528 0.12527 -0.17167 0.67974 -0.23568 -0.17996 -0.17902 0.16919 0.032542 -0.23959 -0.20975 -0.073506 -0.04787 0.25478 0.25249 0.10524 0.23422
dawn 0.24946 -0.04119 -0.4821 -0.21144 0.359 -0.081933 -0.083322 -0.1401 0.70899 0.32459 0.58775 -0.18317 0.076011 0.28868 -0.034861 0.33482 -0.1059 0.37937 0.21245 -0.4334 0.74248 0.4964 -0.54776 0.55094 -0.014887 -0.2273 -0.75236 0.21812 -0.33002 -0.074765 -0.031826 0.21711 0.83853 0.67215 0.37411 -0.34902 0.12112 0.25185 0.27945 0.11322 -0.1465 0.15824 -0.43507 0.27621 0.35662 0.24555 0.3307 -0.3993 -0.14603 0.35047 0.28153 -0.20915 0.20276 0.43862 -0.022221 0.1197 0.086588 -0.030628 -0.48386 -0.32131 0.0075096 0.27726 0.50456 0.029251 -0.077947 -0.41893 0.23374 0.1353 0.15736 -0.41401 0.42083 0.30494 -0.36262 0.032069 0.15411 0.55261 0.1153 -0.17981 0.16235 0.23686 0.54558 0.15658 0.069533 0.28926 0.072794 0.26398 0.34607 -0.24163 0.11947 -0.1012 0.12654 -0.18638 0.10792 0.14877 -0.70159 0.26653 -0.17352 -0.22589 -0.28604 0.42915
brother 0.12646 -0.3242 0.057785 -0.4424 -0.1576 0.12903 0.31043 0.47324 0.56862 0.11667 -0.13657 -0.89316 0.020898 -0.46034 -0.41014 0.17653 0.67964 -0.23156 0.023611 0.46115 0.1024 0.38388 0.091714 0.54528 -0.10028 0.0368 -0.41461 0.09657 -0.42761 0.56831 -0.02194 -0.081503 0.36399 0.11252 -0.21367 -0.19202 -0.07851 0.43427 -0.11086 0.12927 -0.83979 0.1976 -0.054264 0.43654 -0.63784 -0.20189 0.44157 -0.81945 0.022609 0.20542 0.19674 0.037362 -0.16853 0.061513 -0.023908 0.0060642 0.11229 -0.11079 -0.88685 0.24758 -0.022945 -0.13546 0.13118 0.35908 -0.49616 -0.066953 -0.43101 -0.17504 -0.65993 -0.10735 0.28981 0.4635 0.23261 -0.17756 0.20994 0.0035698 0.11697 -0.40503 -0.45097 -0.023575 0.25823 -0.57202 -0.021098 0.59687 0.31209 0.1301 -0.29138 0.16279 0.41513 0.18015 0.20268 -0.82437 0.24256 0.23994 -0.058656 0.11716 -0.70608 0.23403 0.23096 0.024615
wine -0.3116 -0.75205 -0.80679 0.018526 0.3129 0.053993 0.087451 0.93768 0.21426 0.10622 0.51045 -0.074074 0.29199 -0.14172 0.034705 -0.03964 0.72994 -0.52405 -0.17319 -5.3324E-4 0.65141 0.51561 7.3392E-4 -0.0042107 0.15533 -0.14609 -0.2457 0.075081 -0.21192 0.33654 -0.22061 0.23823 0.095686 0.43207 -0.072471 -0.26867 -0.75612 -0.68566 -0.11144 -0.46647 -0.41427 -0.038119 0.01907 0.38547 0.3125 -0.33041 0.22269 0.0085335 -0.24171 0.07036 0.0012356 -0.57508 -0.13065 -0.42326 0.33918 -0.18666 0.19312 -0.089172 0.17004 0.21452 -0.69269 -0.69908 -0.22959 0.31024 0.20197 -0.54676 0.44373 0.29687 0.2607 -0.25643 0.64711 -0.0076161 -0.34789 -0.4087 0.33588 -0.015156 -0.1213 -0.23706 0.065603 0.0036302 -0.038247 -0.18491 0.53465 -0.15376 0.49949 -0.19162 0.0070847 -0.39038 0.83674 0.8862 -0.22994 -0.31551 0.1709 0.18115 -0.37471 -0.43685 0.67943 -0.64182 -0.46779 0.11344
object -0.062081 -0.21426 -0.53698 -0.54309 0.027921 0.85229 0.19259 0.18228 -0.052293 0.29774 0.1258 -0.45162 -0.35596 0.22424 -0.083778 0.81411 -0.070142 -0.086561 0.19969 0.073821 0.12629 0.78973 0.40899 0.27786 -0.29203 -0.054647 -0.24822 0.73556 -0.041676 -0.0032076 -0.21681 -0.3916 0.0682 0.37256 -0.2688 -0.049251 -0.34114 0.55683 0.0071507 -0.13689 -0.27491 0.22358 0.17286 0.24825 0.13531 0.13225 0.12963 -0.19783 -0.10473 -0.16981 0.35223 0.15396 0.1596 -0.38564 -0.29041 0.33982 -0.37352 -0.42233 0.33156 -0.13602 0.087881 -0.13867 0.045108 0.32725 -0.0042912 -0.019702 0.43468 -0.63051 -0.25256 -0.11041 0.37898 0.23703 -0.26677 0.10874 0.36286 -0.12816 -0.10109 3.7412E-4 0.10392 -0.08088 0.033102 -0.13409 0.10356 -0.11657 0.56618 0.11756 0.04393 -0.54788 -0.19786 0.34468 0.38066 0.13133 0.0087999 -0.30079 0.19027 0.35462 -0.19153 0.52453 -0.21441 0.047107
attitude 0.42118 -0.40104 0.16599 0.22153 -0.21905 0.42112 0.62593 0.35225 0.16568 0.50201 0.51139 -0.23155 -0.082576 0.007146 0.18936 0.43274 -0.2921 -0.42962 0.26771 0.24626 -0.022154 0.19958 0.036207 -0.20054 0.22252 0.18095 0.098577 0.19236 -0.44706 -0.39675 -0.50286 0.15999 -0.073194 -0.20156 -0.24885 -0.84098 -0.31072 0.17181 -0.389 -0.42181 -0.51249 0.42579 -0.30552 0.20492 0.20361 -0.16088 0.32992 -0.60255 0.37679 0.62823 0.67005 0.20858 -0.32405 -0.39001 0.16079 -0.085738 -0.6385 0.15225 -0.32621 0.078789 0.37736 -0.044682 -0.051859 0.46192 0.10735 0.32541 0.31071 -0.51927 -0.30291 -0.10703 0.34686 -0.19283 -0.58366 0.49794 -0.13198 -0.067552 -0.092697 -0.12209 -0.13208 0.32813 -0.067942 -0.64981 -0.30022 0.4852 0.19528 0.0091298 -0.10372 -0.48389 -0.39415 -0.22849 0.33609 0.36916 -0.080314 -0.28186 -0.21424 -0.061787 -0.47619 -0.097261 -0.40129 0.26809
treatment -0.38401 -0.83662 -0.14431 -0.050253 0.2807 -0.28707 0.12767 -3.0589E-4 0.19843 -0.20843 0.033515 -0.25128 0.58042 0.026419 -0.14731 -0.098562 -0.26629 -0.34106 -0.078721 0.34987 -0.02267 0.58158 0.32617 0.35522 0.51512 0.33527 -0.27397 -0.33569 0.052895 -0.26171 -0.6296 -0.43441 0.024422 0.081846 0.32737 -0.081509 -0.43545 -0.52622 0.029505 0.025787 -0.38259 0.50637 -0.0081719 -0.20877 -0.15123 0.38981 -0.011221 -0.2808 0.32828 0.99955 0.24333 -0.33742 0.043164 -0.64154 -0.27326 0.0599 0.27843 0.55702 0.5023 0.043829 0.063255 -0.30391 -0.20577 0.53471 0.44616 0.40398 0.27374 0.0089483 0.3283 -0.17644 0.43786 0.12593 -0.0063349 0.22643 -0.006711 -0.41846 0.36195 0.17645 -0.23014 0.37956 -0.30332 -0.069026 0.82885 0.58514 -0.027283 0.084446 -0.3486 0.18238 0.33905 -0.25781 0.31669 0.093508 0.42639 0.65904 -0.10644 -0.33474 -0.20342 0.34102 -0.17226 0.58104
flight 0.49887 0.037337 -0.45029 0.073449 -0.40309 0.44752 0.66091 0.069976 -0.028257 0.38489 -0.21845 -0.23674 0.53098 -0.076727 -0.038876 0.50244 0.56476 -0.45205 0.39813 0.39033 -0.03935 0.26788 -0.36421 0.64553 0.38407 -0.28294 -0.30996 -0.11128 0.1464 -0.092335 -0.4741 0.44572 -0.080849 0.69533 0.011876 0.086854 -0.13153 -0.049317 -0.26538 0.16396 -0.45997 0.52512 0.64935 0.60365 0.56472 -0.6957 0.53799 -0.33548 -0.083636 0.46802 0.23527 -0.92146 0.040345 -0.18525 0.12209 -0.073141 0.085916 0.32727 0.045213 0.17863 0.18546 0.092163 0.087938 0.56308 -0.18855 0.33579 -0.52419 0.61026 0.070126 -0.30761 0.0018848 0.61442 0.22278 0.40292 -0.28983 0.59962 -0.054762 -0.15162 -0.0090532 0.42536 0.63236 0.052264 0.59705 0.19321 0.04152 0.31196 0.67213 -0.087234 -0.59483 -0.16771 0.14712 0.23978 0.24412 -0.24691 -0.23665 -0.58436 0.014249 0.25306 -0.76896 0.62388
forest -0.58808 -0.025478 -0.17533 -0.26172 0.11823 -0.21492 -0.12934 -0.10881 0.45449 0.42079 0.26011 -0.1162 -0.4012 -0.38635 0.17758 0.1043 0.063199 -0.36737 0.58192 -0.069309 0.86076 0.37434 0.19633 0.06776 0.18907 -0.067819 -0.048498 -0.12826 -0.59115 -0.22919 -0.32861 0.29265 0.38232 1.0302 0.047691 -0.2931 0.29221 -0.16934 -0.24081 0.22487 -0.073353 0.6537 0.17318 0.26507 0.080011 0.21141 0.38445 0.082513 0.24865 -0.19108 0.22061 -0.80854 -0.056171 0.34367 -0.26836 -0.27257 0.12177 0.13739 0.26011 0.079697 -0.10184 -0.70333 0.49577 0.025736 0.24208 -0.10891 0.79019 -7.3915E-4 -0.018196 -0.60002 0.38205 -0.45358 -0.51431 0.34705 0.7343 0.099064 -0.067649 0.19354 -0.19576 -0.56957 0.1086 -0.13191 0.065251 -0.036437 0.24254 0.14226 0.49896 0.096701 0.27651 0.34418 0.2072 -0.45806 -0.33692 -0.20099 -0.23722 -3.2251E-4 -0.54232 0.30081 -0.18684 -0.24652
abuse -0.013781 0.060314 -0.28776 -0.1775 -0.36798 0.5287 0.66719 0.76797 0.87796 0.43085 -0.39488 -0.3395 0.81939 -0.09741 -0.16349 0.28015 -0.1405 -0.36001 -0.24271 0.05372 0.45255 0.6144 0.72361 0.17722 0.71952 -0.018273 -0.36978 -0.06472 -0.23891 -0.28154 -0.15398 -0.21834 -0.20036 -0.14988 0.094605 -0.49277 0.19077 -0.45464 -0.037186 0.2647 -0.063039 1.0163 -0.18839 0.099233 0.26616 -0.244 0.48097 -0.36827 0.16113 0.71099 0.21789 -0.1841 -0.6252 -0.32005 -0.31992 -0.50947 -0.03335 0.15396 0.3047 -0.52332 0.77067 -0.14258 -0.040133 0.40518 0.3366 0.16901 0.20683 0.22573 -0.29996 -0.14051 0.29085 0.10946 0.34576 0.39897 0.026751 -0.34613 0.0053542 0.10738 0.3999 -0.037279 -0.49071 -0.39127 0.04911 -0.03147 0.26905 0.023421 -0.23798 0.068747 0.25701 -0.49613 0.38533 -0.33364 -0.069567 0.47372 0.54618 -0.15159 -0.21079 -0.40316 0.3956 0.6617
sea -0.12334 0.039715 -0.56364 0.24756 0.12034 0.06482 0.066604 0.55385 0.091488 0.46147 0.50755 -0.073942 -0.052343 -0.08588 0.45064 0.37653 0.45898 -0.046819 1.1529 -0.03516 0.087545 0.5113 0.182 0.15839 -0.034078 -0.1324 -0.4607 -0.18736 -0.5226 -0.69772 -0.5664 0.71399 0.90477 1.3688 0.014588 -0.025098 -0.12633 -0.1987 -0.093574 -0.069946 -0.38803 0.24553 0.018473 -0.40802 0.35979 0.048299 0.63722 -0.051171 -0.42146 -0.016249 0.099312 -0.58472 0.036796 0.058344 -0.30556 -0.24607 0.57535 0.48901 0.52064 -0.49414 0.015867 -0.55198 0.54053 0.0085304 0.05205 -0.26646 0.28372 -0.16761 0.56286 -0.43032 0.8625 -0.27462 -0.75042 -0.021388 0.30766 0.085965 -0.75087 0.18098 0.587 -0.030937 0.086285 -0.096167 0.040274 -0.23326 0.12328 0.13197 0.27305 -0.35838 -0.034129 0.20537 0.51989 -0.07113 -0.35666 -0.011709 0.18201 -0.22444 -0.19307 0.067346 -0.39634 0.04662
dollar -0.4085 0.32299 -0.52864 -0.012924 0.041492 -0.13926 -1.0669 0.39115 -0.18953 0.18006 0.048781 -0.24678 -0.079164 -0.14456 0.046095 0.28642 -0.50466 0.18423 -0.43888 -0.484 0.53277 0.33531 -5.6422E-4 -0.45548 -0.54329 -0.42653 -0.040551 -0.39208 0.17842 -1.0636 -0.43594 -0.19259 0.075964 1.0542 -0.16748 0.0069416 -0.32778 0.1442 -0.14445 0.16018 -0.78734 0.19718 -0.12742 0.33142 0.39797 -0.23937 0.62269 -0.69595 -0.73304 0.63743 0.051947 -0.13184 -0.31764 0.64853 0.55682 -0.043772 -0.74882 0.034384 0.23371 0.28409 -0.27127 0.14485 -0.18442 0.26884 -0.019146 -0.67844 0.16695 -0.027775 0.36567 -0.31916 0.21611 0.64201 -0.5468 -0.11891 0.58178 -0.11337 0.21922 -0.18699 -0.1698 -0.023398 0.11455 -0.66352 0.35244 0.093584 -0.14704 -0.075534 -0.29609 -0.3209 0.23366 -0.10862 0.8037 0.19948 0.62477 0.20665 -0.24145 -0.70844 0.57032 -0.4157 -0.0096112 0.56686
example 0.12692 -0.062588 -0.51923 0.10606 -0.059605 0.35292 0.14021 0.31891 0.25193 0.14133 -0.038484 -0.079208 0.22134 0.17093 -0.38937 0.049653 -0.20469 0.19147 -0.3316 0.0534 0.16933 0.40054 -0.0081702 -0.13246 -0.017254 -0.33694 0.16872 0.12534 -0.15277 0.12526 -0.32662 0.46031 -0.35689 0.21871 0.3374 -0.23 -0.0246 0.053426 0.21395 -0.16622 -0.43339 0.42806 -0.044945 -0.13604 0.12118 -0.12085 0.21773 0.10043 0.27359 0.27907 0.15718 -0.089311 0.35474 -0.30692 0.088582 0.26796 -0.17906 0.014887 -0.055839 0.45098 0.01162 -0.057626 0.22998 0.21608 0.11753 0.5051 0.4547 -0.27316 0.30356 -0.021062 -0.08261 0.069384 -0.08779 0.0021231 0.15179 -0.045945 -0.019938 0.15363 0.053854 -0.33457 -0.31309 -0.10437 0.41733 0.74808 0.3528 -0.24455 0.12621 -0.64817 0.83184 0.56673 0.41956 -0.41905 0.31028 -0.079205 0.15496 -0.26486 -0.40223 0.10916 -0.26171 0.11637
journal -0.059901 -0.49455 -0.045131 0.16074 -0.61077 0.59143 0.13303 -0.059963 0.34446 0.5409 0.6828 -0.85378 0.23648 0.18029 -0.19806 -0.083047 -0.31801 -0.060253 0.089767 -0.38431 0.15072 0.32442 0.35629 -0.11113 -0.20883 -0.73028 -0.20561 -0.45335 -0.71743 -0.60945 -0.37536 0.35924 -0.24171 0.17171 0.17288 -0.38497 -0.032468 -0.042543 -0.0087144 0.76105 -0.87282 0.011865 -0.60326 0.034988 0.64669 0.28154 -0.041119 -0.15626 -0.71286 0.28045 0.20922 -0.32619 -0.56624 -0.50166 -0.16664 0.20497 0.30587 0.41367 0.21388 0.037085 0.080575 -0.60116 0.21007 0.47172 0.30711 0.9313 0.0082219 -0.18073 0.26268 0.5461 0.033605 0.75788 0.23482 -0.16764 0.18243 -0.5113 0.50917 0.073172 0.39353 -0.088297 0.049531 -0.63181 0.80445 0.46486 -0.37175 -0.48627 -0.01977 -0.34692 -0.11036 -0.30802 0.71288 -0.14348 -0.51257 0.60354 0.22265 -0.28099 0.24498 0.74448 -0.72157 0.11073
laundering 0.16054 -0.0053464 -0.24024 -0.28338 -0.2862 -0.029254 0.27765 0.36128 0.66198 0.18597 -0.26842 0.26571 0.13701 0.38493 0.15307 0.50924 0.50435 -0.23415 -0.21078 -0.2198 0.39406 0.71389 0.4296 0.32115 0.43972 0.04568 -0.41065 -0.24529 0.37567 -0.75425 -0.063973 -0.86542 0.045879 0.10073 -0.13911 -0.16334 0.51703 0.0013228 -0.11023 0.4265 0.084148 0.092651 0.16064 -0.073895 0.4135 -0.44598 0.85899 -0.31508 0.10788 0.46785 0.61707 -0.062663 -0.083421 0.46948 -0.22306 -0.3326 -0.018167 0.11788 -0.47584 -0.05932 0.40959 -0.050014 0.013539 0.34366 -0.0017744 -0.43498 0.11172 -0.070217 0.10126 -0.49469 0.27631 0.039073 -0.070132 -0.15365 0.20511 -0.33762 0.034387 -0.1114 -0.15383 -0.14854 -0.21123 -0.54279 0.46722 0.35143 0.53616 -0.019991 0.031431 0.19381 0.6778 -0.15553 0.58927 0.15653 0.3432 0.23712 0.47694 0.10164 -0.27481 0.26898 0.093529 0.23376
hotel -0.050447 -0.6079 -0.90345 -0.37182 -0.17457 0.43342 -0.098271 0.12556 0.50407 0.21534 0.21571 0.37873 0.21151 0.063356 -0.2027 0.21769 0.32763 -0.0017575 0.33722 4.2454E-4 0.56105 0.40347 0.13029 -0.21307 -0.089409 0.32587 -0.46549 0.020152 -0.20773 0.74595 -0.63753 0.33365 0.016958 0.42919 -0.028449 0.066797 0.085703 -0.40366 0.19368 -0.13755 -0.40803 0.27915 -0.49145 0.30885 0.64698 -0.45091 0.36054 9.0417E-4 0.096965 0.27499 0.18397 -0.19284 0.25987 -0.33473 -0.24356 -0.047121 -0.47516 0.11118 -0.6882 0.26083 0.12219 -0.24068 0.14129 0.59357 0.13772 -0.47233 -0.13376 0.13108 0.25692 -0.51732 0.63307 0.32084 0.65398 -0.2172 -0.11955 0.55684 -0.069219 -0.75855 -0.21128 0.051213 -0.17098 0.18709 0.5599 0.4364 -0.20437 0.11233 0.40784 -0.083432 0.34422 0.56715 -0.2886 0.16042 0.74252 0.27338 -0.22569 0.57559 -0.032318 -0.014417 -0.63185 0.17035
term -0.40821 -0.24367 -0.60785 -0.34214 0.26141 -0.25627 -0.26812 0.79633 0.50499 -0.16642 0.18657 -0.3319 -0.36281 0.091177 0.06181 0.38421 0.073073 -0.37125 -0.33558 -0.0057587 0.6426 -0.21713 0.49027 0.353 0.36795 0.52621 0.23197 0.042199 -0.40186 -0.7956 -0.70074 -0.14259 -0.071804 -0.23945 -0.051624 -0.5174 -0.085063 0.43969 -0.58659 0.16236 -0.52738 0.52082 0.45407 -0.17174 0.055245 0.88524 0.46304 0.13227 0.058172 0.15339 0.026433 0.26402 0.16425 -0.026686 -0.056706 0.49268 0.13259 0.25991 -0.35736 0.050287 -0.13923 0.27671 -0.36102 0.48756 -0.29995 0.4275 0.037188 0.28801 0.0068681 -0.33491 -0.48419 0.71703 -0.7703 -0.30655 -0.14788 -0.09744 0.58585 0.075895 0.21819 0.33373 -0.24072 0.043154 -0.17752 0.80219 -0.095354 -0.22505 0.27521 0.10678 0.34072 0.22274 0.77765 -0.26373 0.51655 -0.057396 0.27579 -0.23299 0.16777 0.4481 0.06314 0.47439
listing -0.37199 -0.048488 -0.66845 -0.14167 -0.068889 0.12821 -0.070505 0.38077 0.4629 0.2474 0.12216 -0.16538 -0.56924 0.142 0.034631 0.14484 0.081674 0.0059797 -0.10372 -0.3135 0.5169 0.3224 0.33526 -0.17583 0.070942 0.67067 -0.31688 0.038323 0.11688 -0.29791 -0.010381 -0.23688 -0.16463 0.11511 0.071274 -0.012077 -0.01924 -0.26945 -0.10466 0.15115 -0.20295 0.17293 0.50555 -0.079266 0.26822 0.20621 0.031961 -0.37589 0.0087749 0.21809 0.042021 0.07848 0.19759 0.083166 9.0585E-4 -0.10749 0.079717 0.11158 -0.15552 0.37082 -0.031787 -0.12253 0.0018255 0.67451 0.058548 0.67889 -0.13276 -0.54664 0.10547 -0.023398 0.4995 0.31782 0.22668 -0.35675 0.23449 -0.015672 -0.38045 -0.27195 0.22178 0.16787 0.079037 -0.53375 0.32134 0.50509 0.084756 -0.3176 0.22662 -0.064882 -0.18071 0.40218 -0.29112 0.14877 0.36571 -0.11922 0.62522 -0.21706 0.18755 0.49086 -0.68265 0.45566
chemistry 0.089969 -0.39315 0.20627 -0.18343 0.19668 0.15842 -0.1976 0.73563 0.2261 0.077661 0.43469 -0.50112 0.27942 0.27184 -0.16407 -0.38738 0.070745 -0.16267 -0.0066224 -0.023523 -0.28474 0.51562 -0.10601 0.42735 -0.070205 -0.30958 0.14663 0.05359 -0.73491 -0.4674 -0.36253 -0.15106 -0.49133 0.28342 -0.58751 -0.26094 -0.2182 -0.39164 -0.49854 0.15117 -0.56967 0.55687 -0.16562 -0.23086 0.64697 -0.3206 -0.31169 0.19714 -0.28094 0.088992 0.62157 -0.3131 -0.17647 -0.57451 -0.0825 -0.4612 0.62932 -0.22331 0.31381 0.1473 -0.00296 -0.79595 0.073957 0.32653 0.13959 0.56058 0.37945 -0.065979 -0.13479 -0.034932 0.72117 0.068021 -0.10253 0.088941 0.16835 -0.62431 -0.2903 0.10981 0.039428 0.11438 0.052305 -0.49677 0.41822 -0.026063 -0.037979 0.035896 0.057258 -0.19473 0.24667 0.26377 0.44043 -0.040168 -0.36155 -0.13071 -0.055563 -0.046669 0.18932 0.22885 0.118 0.20364
seafood -0.091456 -0.39882 -0.77086 0.13917 0.11542 -0.58655 -0.30537 0.65922 0.2572 0.55973 0.36349 -0.030149 0.20014 0.042786 0.37361 -0.044481 0.39047 -0.0043656 0.15327 0.16545 0.52329 0.65867 -0.28527 -0.15843 0.31818 0.13782 -0.14346 -0.45307 -0.21891 -0.15183 -0.33184 0.26806 0.15402 0.9952 -0.033618 0.058912 -0.66785 -0.64387 0.093313 0.12886 -0.47531 0.25574 0.08467 -0.11327 0.23206 -0.26696 0.31602 0.080387 0.040768 0.049475 0.45209 -0.62945 0.19869 -0.3422 0.25675 -0.23756 0.39962 -0.015677 -0.0108 0.046237 -0.56072 -0.69496 0.045789 0.03544 0.50464 -0.38502 0.61212 0.21222 -0.026493 -0.062549 0.60897 -0.084609 -0.25294 0.27555 0.38737 0.055522 -0.3306 -0.42412 0.1149 -0.21739 -0.33196 -0.083379 0.72826 0.067516 0.28607 -0.55176 0.28483 -0.52188 0.24599 0.51009 -0.16543 -0.25185 -0.14765 -0.097019 -0.091251 -0.072605 0.19579 -0.16556 -0.25263 -0.053347
CD -0.20079 -0.21633 -0.38661 0.24252 0.019297 0.39249 0.21967 0.89605 0.87776 0.27602 -0.45631 0.32789 -0.1521 -0.24729 0.31323 -0.12177 0.48391 -0.77609 -0.05474 0.018587 0.098494 0.055696 0.11199 -0.37418 0.10505 0.11078 -0.32641 0.27303 0.068236 -0.067569 0.045306 0.23845 -0.31187 0.49331 0.0046836 -0.25909 -0.41138 -0.0064774 0.32574 0.51033 -0.59974 -0.05436 -0.29843 0.085406 0.70554 0.14154 -0.25428 -0.66859 -0.040417 0.71897 0.21671 0.163 0.51384 -0.080032 0.035507 0.010021 -0.27804 0.12286 -0.40555 0.30466 -0.29047 0.01653 -0.084497 0.50654 0.065978 0.24007 0.24081 -0.40776 -0.50987 -0.19072 0.24851 0.59423 0.13688 0.064534 -0.3575 0.47032 0.10191 -0.56606 -0.14861 -0.32249 0.51113 -0.39463 0.59289 -0.0039452 -0.20465 0.2546 -0.1302 -0.23201 0.28151 0.23325 -0.064419 0.030862 0.02168 0.36831 -0.1662 -0.51192 0.36545 0.1034 -0.019155 -0.16334
mind 0.35355 -0.17974 -0.1162 -0.33149 -0.051157 0.48183 0.16547 0.36821 0.21664 0.14895 0.30307 -0.16681 -0.39762 -0.32655 0.0024922 0.2425 0.11941 -0.50398 0.26337 0.27733 0.63446 0.28256 0.39489 0.034708 0.10049 0.30081 -0.2909 0.21358 -0.04136 -0.0031923 -0.48228 -0.089314 0.39073 -0.15761 0.020257 -0.76027 -0.3871 0.84769 -0.37763 0.048727 -0.67828 0.16746 -6.674E-4 0.13872 0.37255 0.28888 -0.32278 0.18033 0.51679 0.20102 0.55036 -0.26591 0.12063 0.16062 -0.24357 -0.04553 -0.074227 -0.43601 0.069689 -0.24218 0.051506 -0.33318 0.39013 0.53898 0.31181 0.25355 -0.008609 -0.35394 -0.31316 -0.53092 0.21585 -0.018947 -0.28099 0.054589 -0.22872 -0.082485 -0.22913 -0.051704 0.066012 0.19712 0.090603 -0.45235 -0.041614 0.23931 -0.37494 0.38532 0.074571 -0.44816 0.21774 0.20762 0.34318 -0.14985 0.10318 -0.042062 -0.0041899 -0.1033 0.35403 0.34692 -0.4369 0.33913
sex 0.20195 -0.10011 0.25556 -0.016669 -0.023224 0.11987 0.096645 1.2944 1.2004 0.56887 0.062845 0.17541 -0.061596 -0.30993 0.12199 -0.187 0.22488 -0.1747 -0.67849 0.22042 -0.067023 0.45931 0.77222 0.099257 0.61413 0.38498 -0.58276 0.29642 -0.33527 -0.11382 -0.65141 -0.13171 0.075418 -0.060004 0.13564 -0.38326 -0.32918 0.0074873 -0.064971 0.42773 -0.27055 0.96836 -0.18636 0.4226 0.18304 -0.12524 0.2975 -0.46754 -0.52921 0.85201 -0.0038754 -0.10318 -0.28801 -0.71649 0.012005 -0.25461 -0.15493 0.58046 -0.30878 0.094857 0.43239 -0.1307 -0.2467 0.74943 0.010865 0.14757 0.65949 0.30956 -0.081331 0.21693 0.33271 -0.031324 -0.17472 0.29764 -0.15881 -0.27072 -0.27359 0.38501 0.14382 0.54528 -0.53082 -0.16181 0.037764 -0.047685 -0.15074 0.17834 -0.10304 -0.44731 0.24924 -0.12216 0.51203 -0.19182 0.061975 0.27358 0.13364 -0.084603 -0.066761 0.13246 0.33142 0.77225
food -0.06399 -0.76555 -0.15492 0.014687 0.32067 -0.34911 -0.29778 0.47104 0.24789 0.33572 0.40949 0.12196 0.26118 -0.21964 0.1681 -0.2808 0.14903 -0.23093 0.13651 0.31519 0.64097 0.077437 0.086758 0.0081746 0.26495 -0.045041 0.013022 -0.51555 0.23775 -0.40492 -0.65923 0.083567 0.41444 0.60562 -0.10601 -0.54263 -0.06775 -0.5057 0.16057 0.34196 -0.71718 0.14504 -0.056089 -0.060637 0.2792 -0.19181 -0.15143 -0.18302 -0.28748 0.20439 0.051284 -0.98396 0.31393 -0.059575 0.11683 -0.48926 0.20615 -0.21876 0.031616 0.16827 -0.57438 -0.41335 0.46439 0.56716 0.82208 -0.28185 0.35911 0.0022118 0.039857 0.11668 0.43926 -0.1291 -0.21309 0.072224 0.25566 -0.074599 0.064205 -0.60965 -0.28776 -0.16767 -0.453 -0.27273 0.39459 0.60473 0.45686 -1.0322 -0.015889 0.010847 0.5264 0.50614 -0.20488 -0.51278 0.10134 0.43517 -0.19834 0.15197 0.26877 -0.18506 0.056943 0.066952
precedent 0.030885 -0.64189 -0.36445 -0.20597 0.077541 0.68394 -0.042098 -0.49806 0.32718 0.46447 0.21881 -0.22797 0.19021 -0.2487 0.071229 0.58968 -0.5248 -0.0307 0.026182 -0.18509 0.26105 0.3522 0.14293 0.21616 -0.52196 -0.054396 -0.034361 0.35723 -0.073685 -0.22996 -0.083513 -0.07391 0.021466 -0.066514 0.52104 -0.48836 0.24073 0.2347 0.053688 0.43716 -0.47042 0.3097 0.088861 0.25128 0.32223 -0.039932 0.36077 0.026337 0.36762 0.52521 0.30167 0.092771 0.28621 -0.32396 -0.073944 -0.0043457 0.099018 -0.30229 0.084199 0.073754 -0.003367 -0.10783 -0.13822 0.33661 -0.0233 0.41049 0.053811 -0.24935 0.0096012 -0.26914 0.2629 0.33762 -0.64032 -0.014271 0.050229 -0.011111 0.15966 0.73217 0.42518 -0.14037 -0.26903 -0.096268 -0.19442 0.1584 0.56551 -0.20494 -0.071097 -0.26696 0.31289 -0.14113 0.5885 -0.40433 0.54096 -0.28218 0.2133 0.17203 -0.12348 -0.0037633 -0.22064 0.47508
series 0.10173 0.419 -0.13169 0.15572 -0.28343 -0.033885 -0.13136 -0.047829 0.9849 0.019955 -0.045199 0.53954 0.70359 -0.34141 -0.29662 0.094619 -0.041554 0.026065 0.10379 0.065653 -0.13763 0.31904 -0.20719 0.38726 -0.42428 -0.036164 -0.043414 0.006536 0.010665 -0.36759 0.085608 0.027617 -0.29663 0.068888 0.20554 -0.3018 -0.34977 0.49705 0.14209 0.52141 -0.3648 0.36836 -0.25932 0.27485 0.25771 -0.14205 0.081587 0.16522 0.098153 0.78581 0.45678 -0.12005 0.42484 -0.065045 -0.34891 0.022881 0.031696 0.4419 -0.19044 -0.23891 -0.16047 -0.22503 -0.033891 0.0013912 0.27845 0.27918 -0.025922 -0.27019 0.34926 -0.71492 -0.2714 0.83024 -0.2582 -0.35493 -0.10566 0.57757 -0.11967 -0.065676 0.29984 -0.48973 0.33608 -0.61482 -0.015906 0.31021 -0.018177 -0.435 0.082461 -0.51781 -0.22124 -0.15311 0.25267 0.14591 0.33308 0.39671 -0.41187 0.32836 0.013934 0.29606 0.53242 0.47332
kilometer -0.66112 -0.044515 -0.70918 -0.20946 -0.37508 -0.15604 0.082294 0.38884 -0.44072 0.22515 0.57085 -0.51047 -0.80983 0.13881 -0.58874 0.16243 -0.094509 0.19883 0.47352 -0.1719 0.26789 -0.0030039 -0.3857 0.27442 0.21034 0.25307 -0.0042152 3.648E-4 -0.5111 -0.23962 0.034456 0.57418 0.56018 1.0992 -0.20765 0.48046 -0.26921 0.043954 0.024985 0.46084 -0.30731 0.31811 -0.022524 0.22634 0.062436 0.11317 0.6029 -0.40197 -0.12882 -0.093957 0.27325 -0.6768 -0.1907 0.057802 0.01476 -0.28827 -0.132 0.28835 0.28266 -0.59084 0.65148 -0.62958 0.89346 0.1013 -0.25302 -0.14578 0.36961 0.54711 7.3231E-4 -0.86983 0.9744 0.51244 -0.51106 0.64118 0.84837 0.4482 0.2488 0.077944 0.36495 0.034626 0.30173 -0.093462 0.35995 0.19837 0.69269 0.4728 0.56232 0.23635 -0.033278 -0.31737 0.39436 -0.20444 0.46349 0.012401 -0.96386 0.0011778 0.032827 0.71146 -0.82293 -0.033884
grocery 0.1577 -0.27736 -0.9623 -0.0079151 0.38032 -0.12276 0.0029266 0.54269 0.26343 0.48498 0.090631 -0.075361 0.028609 -0.27618 0.22741 -0.0066184 0.09739 0.032579 -0.12172 0.50409 0.58711 0.46352 0.1012 -0.18558 0.35804 0.43252 -0.092437 -0.054594 -0.30288 -0.0014629 0.019287 -0.21895 0.14634 1.19 0.36941 -0.23951 -0.26796 -0.59615 -0.014024 -0.069552 -0.33752 -0.073548 0.095894 0.17122 0.22646 -0.62422 0.069584 0.023914 -0.51084 0.26219 0.32801 -0.40065 0.32881 -0.023288 -0.19828 -0.34526 -0.33775 -0.13561 -0.70557 0.98705 -0.37245 -0.53923 0.4157 0.39342 0.32586 -0.22687 0.037994 0.20949 -0.16042 -0.25006 0.77007 0.075023 0.072809 -0.19513 0.44739 -0.078163 -0.2976 -0.45637 -0.013218 0.15834 -0.24951 0.37611 0.74934 0.15489 -0.023583 -0.087562 0.10817 -0.492 0.19555 0.53982 -0.29923 -0.21123 -0.095127 0.11921 0.056347 -0.18285 0.082655 0.16759 -0.24307 0.16142
wizard -0.083945 0.16399 -0.20718 0.22181 0.043486 0.44628 0.013287 0.57421 0.41045 0.43157 0.026713 -0.12088 0.11043 0.14437 -0.12007 0.048249 0.37857 -0.35354 0.086267 0.064807 0.29952 0.28994 0.062652 0.18198 -0.24509 -0.17798 -0.39698 -0.023272 -0.49063 0.099159 -0.086685 0.16434 0.11171 0.3067 -0.081845 -0.030937 -0.48027 -0.15271 -0.037855 0.28572 -0.53024 0.25343 -0.35951 0.13081 0.17673 0.22249 0.33879 -0.14057 0.12054 0.14639 0.3226 0.027418 -0.041249 -0.093973 -0.063063 -0.021351 0.2083 -0.19172 -0.17563 0.15207 0.099133 -0.2173 -0.226 0.028137 -0.035137 0.16555 0.35401 -0.23197 0.0088868 -0.14613 0.14139 0.16199 0.12955 -0.13388 0.15799 0.018223 0.0071738 0.018981 -0.095871 -0.2032 -0.025561 -0.33245 0.1424 0.15697 0.0083833 0.23784 -0.19932 0.016303 0.26183 0.072398 0.012975 -0.48188 -0.075002 -0.17364 -0.26864 -0.46086 0.0082979 0.1973 0.20048 -0.14657
information -0.025234 -0.19201 0.032026 0.12783 -0.072841 0.3212 0.31145 -0.032608 0.78093 0.32711 -0.24159 0.082752 -0.36099 0.67921 0.057203 0.36079 0.11135 -0.12216 -0.19708 0.061022 0.84277 0.85767 0.1561 0.19452 0.50975 -0.10589 0.26449 0.30902 0.20571 -0.27864 -0.037734 0.06828 -0.23188 0.083218 0.29359 -0.25177 -0.52701 -0.092436 0.14789 -0.12164 -0.14206 -0.01108 -0.040431 -0.3035 0.54253 -0.74949 -0.32941 -0.22458 0.15452 0.80944 -0.011851 -0.68713 0.058105 0.28368 -0.46592 0.091584 -0.094494 -0.29518 0.21832 0.098176 0.29029 0.14238 0.3581 0.81404 -0.056982 0.56479 0.40533 -0.32369 0.19111 -0.36417 0.39999 0.15706 0.23909 -0.35625 0.19336 -0.15927 0.45893 0.10193 -0.12669 -0.24411 -0.64299 -0.79123 0.64485 0.60886 -0.11501 -0.55322 0.56672 0.25056 -0.182 0.17133 0.18935 -0.24756 -0.31348 -0.21341 -0.093656 0.33786 0.046658 0.34945 -0.46312 -0.22674
Israel 0.08107 -0.32186 0.4044 -0.35704 0.50219 -0.49435 0.38741 -0.21581 0.12935 1.0692 -0.69585 -0.3359 -0.063802 0.83742 0.1235 0.67746 -0.11979 -0.45383 -0.15029 0.18134 0.11808 0.97592 0.64167 0.75259 -0.061977 -0.072742 -0.4886 -0.29667 -0.45002 0.30109 -0.56409 0.07922 -0.43692 0.13951 0.30751 -0.046527 -0.30325 0.12433 -0.12877 0.26775 0.017144 0.20567 -0.10088 0.36224 -0.34911 0.2884 0.19323 -0.52457 -0.1319 0.7446 0.29972 0.47373 -0.44312 0.32126 0.35647 0.52102 -0.33109 -0.23558 0.23331 -0.17033 0.56017 -0.2403 0.29388 0.92834 -0.28586 0.29683 0.31993 -0.13597 0.51394 -0.70895 0.39012 0.50049 -0.47171 0.3835 -0.26975 0.45298 -0.58911 0.1692 0.33814 -0.070163 -0.065764 -0.1352 -0.32522 0.48187 -0.0061225 -0.024693 -0.92598 -0.56059 0.4483 0.041352 -0.32819 -0.24106 0.75181 0.1187 -0.56 -0.23568 -0.45422 0.0059506 0.1494 0.57085
brandy 0.040154 -0.27925 -0.28765 0.14885 0.12581 0.029667 0.25572 0.48993 0.40084 0.26932 -0.052682 0.24508 -0.10105 -0.28913 -0.025189 0.097898 0.35624 -0.2435 -0.50246 0.57984 0.0358 0.39032 0.014022 -0.41051 -0.050811 -0.06132 -0.13553 0.1855 0.13649 0.1072 0.11688 0.45237 0.23552 0.50107 -0.23751 -0.50397 -0.45563 -0.33461 0.035051 0.25153 -0.93467 0.094271 -0.22278 0.19386 0.37231 0.30621 0.013451 -0.25697 0.40542 0.36058 0.2504 0.14247 -0.011772 -0.16103 0.16037 -0.31292 0.21181 0.18194 -0.079456 0.096633 -0.21301 -0.55748 -0.14667 0.018509 0.40285 0.085455 0.010929 -0.28908 -0.50441 -0.20517 0.67147 0.45409 -0.22065 0.047244 0.21566 -0.17072 -0.17122 -0.41347 0.084791 0.10757 -0.55136 -0.19412 0.50477 -0.23006 0.17931 -0.14157 0.071683 -0.3098 0.45072 0.71547 -0.045305 -0.33561 -0.30216 -0.077712 -0.40191 -0.15816 0.33897 0.42766 0.078331 -0.03336
interview -0.035184 -0.65959 -0.44267 -0.49486 -0.2967 0.020511 0.03814 -0.17477 0.49774 0.30637 -0.017412 -0.35931 0.04483 0.20275 -0.081389 -0.44279 0.1133 -0.41461 0.037838 -0.13215 0.018309 0.52454 -0.5021 -0.21203 -0.28771 -0.013413 -0.87487 0.13244 -0.048657 0.022475 -0.13066 0.68506 -0.71277 -0.16733 -0.054754 -0.64529 -0.44663 0.85087 -0.03337 0.22913 -0.17259 0.40966 0.0082227 -0.15659 0.23646 -0.31731 0.4741 -0.10043 -0.093318 0.73717 0.17574 -0.087767 -0.58867 -0.29837 -0.20132 0.36139 -0.18011 0.0092154 -0.31373 0.028448 0.30514 -0.11375 0.26471 0.68416 0.1138 0.14334 -0.15778 -0.046142 0.11794 0.034834 -0.10135 0.71987 0.39436 -0.62295 -0.055671 -0.19192 0.13377 -0.17197 -0.042754 0.13786 0.32569 -0.63933 -0.0050738 0.65007 0.048112 -0.35664 -0.42115 -0.41926 -0.11736 0.13497 0.21662 -0.10634 0.16176 0.060827 0.24237 0.43443 -0.094883 0.55629 -0.57579 -0.13248
prominence -0.091035 -0.087245 -0.48148 0.056068 0.057634 0.12613 0.27582 0.77617 0.15343 0.28313 -0.010277 -0.1032 0.3485 -0.13586 -0.17675 0.2517 -0.047694 -0.075397 -0.33425 -0.41753 0.097745 0.007799 -0.065404 0.62546 -0.31319 0.14479 0.0087473 -0.075834 -0.44295 -0.40604 -0.080205 -0.015619 -0.30941 -0.10356 0.089135 -0.46057 2.4514E-4 0.02899 0.05354 -0.28211 -0.44952 0.30101 -0.36843 0.22217 0.27318 -0.0033653 -0.019648 -0.12284 -0.095849 0.39997 0.4264 0.078295 -0.34863 0.044759 0.056405 0.11362 -0.26701 0.021027 0.11744 0.37859 -0.3578 -0.15775 -0.095136 0.28831 0.39669 -0.050085 0.068969 -0.38357 0.11482 -0.15609 0.041909 0.52587 -0.023034 -0.44142 0.37828 -0.28206 -0.037384 0.0035028 -0.21164 -0.14575 0.086839 -0.56119 0.1258 0.27739 0.20919 -0.29069 0.11714 -0.53073 -0.014014 0.25068 0.21504 -0.54064 0.26017 0.26826 -0.16915 -0.06895 0.082843 -0.026627 0.031806 -0.35895
bed -0.11966 -0.21201 0.02083 -0.64659 0.0080744 0.28166 0.15989 0.58167 0.44881 0.31499 0.27273 -0.32246 -0.13833 0.098498 0.22546 -0.16562 0.79329 0.10156 0.23315 0.26858 0.62736 0.74458 0.42414 -0.15461 0.17671 -0.26685 -0.65745 0.29736 -0.20765 0.36581 -0.31147 0.014625 0.4932 0.3583 -0.18965 -0.64634 -0.57948 -0.011824 0.12751 0.37239 -0.26235 0.44592 0.1575 -0.26386 -0.22558 0.19848 0.074617 0.010055 -0.073683 0.4802 0.053906 -0.11568 0.27414 -0.22833 -0.5339 0.33289 -0.24013 0.016562 -0.0091891 0.51739 0.13728 -0.66134 0.91222 0.31986 0.081236 -0.32809 -0.25558 0.25935 -0.27321 -0.15961 0.1753 0.24358 -0.11486 0.12003 -0.21347 -0.17939 -0.022665 -0.69747 -0.29554 0.1631 0.14313 0.12687 0.68655 0.10803 -0.24865 0.49714 -0.20355 -0.23576 0.56052 0.28457 0.042535 0.29574 -0.061321 0.28187 -0.47093 -0.048653 0.40308 0.15558 -0.16958 0.0166
furnace 0.092734 -0.22932 -0.61901 -0.25501 -0.2034 -0.033702 -0.19503 0.019484 0.31829 0.35939 0.072921 -0.03332 0.074224 0.13655 0.18116 0.4074 0.12838 -0.064627 0.2128 0.13583 0.33912 0.38624 0.029427 0.006317 -0.15238 -0.076241 0.010337 -0.2214 -0.15927 -0.065508 -0.18643 0.070428 0.35403 0.52119 -0.041199 -0.39457 -0.29008 0.090936 -0.10409 0.22874 -0.19414 0.38362 -0.026927 -0.049033 0.29083 -0.067449 -0.034176 -0.28454 -0.14967 0.27107 0.013721 -0.090833 0.24384 0.062588 0.13554 -0.1498 -0.05769 -0.33968 -0.053308 -0.31463 -0.27339 -0.37875 0.16096 0.10476 0.46202 -0.35866 -0.0061808 0.18634 -0.34295 -0.23531 0.14548 0.20271 -0.28223 0.27525 0.34419 0.080958 -0.17051 -0.29345 0.15666 -0.17761 0.23778 0.40496 0.45362 -0.0098849 0.016989 -0.25663 0.098842 -0.5015 0.42637 0.56984 -0.095576 -0.038435 0.2382 0.10887 -0.38491 -0.12937 0.32292 0.25732 0.14691 0.3408
evidence -0.027622 -0.56719 -0.5145 -0.068745 -0.092475 0.77619 -0.17975 -0.067237 0.28453 0.05228 -0.089563 -0.12323 0.32103 0.30593 0.14022 -0.1566 -0.19214 -0.59212 0.61853 -0.42296 0.33964 0.89657 -0.063624 -0.083167 0.1551 -0.026374 -0.38065 0.11227 0.22135 -0.85399 -0.32392 -0.26328 -0.66202 -0.35543 0.21469 -0.16528 -0.27987 0.16317 -0.36328 0.12704 -0.51532 0.54786 -0.15116 -0.0014289 0.54895 -0.25391 -0.002446 -0.12322 -0.40773 0.66328 0.39482 -0.0056834 -0.081994 -0.24104 -0.14356 -0.42643 0.12025 -0.15306 0.4484 -0.25906 0.27493 0.27379 0.30561 0.19396 0.38593 -0.081353 -0.3185 -0.27503 -0.16995 -0.318 0.59124 0.12676 -0.32075 -0.19498 0.19037 -0.56253 -0.011918 0.57666 0.0060232 -0.21671 -0.83083 -0.33631 0.34493 0.36086 0.16002 -0.45307 -0.16437 -0.41514 0.24493 0.31129 0.25866 -0.22136 -0.16835 0.22311 0.097601 0.24026 -0.30712 -0.010625 0.0054124 0.28944
sprint -0.13447 -0.27003 -0.54556 0.66088 -0.30883 -0.36614 -0.12766 0.082324 0.23731 0.21472 0.12973 0.42418 0.087159 0.11231 0.047269 -0.19481 0.55546 -0.15556 0.088915 -0.082314 0.22766 -0.058202 -0.45323 0.39817 -0.3778 0.49967 -0.55997 0.58558 -0.18194 -0.27292 -0.15136 0.033974 -0.29823 0.91781 -0.37273 -0.59794 0.40028 0.11595 -0.083958 0.19022 -0.35813 -0.092993 0.15754 -0.20471 0.51011 0.15536 0.44265 -0.12211 -0.25404 0.50325 0.028646 -0.10128 -0.16601 -0.065777 0.11988 -0.27082 0.15587 -0.41364 0.061321 -0.17388 -0.001228 -0.47185 0.46346 0.13955 -0.020123 -0.40999 -0.013576 -0.30486 -0.060131 -0.33566 -0.012949 0.77526 -0.56162 0.097405 -0.28577 -0.18926 0.40238 0.13828 -0.14104 -0.35879 0.68612 -0.39272 0.2827 -0.82163 0.049548 0.083566 0.58277 -0.19929 0.51712 0.54645 0.52456 -0.54767 0.1936 -0.093181 -0.1669 -0.42379 0.27378 0.35827 0.1276 0.086665
emergency -0.80046 -0.22959 -0.25456 -0.46358 0.2558 0.19769 0.33111 -0.13526 -0.14252 0.57118 0.44681 -0.12318 0.75063 0.20864 -0.17516 0.24739 0.29446 -0.16557 0.10803 0.017714 0.59608 0.39003 -0.43794 -0.034742 0.098399 -0.55592 0.025727 0.11727 0.30432 -0.36699 -0.61397 0.016864 0.28779 0.10296 0.30015 0.07822 -0.30855 -0.068631 0.18307 0.50949 -0.21338 0.71013 0.94245 -0.016365 0.093989 0.1944 0.28886 0.299 0.47219 0.27563 -0.18175 -0.4155 0.072509 -0.12674 -0.35821 -0.25503 -0.11492 -0.18866 -0.10996 0.27758 0.24523 -0.076496 0.29159 0.50614 0.22811 -0.11722 0.086757 0.020469 0.01438 -0.39253 0.016753 0.060977 0.12211 -0.011646 0.033207 0.1999 0.13399 -0.28776 -0.37483 0.31399 0.29221 0.18374 0.41835 0.24944 0.91305 -0.5693 -0.075583 0.050783 -0.098322 -0.22199 -0.092452 -0.27803 0.74878 0.86154 0.11778 0.098457 -0.6422 0.35245 -0.33764 0.40539
Jackson -0.32762 0.50883 -0.053793 0.30512 0.13315 0.71822 -0.074992 0.68949 0.15991 0.079414 -0.10826 -0.18418 0.075506 -0.33805 0.0017763 -0.083514 -0.014967 -0.71076 -0.30186 0.54455 0.095087 0.29901 -0.19908 0.26269 0.22445 0.1208 -0.21113 0.18906 -0.25614 0.041681 0.40039 -0.077852 -0.034252 0.43402 0.16722 -0.047925 -1.0646 0.27863 0.42666 0.65014 -0.57488 0.1519 -0.41697 0.32178 0.23044 0.069879 0.12579 -0.33264 -0.35617 0.62433 0.68964 -0.1154 0.036484 0.17569 -0.57346 -0.078007 -0.21157 -0.318 0.11833 0.14509 0.12596 -0.34854 -0.32151 0.23457 0.46619 -0.20634 0.26348 -0.29104 -0.45811 -0.13752 0.26048 0.90567 0.35125 -0.34791 -0.59356 -0.34943 -0.049417 -0.30149 -0.18551 0.307 0.46435 -0.062021 0.075675 0.23635 0.47187 0.24757 -0.40699 0.51298 -0.095985 -0.12006 -0.21788 -0.89138 0.38632 0.5681 -0.06301 0.058254 -0.3895 0.044785 -0.014487 0.0078148
institution -0.61461 -0.1411 -0.13052 -0.37509 -0.21575 0.18119 0.65564 -0.047113 0.30039 0.65797 0.22095 0.11046 0.35496 0.016329 0.19055 0.7493 -0.46595 -0.3795 -0.20581 -0.13606 0.007557 0.059524 0.15153 -0.19141 -0.37964 -0.069666 -0.30578 0.11431 -0.13882 -0.17217 -0.63905 0.1344 0.054119 0.22806 0.20077 -0.44228 -0.13007 -0.23337 -0.56314 0.41305 -0.26991 0.79116 -0.41119 0.096913 -0.06176 -0.21552 0.1188 -0.12479 0.18982 0.026025 0.20115 0.15121 -0.093993 0.077102 0.33797 -0.45308 -0.36487 0.06466 -0.0081676 0.44284 0.34725 -0.017476 0.14134 0.51086 -0.09124 0.1772 0.17672 0.085626 -0.1243 0.099376 0.12979 0.073981 -0.34246 0.10435 0.22772 -0.46547 -0.038518 0.078561 0.042778 0.14173 -0.30588 -0.6274 0.49677 0.32615 0.22833 -0.36234 0.2898 0.16703 0.36205 0.20303 0.43153 -0.20815 0.078245 0.022213 0.34824 -0.43973 -0.13019 -0.25843 -0.24517 0.23423
bird -0.36057 -0.073907 0.23664 0.35709 -0.01239 -0.15735 -0.2508 0.484 0.56298 0.19009 0.22305 -0.09269 0.12105 0.2128 0.26839 -0.18558 0.28754 -0.55505 0.055613 0.092684 0.53321 0.54413 0.2475 0.64919 -0.28245 -0.59549 -0.086621 0.27442 -0.95 -0.52701 -0.17616 0.89726 0.4848 0.47094 -0.0059015 0.068448 -0.51145 -0.18725 -0.22162 0.65162 -0.62163 0.19152 0.45156 0.37258 0.26676 -0.22474 0.41735 -0.19238 -0.096049 -0.31343 -0.22308 -0.49179 0.45673 -0.097204 0.11636 0.346 0.24905 -0.084097 0.90055 0.0058455 0.18803 -0.56569 0.29966 -0.24 0.60482 -0.1982 0.59096 -0.089706 -0.15887 -0.41004 0.46661 0.041355 -0.18925 0.086855 0.15973 0.11373 0.17161 0.3297 0.59675 -0.16372 -0.066768 -0.41796 0.40413 -0.11777 -0.16365 0.086083 0.18068 -0.76966 0.041812 0.19995 0.45274 -0.34588 -0.63779 -0.065458 -0.19622 -0.18229 -0.17849 0.33633 -0.14605 0.31554
Brazil -0.18732 -0.11417 -0.41968 0.22968 0.36441 -0.18591 0.4433 0.19274 -0.29658 0.49117 0.22298 0.034053 -0.1331 0.010704 -0.16551 0.11437 0.51071 -0.0071996 0.38626 -0.0070019 0.82492 0.039272 -0.15167 -0.0061946 0.031215 0.205 0.24976 -0.16691 -0.1908 -0.40676 -0.51755 0.90234 -0.058724 0.029439 0.051657 -0.087349 -0.22125 0.024844 0.24914 0.085539 0.148 0.11318 -0.54724 0.42165 -0.41327 -0.40052 1.1517 0.41609 0.10905 0.55928 0.01375 -0.35709 -0.30434 0.27924 -0.027104 -0.057815 0.26971 -4.4129E-4 -0.042037 0.44859 -0.56391 0.083936 -0.37655 0.58795 0.2867 -0.48576 0.38057 -0.58378 0.19225 -0.31468 0.63617 0.59173 -0.22458 -0.13073 0.14239 -0.15737 -0.0036337 0.6861 0.10304 -0.2006 0.45676 -0.45586 0.3378 -0.018738 0.81358 0.052102 0.24127 0.19894 0.48509 0.17262 -0.039156 -0.34731 0.81749 -0.57082 -0.26151 -0.10304 -0.23816 -0.0014757 -0.16484 -0.0073358
warning 0.26367 -0.22349 -0.52176 -0.21531 0.28918 -0.03518 0.091824 0.053881 0.25411 0.32181 0.18929 -0.15641 0.40767 0.38527 -0.017293 -0.022396 -0.28943 -0.37782 -0.041715 -0.24595 0.5585 0.86214 0.081471 0.084999 -0.26904 -0.21403 -0.11772 -0.13989 0.53189 -0.69296 -0.34999 -0.045368 0.19211 0.87581 0.45389 -0.065326 0.01694 -0.10534 0.23811 -0.052635 -0.42797 0.17263 0.35963 0.31525 -0.10898 0.26368 -0.028327 0.29131 0.27536 0.8599 0.068446 0.079622 -0.26988 0.47363 -0.099452 0.007577 0.27398 -0.26266 -0.11677 0.02127 0.4251 -0.21763 0.10621 0.046025 0.26303 0.43248 0.11589 -0.49456 -0.46437 -0.44255 0.21119 -0.16009 -0.095422 0.85341 0.40215 0.31856 0.21081 -0.082567 0.52544 -0.26265 -0.056375 -0.29045 -0.25899 0.86847 0.21436 -0.2434 0.13971 -0.24443 -0.46155 0.21231 0.15814 0.038961 -0.070352 -0.25995 0.17998 -0.11611 -0.58605 0.13511 0.029085 0.19863
implement -0.27619 -1.1188 0.033797 -0.21255 -0.32267 0.061648 0.25289 -0.18016 0.54343 0.2702 0.093534 0.045679 0.10293 0.51246 0.57068 0.31012 -0.28401 -0.090471 -0.030571 0.021371 0.57331 0.48691 -0.13956 0.085192 0.051602 0.40918 0.60851 0.093593 0.42766 -0.19302 -0.38763 -0.18601 0.15807 0.31961 0.035197 -0.30025 -0.14272 0.12316 -0.12306 0.29452 -0.22532 0.65054 0.31236 -0.22894 0.2646 0.29477 0.2106 -0.25258 0.53287 0.23683 0.19702 -0.18944 0.50766 -0.10387 0.014518 -0.25158 0.0099201 0.18076 0.029935 0.35913 0.0060588 -0.13159 0.096334 0.69758 -0.28802 1.0161 -0.0050177 0.22372 0.30195 -0.15597 0.052608 0.24478 -0.19232 0.13634 0.061132 0.2864 0.024242 -0.1041 0.16198 0.33635 0.47654 -0.62709 0.086479 0.078734 0.70434 -0.74632 -0.86184 -0.034594 0.32287 0.40793 0.59456 0.041129 0.48235 0.16688 0.48787 0.19817 -0.4347 0.27094 0.047511 -0.046966
train 0.2992 -0.26407 -0.30539 0.22804 -0.39455 -0.26343 0.49384 -0.0938 -0.101 -0.19811 0.44151 -0.097563 0.074452 0.45352 -0.25302 0.40714 0.42144 0.32514 0.056212 0.10377 0.59151 0.3142 -0.76306 0.019471 -0.26236 0.040058 -0.26858 0.43306 -0.26128 0.041718 -0.72338 0.20381 0.0035855 0.59404 -0.14065 0.41751 0.21073 0.25372 0.026792 0.15506 -0.39436 0.43551 0.29311 0.59426 0.090004 0.2769 0.19681 -0.58576 0.086216 0.57025 0.031798 -0.44763 0.40524 0.44106 -0.59495 -0.18457 -0.23734 0.06244 -0.23783 0.26373 0.36431 0.031137 0.061862 0.45743 -0.044222 0.45045 -0.13342 0.60658 -0.049554 0.028576 0.74163 0.20036 0.41618 0.36078 -0.27579 0.18275 0.020319 -0.25442 -0.26626 0.010558 0.08919 -0.22211 0.17642 0.18078 -0.12331 0.21468 0.82341 -0.52255 -0.052457 0.32845 0.29363 -0.32607 0.1696 0.10947 -0.31223 0.25044 0.071022 0.21316 -0.10281 0.51386
area -0.025054 -0.22865 -0.41288 0.20518 0.027251 0.19836 -0.35956 0.13959 0.41587 0.058928 0.06139 -0.13884 0.11153 0.47141 -0.2662 0.40334 0.10418 -0.061894 0.23316 -0.4794 0.38103 0.72152 0.3519 -0.25623 0.11725 0.22036 0.089852 0.34422 -0.80442 0.33352 -0.18673 0.46971 0.23763 0.89296 -0.017845 -0.1635 -0.10263 0.14949 -0.11243 -0.10731 -0.29577 0.62621 0.035741 0.10451 0.15062 0.041021 0.35563 0.47028 -0.15037 -0.15243 0.062455 -0.41306 -0.21795 0.50402 -0.45599 0.065705 -0.22428 0.28809 -0.030402 -0.046115 0.33615 -0.45936 0.49168 0.019455 0.2925 -0.13799 -0.15905 0.34938 0.075944 -0.89581 0.34044 0.0074852 0.074444 0.012857 -0.03731 0.12645 -0.19137 0.17051 -0.27618 0.19859 -0.30308 -0.18862 0.35293 0.17072 0.057092 -0.25696 0.3914 0.21273 0.24834 -0.047573 -0.055406 0.003208 0.14132 0.24951 0.022361 0.43368 -0.4605 0.49274 -0.32174 0.16456
image 0.018584 -0.083841 -0.45247 0.1298 -0.47777 0.26694 0.76433 -0.13288 0.3221 0.13922 0.34807 -0.19258 -0.08156 -0.15871 -0.15363 0.098929 0.013704 -0.17292 0.4856 0.22542 0.1963 0.41672 0.33137 0.1494 -0.14117 0.15084 -0.05287 0.31397 -0.30842 -0.27694 -0.3707 -0.17828 -0.30136 0.21332 0.1656 -1.0252 -0.25845 0.65671 -0.13104 0.051506 -0.24433 0.234 -0.44445 -0.095727 0.45388 0.039225 0.55825 -0.81063 0.1938 0.3194 0.077394 0.0041601 -0.43759 -0.44208 0.019778 -0.24753 -0.025454 0.24977 0.090591 -0.085549 0.2611 -0.2605 0.24832 0.091082 0.54364 0.068993 0.89616 0.036388 -0.035946 -0.58787 0.22252 0.37973 -0.39125 0.077765 -0.18371 0.11598 -0.1212 -0.32325 -0.61527 -0.35128 -0.46072 -0.21608 0.29624 -0.21924 -0.015762 0.23093 -0.049663 -0.73923 0.1604 -0.02947 -0.081542 -0.34196 -0.1206 -0.31108 0.0795 -0.35029 -0.17563 0.14343 0.38478 -0.2748
murder 0.21631 -0.020102 -0.37023 0.061158 -0.19733 0.1073 0.27298 0.53213 0.74211 0.17639 0.095712 -0.29229 0.58318 0.082935 -0.089983 -0.23864 0.77127 -0.4217 0.052732 0.11772 0.71728 1.1058 0.42053 0.72436 0.41305 -0.1669 -0.96484 0.10963 -0.50586 -0.36398 -0.051499 -0.28269 -0.46069 -0.17955 0.14644 -0.18152 0.61339 -0.21281 0.038718 0.58616 -0.26961 0.90623 -0.43952 -0.28096 -0.098277 -0.35928 0.84114 -0.48728 0.084764 0.21241 0.90349 0.21986 0.0056636 0.050093 0.17638 -0.090284 0.015963 0.38619 -0.35296 -0.43499 0.16563 -0.085547 -0.19525 0.7186 0.047103 -0.28941 -0.53158 0.3432 0.13409 -0.12703 0.38188 0.40326 0.6224 -0.25252 0.14509 -0.42947 0.12363 0.40453 -0.016647 0.069706 -0.24631 -0.66498 0.098659 0.20504 -0.33825 0.14335 0.30811 0.10338 0.37475 -0.16427 0.69307 -0.87009 -0.23707 0.24691 0.0096116 0.55411 -0.53563 0.11313 -0.25975 -0.076772
journey 0.26215 -0.043207 -0.38786 0.35289 -0.26417 0.14729 0.46645 0.14905 0.26654 0.21196 0.81764 -0.38029 -0.022173 -0.46219 0.13544 0.27935 0.16775 -0.56309 0.31067 0.54766 0.47216 -0.058154 -0.49241 0.5827 -0.24974 -0.17922 -0.49426 0.30917 -0.56474 -0.12258 -0.032304 0.10359 0.02051 0.72224 0.0035246 0.15737 -0.22619 0.25111 0.11378 0.087161 -0.60093 0.10629 -0.012102 0.018294 -0.022349 0.28626 0.46869 -0.47585 -0.31528 0.59059 0.16582 -0.75454 0.30349 0.16972 -0.13076 -0.047043 0.12439 0.79966 -0.13684 0.24748 0.017532 0.012349 0.042322 0.091152 0.022805 0.23976 0.31475 -0.38674 0.63589 -0.26871 0.19172 0.59111 -0.8333 0.14897 0.27655 0.26879 0.36191 0.35341 -0.18768 0.2188 0.3186 0.24611 0.027064 0.20036 -0.049066 0.19603 0.028882 -0.080415 -0.16898 -0.1921 0.37931 -0.48556 -0.19518 0.28025 -0.029926 0.35046 -0.0019797 0.35595 -0.65019 0.12997
minister -0.12673 -0.4972 -0.29861 -0.64832 -0.43802 0.068975 0.23539 -0.13706 0.59694 -0.027075 0.43101 -0.68314 0.54677 0.25353 0.30582 0.6411 -0.071889 0.034767 -1.0545 0.41678 0.21449 0.35485 0.29033 0.54008 0.07478 -0.53434 -0.24294 -0.14735 -0.0052268 -0.37752 -0.97747 0.32373 -0.30061 -0.36884 -0.40467 -0.32061 -0.34541 -0.15201 -0.19414 -0.23686 0.11591 0.25654 0.25537 0.075635 0.11852 0.47274 0.21974 -0.26522 -0.15805 0.70415 0.32123 0.076277 -0.4082 -0.11216 0.40334 0.34899 0.23467 -0.54225 -0.034698 0.23549 -0.11423 -0.20974 0.39082 0.39484 -0.50366 -0.61979 0.1681 0.4763 0.24306 -1.0312 -0.59732 0.46883 0.14529 -0.13745 0.30152 -0.16183 -0.23361 0.2202 -0.61713 0.16405 0.47533 -1.1341 0.0092371 0.095675 0.081922 0.1268 0.26821 -0.18549 0.1424 0.18913 -0.0674 -0.59589 0.4913 0.4212 -0.030101 0.032935 -0.22117 -0.33692 -0.28368 0.40528
planet 0.095693 0.18034 0.25245 -0.1506 -0.02299 0.54461 0.31228 0.51118 -0.25202 0.33084 0.22314 -0.20804 -0.064906 -0.18968 0.28922 -0.20457 0.09923 -0.5861 0.44166 0.23771 0.3703 0.62129 -0.0074253 0.51994 -0.19086 -0.21525 -0.22155 -0.33585 -0.74304 -0.30629 -0.26955 0.21965 -0.15298 0.649 -0.10663 -0.42367 -0.89933 0.29977 -0.72248 0.28564 -0.61438 0.64359 0.075936 0.38936 0.52593 0.27227 0.2618 -0.47743 0.019427 0.014676 0.2618 -0.51558 0.6983 0.14268 0.31251 0.20422 0.29502 0.094643 0.56292 -0.1919 -0.14842 0.17378 0.40143 -0.040395 -0.080334 0.30213 0.43716 0.065928 -0.017243 -0.58187 0.42595 0.36772 -0.66203 0.16123 0.25426 0.09417 0.019639 0.19787 -0.2847 0.06329 0.25405 -0.28758 0.18455 -0.26749 0.25645 0.52172 0.62317 -0.17561 0.48833 0.02368 0.073099 0.12108 -0.19033 -0.25402 -0.42931 -0.10552 0.012723 0.2421 0.033365 0.25488
article 0.31465 -0.64351 -0.43882 0.3024 -0.71625 0.65374 0.49041 0.2581 0.73557 0.60787 0.10129 -0.16739 0.14322 0.579 -0.70027 0.19613 0.082352 -0.526 -0.23449 -0.39241 0.088505 0.57438 -0.16475 -0.087793 -0.69347 -0.1617 -0.012223 -0.073504 -0.55791 -0.81741 -0.14225 -0.41846 -0.67059 0.2836 -0.11886 -0.048026 0.25507 1.3496 0.18139 0.51613 -0.60801 0.34458 -0.41949 -0.07225 0.82599 -0.13127 0.50606 -0.26379 0.065901 -0.0047074 -0.2044 -0.49123 -0.57328 -0.19949 0.67995 -0.23753 -0.0050993 -0.03557 -0.063413 0.027915 0.12103 -0.60601 0.020618 0.70331 0.083783 0.45915 0.10752 0.15865 -0.03009 -0.42916 -0.37057 0.42727 0.28996 -0.22268 -0.27904 -0.59169 -0.018197 0.59095 0.46804 -0.29124 0.25062 -0.78338 0.13986 0.75586 -0.37736 0.095596 -0.35972 -0.37797 0.11853 -0.092276 -0.055524 0.16464 -0.78978 0.36409 0.30053 -1.0965 0.39811 0.2072 -1.3207 0.014077
anxiety 0.55369 -0.5606 -0.064519 0.20028 0.30259 0.563 0.39183 0.44537 0.16157 -0.058511 0.30653 -0.33902 0.083408 -0.23625 0.046721 0.29052 0.066647 -0.51683 0.20816 0.0010834 0.52991 0.14406 0.026703 -0.4446 -0.02489 -0.10477 0.18965 -0.0080705 -0.26763 -0.68895 -0.78158 -0.12759 0.23335 0.1203 0.43822 -0.57387 -0.36521 0.11664 0.28422 -0.046778 -0.53305 0.32534 0.04134 0.11765 0.092978 -0.09345 0.0028106 -0.28291 0.43601 0.40141 0.10086 -0.067054 -0.25635 0.09342 -0.037052 0.35057 -0.38061 0.38549 0.25759 -0.26492 0.34952 -0.32333 0.38899 0.49271 0.58793 0.069856 0.32817 -0.38529 -0.066768 -0.83056 0.66714 0.22303 0.37268 0.08049 0.019248 -0.17414 0.18862 -0.40746 0.00216 0.26751 -0.67035 -0.20712 -0.069101 0.08033 0.22128 0.059378 -0.0020827 -0.20539 -0.20197 -0.33754 0.34478 -0.057147 0.019824 0.52745 -0.090979 -0.18922 -0.22198 -0.36042 0.30901 0.65764
month -0.01038 -0.23873 -0.70236 -0.15613 0.38002 -0.14436 0.38445 0.4422 0.24142 0.5705 -0.061174 -0.39876 -0.2759 0.12222 -0.41774 -0.61306 0.023884 0.33951 -0.10205 -0.3808 0.14438 -0.39992 0.079857 0.27425 -0.06998 0.060132 0.19717 0.1485 -0.16797 -0.19231 -0.12848 0.49245 0.17263 0.088022 -0.28333 0.20387 0.036595 0.1836 -0.38507 0.54084 -0.55579 0.13317 0.17515 -0.36076 0.1494 0.18897 0.60283 0.073019 -0.41154 0.81924 -0.071813 0.44255 0.33403 0.041235 -0.33747 -0.11644 -0.12374 -0.44834 -0.40733 0.37415 0.29633 0.24269 0.39548 0.58311 -0.014903 0.031049 -0.11118 -0.049378 0.26734 -0.70863 -0.039204 0.41319 -0.16505 0.11834 -0.041847 0.33625 -0.010672 0.027176 0.059745 0.26665 -0.0044893 -0.31769 0.26495 0.12418 0.16061 -0.36683 0.074117 -0.32369 0.23807 -0.15143 0.3054 -0.30264 0.26448 0.3051 -0.0089937 -0.037674 -0.057328 -0.15893 -0.26708 0.27145
party -0.42805 -0.96434 -0.093238 -0.42412 -0.15431 0.18745 -0.098742 0.35912 0.13839 0.4224 0.809 -0.10064 -0.26889 0.059964 -0.6112 0.79048 0.29333 -0.34746 -0.66001 0.30336 -0.18872 0.32052 0.31026 0.75556 0.0099488 -0.17083 0.19278 0.1767 -0.17672 0.39196 -0.15696 0.22685 -0.17869 0.11451 0.44942 -0.55856 -0.18853 -0.29135 -0.010743 0.023078 -0.0076647 0.40325 -0.29149 0.21992 0.19021 0.23207 0.19138 -0.11258 -0.012401 0.21427 0.55444 0.32265 0.23933 0.26202 0.20338 -0.0020619 -0.40763 -0.061419 -0.43308 -0.17974 -0.29386 0.89249 0.47004 0.85482 -0.0058286 -0.50869 -0.18149 -0.28595 0.076021 -0.80836 -0.10717 0.32435 0.25827 -0.20493 0.027668 -0.20775 -0.22709 -0.19144 -0.039949 0.17027 0.40991 -0.3207 -0.053337 -0.17518 -0.048215 -0.2157 0.18947 -0.45245 0.083587 0.49461 0.027651 -0.074342 -0.083253 -0.059792 -0.056433 -0.14539 -0.15322 -0.067929 0.18048 0.2184
production 0.24166 -0.40066 -0.38094 0.008823 0.02117 -0.51071 0.31706 0.26554 0.10547 0.21921 0.095336 0.064071 -0.13051 0.0059657 -0.013397 -0.32582 6.5894E-4 -0.58875 0.2807 0.28829 0.31617 0.046949 -0.2513 0.12831 -0.013756 0.15578 0.20153 -0.48644 -0.27245 -0.478 -0.32658 -0.17607 -0.038506 0.48949 0.16397 -0.26702 -0.30092 -0.13207 -0.55626 0.44761 -0.14454 0.4798 -0.12322 -0.2145 0.40081 0.29215 0.14665 -0.07976 -0.29926 0.55594 0.37811 -0.014198 0.095622 0.264 0.029982 -0.17312 0.21578 -0.34129 0.11245 0.28352 -1.0991 -0.2561 -0.33266 0.21094 0.517 0.39553 0.028006 0.3304 0.38766 -0.48168 0.47368 0.37592 0.02188 0.081578 0.7784 0.65649 -0.49542 0.056213 -0.12728 0.089783 0.46364 -0.44205 0.2757 0.18276 0.23237 -0.33502 -0.42027 0.091548 0.4741 -0.34237 -0.11926 -0.20224 0.031335 -0.15698 0.041398 0.20467 0.3004 0.35006 0.088079 0.21795
importance 0.49491 -0.81973 0.039498 0.14999 -0.30153 0.62723 0.24551 0.1329 -0.014298 0.35175 0.131 -0.28929 0.13212 -0.17584 0.10684 0.45645 -0.28642 -0.36222 -0.018139 -0.11332 0.30053 0.21818 -0.07138 0.24985 0.075331 0.11832 0.30889 -0.22021 -0.50763 -0.13682 -0.47176 -0.18146 -0.19591 -0.47365 0.4258 -0.7816 -0.31302 -0.25406 -0.31137 -0.30458 -0.40412 0.44064 -0.33912 -0.09267 0.16883 -0.23957 0.062568 -0.17375 -0.016808 0.21744 0.26309 -0.26723 -0.078806 -0.18344 -0.3685 0.040877 -0.41332 0.058274 0.20006 0.443 0.2093 -0.10659 0.16124 0.56872 -0.086184 0.14711 0.28662 -0.24113 -0.097964 0.008183 0.24162 0.45654 -0.3549 0.13142 0.10802 0.085644 -0.046624 0.40902 -0.20915 0.17223 -0.66278 -0.77945 0.067439 -0.0022971 0.43771 -0.30527 -0.3799 -0.39688 -0.092389 0.27565 0.40996 -0.19153 0.17903 0.16732 -0.096951 -0.26311 -0.31939 0.045804 -0.2697 0.10216
inmate -0.0098412 -0.096271 -0.40133 0.42335 0.27236 0.08961 -0.052747 0.32566 0.38246 0.9197 -0.39659 -0.31082 -0.043929 -0.035556 -0.73085 -0.044432 0.59818 0.074023 -0.23779 0.07208 0.029879 0.57838 0.30549 0.5751 0.27354 -0.1606 -0.75803 -0.094895 -0.20005 -0.2835 -0.2397 -0.17845 -0.25413 0.42536 0.31301 0.14817 -0.0077548 -0.26487 0.0056539 0.26201 -0.1926 0.91376 0.49186 0.27355 0.2017 -0.090221 0.26185 -0.25942 -0.19581 0.31758 0.60961 0.43381 -0.16405 -0.37064 0.10193 -0.049369 -0.075819 0.0058474 0.25484 0.051818 0.30773 -0.14299 0.37654 0.38093 -0.1414 -0.095006 0.27151 0.335 0.37521 -0.29313 0.2562 -0.21105 0.27696 -0.27236 0.36927 -0.055487 0.066478 0.18561 0.004715 0.34061 0.0037162 -0.1632 0.028298 0.22773 0.012444 -0.036497 0.34197 0.22316 0.28356 -0.13038 0.59156 -0.93316 -0.14783 0.42079 0.1298 0.279 -0.23979 0.2021 -0.17573 0.8159
Harvard -0.086415 -0.059516 0.1751 -0.013172 -0.063203 0.42764 0.4883 0.19022 -0.133 0.52535 0.29006 -0.37153 0.43364 0.10837 -0.19372 0.050771 -0.051602 -0.6224 -0.27129 -0.07134 -0.36751 -0.014302 -0.054764 0.11321 -0.13104 -0.48631 -0.21315 -0.010107 -0.68253 -0.34087 -0.52766 0.013743 -0.064486 0.339 0.2199 -0.10083 0.24409 0.093042 -0.23075 0.089385 -0.71442 0.43088 0.14958 -0.16409 -0.18276 -0.32165 -0.12999 0.26789 -0.62759 -0.22948 0.68677 0.010787 -0.11207 -0.50285 0.0084872 -0.20405 -0.189 0.24414 -0.15803 0.77968 -0.035284 -0.70042 0.1363 0.7493 -0.024905 0.77905 0.33591 0.21247 -0.16621 0.12019 0.37154 0.33396 0.16545 -0.60122 0.053256 -0.66597 0.16583 -0.17825 0.47119 -0.12827 0.61595 -0.38609 0.41852 0.48881 -0.10805 -0.16821 0.021163 0.04232 -0.13179 0.51733 0.76386 -0.31466 -0.03102 0.47815 -0.43288 -0.1378 -0.65376 0.15429 -0.34684 0.47291
psychology -0.033942 0.0098953 0.22498 0.21062 -0.0062029 0.58346 0.33965 0.41075 0.291 -0.047077 0.42011 -0.85902 0.50691 -0.14411 0.21908 0.32192 -0.3843 -0.83699 -0.50388 0.078334 -0.13662 0.22299 -0.027291 -0.32657 -0.17384 0.031701 -0.20023 -0.10759 -0.32591 -0.47928 -0.93017 -0.45829 -0.39127 0.084492 0.135 -0.61058 -0.015221 -0.18427 -0.36697 -0.020158 -0.99246 0.53411 -0.72977 -0.24817 0.35394 -0.23267 -0.53187 -0.10315 -0.095228 0.43557 1.0167 -0.34905 -0.3884 -0.95133 -0.22663 -0.42803 0.024283 0.52722 0.13406 0.42125 0.068103 -0.57243 0.39512 0.77666 0.23483 0.72848 0.20254 -0.21974 0.018534 -0.067567 0.5218 0.064751 0.18997 -0.2279 0.25479 -0.65874 0.034369 0.37058 0.047761 0.096119 -0.14958 -0.2648 0.18342 -0.052334 -0.41347 -0.11444 0.04339 0.076821 -0.45003 -0.3123 0.62264 -0.13204 -0.23952 0.46439 -0.19205 -0.60001 -0.29876 0.19489 -0.15124 0.47452
medal -0.50924 -0.85013 -0.50735 0.22927 -0.27331 0.24627 -0.61696 0.63857 -0.31963 0.22328 0.23797 -0.4489 0.011141 -0.57729 -0.37879 0.11145 0.5334 -0.30077 -0.078064 0.29467 -0.25036 0.38024 0.10304 0.57944 -0.4715 0.35791 -0.58216 -0.017092 -0.82802 -0.42695 -0.64145 -0.092728 -1.0778 0.28158 0.52055 -0.88356 0.27492 -0.33614 0.15442 0.14998 -0.55404 -0.51054 -0.19006 0.55157 -0.1601 0.02755 0.12902 -0.67079 0.22334 0.91213 -0.16841 -0.37487 -0.67633 0.37313 0.21343 -1.0181 -0.37146 -0.022162 0.87632 -0.0057558 -5.3979E-4 -0.44907 0.6851 0.18509 0.079196 -0.17485 -0.2838 0.038196 0.10562 -0.022557 0.789 0.45045 0.011227 0.70765 -0.60463 0.13066 0.84577 0.64967 0.048755 -0.51085 0.80459 -0.35093 0.60171 -1.0617 0.60568 0.78852 0.852 -0.34188 0.42513 0.68129 0.19363 -0.75703 0.89849 0.10228 -0.058809 -0.20919 -0.2128 0.82407 0.34558 -0.045437
company -0.10507 -0.46126 -0.43973 -0.34667 0.038814 0.16255 0.2604 0.046707 0.31524 0.35168 -0.017806 0.4102 -0.065306 0.16501 -0.42659 -0.071969 0.15236 -0.062459 -0.45851 0.12562 0.010113 0.27722 0.17602 -0.19376 -0.34055 -0.15195 0.29598 -0.57668 0.12017 -0.080183 -0.13772 0.088474 0.14185 0.29883 -0.16835 -0.27798 -0.4058 0.059746 -0.29105 0.37183 -0.45756 0.11244 0.090734 0.092391 0.52627 -0.085614 0.51357 -0.33728 -0.15047 0.20802 0.17893 -0.044607 0.15466 0.26212 -0.28554 0.16087 -0.043276 -0.18184 -0.24873 0.11863 -0.45673 -0.23304 -0.39338 0.44294 -0.2483 0.1767 0.062008 -0.14767 0.035031 -0.19542 0.65145 0.63648 -0.081548 -0.3546 0.45993 0.1765 -0.086784 -0.098119 -0.14582 0.44955 0.16611 -0.22397 0.69602 -0.049169 0.10148 -0.38617 0.096245 0.5755 0.010885 0.37368 -0.078632 -0.38215 -0.12525 -0.2487 0.2413 -0.29504 -0.075721 0.47224 -0.13987 0.22149
live -0.070712 -0.24429 -0.30722 -0.39803 0.23251 0.35009 0.1451 0.0094081 0.41341 -0.020351 0.35941 -0.40583 0.20588 -0.60058 -0.10259 -0.046788 0.3257 0.051505 0.21019 0.075309 0.74467 0.40321 0.44931 -0.46364 0.31199 0.56277 -0.45572 -0.056772 -0.34717 0.33554 0.043767 0.19077 -0.15347 0.71526 0.27229 -0.15538 -0.51337 0.24147 -0.22118 0.0065792 -0.016504 0.48083 -0.4966 0.23152 0.05605 0.071163 0.15339 -0.34829 -0.19045 0.79991 0.32277 0.07865 0.41573 -0.12391 -0.47731 0.25166 0.33633 0.2273 -0.062588 -0.032776 -0.39532 -0.20121 0.25577 0.82673 0.3994 0.22944 0.56304 0.52604 -0.082524 0.036305 -0.04981 -0.025216 -0.55709 -0.12377 -0.47702 0.11047 -0.14764 0.25012 0.08454 0.16665 0.21607 -0.22228 -0.057311 0.087843 0.18265 -0.12031 0.16542 -0.25805 -0.008856 -0.15343 -0.49663 -0.1922 -0.37235 0.088127 -0.31911 -0.02256 -0.14173 0.4894 -0.16723 0.22007
holy 0.088271 -0.71653 -0.52869 0.061635 0.088644 -0.036745 0.49649 0.025035 0.56964 0.83682 0.33298 -0.51093 0.20775 -0.080697 -0.19907 0.46035 0.052215 0.20544 -0.23065 -0.30001 0.19034 0.45425 0.79294 0.90536 -0.055435 0.085649 -0.31441 0.2606 -0.78421 0.41445 -0.5166 0.28839 -0.27429 0.33529 0.029588 0.12879 0.7375 -0.12 0.20608 0.28738 -0.10389 0.10634 -0.2125 0.37793 0.40053 0.22158 0.48175 -0.57349 0.049697 0.32475 -0.083905 -0.30219 0.18415 0.097643 -0.38081 -0.054046 0.44644 0.04663 0.052829 -0.50408 0.459 -0.47853 0.40226 0.96284 0.41021 0.14431 0.90401 0.0019562 -0.29895 -0.30926 0.15024 0.21582 -0.74225 0.44161 0.56539 0.34353 -0.35344 -0.13925 0.047138 0.099168 0.049914 0.0028244 -0.30796 0.62038 -0.40816 0.23819 -0.20484 -0.7232 0.061226 -0.35396 0.27145 -0.46898 -0.12826 0.32383 -0.062221 0.17498 -0.13303 -0.3396 -0.33914 0.23603
ticket -0.063694 -0.33402 -0.79881 0.30755 0.18861 0.060034 -0.016443 0.66226 -0.12839 0.50335 -0.19768 0.33577 -0.64534 -0.071546 -0.081682 0.44535 0.013722 -0.5616 -0.1261 -0.16241 0.25306 0.049453 0.16095 0.3217 0.32368 -0.014867 0.24917 0.29446 0.059891 0.21854 0.092229 -0.18094 -0.02419 0.76676 0.41249 -0.67513 -0.27476 -0.053201 0.033252 -0.20331 -0.62725 0.28307 0.38921 0.23574 0.61357 -0.28277 0.13614 0.23436 -0.62729 0.75683 -0.0087528 -0.45868 0.17083 0.51394 0.23052 0.23547 -0.58298 0.0011641 -0.51789 0.5641 -0.0014531 0.37067 0.19287 0.69069 0.19309 -3.9007E-4 0.11009 0.14393 0.097141 0.10538 0.35251 0.14343 0.5968 0.062968 -0.38937 0.68784 -0.26112 -0.73814 0.13987 -0.24446 0.57606 -0.036948 0.097524 0.47476 0.61057 0.51024 0.57815 -0.65616 -0.31784 0.27556 -0.23441 -0.043942 0.32524 0.28721 0.048118 -0.057174 0.54174 0.25844 -0.32062 0.60768
victory -0.06698 -0.56581 -1.0909 0.17839 -0.30842 -0.28174 -0.29755 -0.37361 0.45567 0.31916 0.19515 -0.40907 0.1252 -0.26234 -0.19655 0.46841 -0.43202 -0.41803 -0.052956 -0.33878 0.039812 0.33431 -0.49446 0.7521 -0.16369 0.43774 0.15007 -0.066851 -0.16939 0.088395 0.15377 -0.10357 -0.64326 -0.23008 -0.093907 -0.65347 -0.03181 0.17564 0.12406 -0.040407 -0.53964 0.64923 -0.22484 -0.14626 -0.043472 0.050802 0.40362 -0.41006 0.19802 0.18958 0.013095 0.14998 -0.24669 0.03289 -0.40996 -0.90242 -0.23507 0.10491 0.050769 -0.42704 0.084824 -0.15734 0.34324 0.48513 0.25697 -0.35654 -0.40705 -0.43 0.18096 -0.53891 -0.26439 -0.16964 -0.35318 0.52729 -0.30388 0.11731 0.18108 0.23008 0.11547 -0.19859 0.87827 -0.46079 -0.30428 0.11697 0.17663 -0.026376 0.51848 -0.015064 -0.21982 0.32858 0.92854 -0.18886 0.31247 -0.3234 -0.82245 -0.59604 -0.016544 0.22889 -0.13846 0.74601
football 0.4397 0.054041 -0.21233 0.21285 -0.10557 0.24535 0.23417 0.68405 -0.0077093 0.51856 -0.089074 -0.028197 0.80536 0.227 -0.041487 0.39747 0.66935 -0.52664 -0.23414 -0.3996 0.34737 0.19945 0.16322 -0.24757 -0.0066844 -0.1907 -0.064598 -0.055654 -0.6824 0.45942 0.13096 -0.30428 -0.26592 0.19075 -0.055184 -0.31189 -0.060983 0.41211 -0.13981 0.099958 -0.63972 -0.080081 -0.54016 -0.10228 -0.30994 0.50525 0.20143 1.8047E-4 0.48307 0.79602 0.3251 -0.45004 -0.062966 -0.083552 0.13491 -0.38689 -0.42024 0.015351 -0.22632 0.10801 -0.22496 -0.47632 0.11262 0.65081 0.26142 -0.53297 0.10184 -0.014672 -0.16386 -0.25206 0.56129 0.27841 -0.015844 -0.31413 0.011603 -0.29458 -0.24464 -0.21555 0.24177 0.1096 0.46811 -1.0049 -0.54126 -0.26134 0.53996 0.02599 0.82759 0.34508 -0.16108 -0.05826 0.18088 -0.0020109 0.063921 -0.18828 0.10456 -0.28417 0.05874 0.071542 0.40163 0.75846
stroke -0.07831 -0.49989 0.20028 0.17996 0.096536 -0.023644 -0.15787 0.22892 0.12508 -0.51528 0.93133 -0.37607 0.40263 -0.21384 -0.22727 -0.5598 -0.0049494 0.088138 0.14128 0.051387 0.045766 0.017997 0.081245 0.70871 -0.053235 0.14738 -0.11898 -0.0070702 -0.53567 -0.14175 -0.41561 0.033308 0.018091 0.48438 0.10888 -0.66623 -0.35833 -0.95181 -0.33219 0.43988 -0.66805 0.32135 0.18943 -0.20926 -0.32116 0.089537 -0.18481 -0.2873 0.058036 0.9982 0.38156 -0.20319 -0.13364 -0.13654 -0.19422 0.16365 0.1975 -0.14966 -0.018052 -0.1903 0.11918 -0.24099 0.26611 0.19113 0.38542 -0.4315 -0.13093 -0.14724 -0.12216 -0.76566 0.62515 0.56737 0.2622 0.18103 -0.47368 -0.0048562 0.55956 0.18921 -0.16741 -0.22631 0.02843 -0.23965 0.45967 0.2274 0.17217 0.62749 -0.1923 0.11042 -0.32808 0.18467 1.1212 7.269E-4 -7.9636E-4 0.3084 -0.75976 -0.27614 0.066491 -0.014497 -0.13248 0.25831
environment 0.17513 -0.45869 0.29534 -0.29962 0.27943 0.30639 0.059058 0.070028 0.35663 0.37299 0.38028 -0.19542 -0.027197 -0.037169 0.23845 0.16841 -0.0078873 -0.20801 0.33598 0.47941 0.090619 0.68134 0.1028 0.26721 -0.4636 0.099035 0.67133 -0.28571 0.15579 -0.33476 -0.81549 0.512 0.18152 0.36487 -0.14816 -0.85367 -0.72736 0.10632 -0.29759 0.015309 0.31977 0.39917 -0.11496 -0.48777 0.68801 -0.13329 0.3786 -0.2817 0.03586 0.51634 0.4609 -0.29095 -0.18987 -0.076219 -0.016022 -0.4505 -0.57915 0.099442 0.18376 0.4359 -0.28912 -0.54927 0.23213 0.13214 0.027669 0.34475 0.3445 0.1195 -0.0031135 -0.53685 0.087493 -0.023266 -0.44878 0.01023 0.35236 0.15916 -0.090686 0.31185 -8.2739E-5 0.01527 -0.10483 -0.61813 -0.1134 -0.44731 0.25541 -0.37674 0.44977 -0.16943 0.16079 0.18045 -0.071421 -0.010182 0.11174 0.084074 0.24126 -0.0097178 -0.21548 -0.19722 -0.46213 0.30604
coffee 0.24741 -0.69152 -0.57927 -0.22386 -0.033382 -0.36246 -0.28934 0.78897 0.22192 0.21447 0.46024 -0.043707 0.10596 -0.49189 -0.10089 -0.28927 0.58556 0.11529 -0.37534 0.12605 0.59867 0.038958 -0.17317 -0.17577 -0.010361 -0.038167 -0.3018 -0.036324 -0.070424 0.43806 -0.20535 0.11922 0.55387 1.0849 0.17125 -0.10033 -0.46083 -0.11147 0.38945 -0.18649 -0.79266 0.04541 -0.068978 0.0059706 0.37843 -0.20434 -0.079835 0.07111 0.2992 0.48288 0.38765 -0.34254 0.027496 -0.35355 -0.0057917 -0.28037 0.095851 -0.094986 -0.0087372 -1.4821E-4 -0.51351 -0.22622 0.47934 0.50422 0.1042 -0.51315 0.069511 0.30514 -0.46124 0.078722 0.69183 0.24323 -0.10828 -0.041085 0.18599 -0.15083 -0.039866 -0.80184 -0.072026 0.051188 -0.025736 0.11855 0.75771 0.45895 0.15853 -0.39414 0.25235 -0.33163 0.4691 0.49815 0.14531 -0.016073 -0.20551 -0.21751 0.25622 -0.10068 0.45359 -0.43688 -0.22679 0.11835
baby -0.052194 -0.32023 0.093007 -0.34675 0.12657 0.23286 -0.24364 1.0992 0.45529 0.33585 0.70588 -0.4303 -0.32766 -0.35553 -0.19778 -0.74926 0.48641 -0.087055 -0.042 0.35233 0.13719 1.1007 -0.050814 0.28241 0.3383 -0.053074 -0.037399 -0.41808 -0.21042 -0.2259 -0.24539 0.1808 0.23256 0.0050766 -0.025548 -0.32458 -0.80777 -0.22023 -0.17308 0.67443 -0.82334 0.24594 -0.31351 0.53174 -0.28919 -0.072341 0.20211 -0.54818 -0.13301 0.45651 -0.060644 0.09468 0.46024 -0.54882 0.3124 -0.035236 0.040763 -0.5445 -0.43661 -0.10169 -0.20171 0.27441 0.81094 0.078663 -0.11687 -0.21518 0.36549 0.10907 -0.60291 -0.13271 0.37107 0.37474 0.2796 0.24189 -0.28631 -0.063636 0.078961 -0.39974 -0.15424 0.34632 0.12809 0.1184 0.87399 -0.095386 0.26219 -0.032689 0.019583 -0.17541 0.34608 0.2158 0.20804 -0.21904 -0.71642 0.64221 -0.38465 -0.35648 -0.44299 0.050861 0.49194 0.084693
personnel 0.066304 -0.18025 0.10757 0.23807 0.037665 0.43598 0.25825 -0.38388 -0.030086 0.23021 -0.26994 0.23188 0.19267 0.23052 -0.27379 0.81636 0.20238 0.26183 -0.033686 0.20541 -0.001764 0.48648 -0.08932 0.18998 -0.052814 -0.34642 0.11868 0.33775 -0.25973 -0.34997 -0.37686 -0.045149 0.36292 0.74818 -0.1324 0.16095 -0.26339 -0.34561 -0.27166 0.27343 -0.025349 0.094702 0.37981 0.22903 0.57604 0.67772 0.18081 -0.40294 0.09574 0.71918 0.25639 -0.24691 0.089224 0.35003 -0.40979 -0.061635 0.036008 0.096609 0.24921 0.42508 0.2675 -0.15023 0.35616 0.91682 0.074882 -0.0046943 -0.27412 0.56163 0.16373 -0.25429 0.35101 -0.11145 0.10517 -0.34013 0.29759 0.35878 0.22521 -0.11222 -0.37308 0.23571 -0.27974 -0.64418 0.35568 0.29371 0.395 -0.30197 -0.21693 0.36241 -0.078669 -0.41499 0.14282 -0.42406 0.45977 0.074592 0.074572 0.21537 -0.12224 0.34203 -0.069506 0.53909
family 0.044764 -0.38146 -0.098212 -0.50537 0.12993 1.0602 -0.21235 0.24905 0.33351 0.35771 0.17502 -0.42319 0.02712 -0.4291 -0.57686 0.35513 0.29896 -0.4142 0.12486 0.60996 0.17805 0.2371 0.40258 0.23808 0.25327 0.1697 -0.25829 0.043762 -0.35689 0.10146 0.20702 0.073117 0.21148 0.19488 -0.0037406 0.20886 -0.15334 0.13922 -0.34152 0.14342 -0.22363 0.22326 -0.30746 0.61395 -0.035757 -0.18398 0.59837 -0.43154 0.1248 0.074072 0.4137 -0.18973 0.37585 0.2387 -0.2502 0.034377 -0.22112 0.066585 -0.34126 0.35237 -0.044334 -0.20516 0.39102 0.6682 -0.011934 -0.34814 -0.050267 -0.13294 -0.046051 -0.15775 0.16739 0.40226 0.074295 -0.22917 0.16448 -0.038377 0.0038754 -0.2798 -0.37671 0.27939 0.13544 -0.20033 0.35791 0.2465 -0.085479 -0.13432 -0.1283 -0.016326 -0.19173 0.36367 -0.099978 -0.42377 -0.51485 0.16322 -0.064471 0.12806 -0.10931 0.010989 0.031136 0.30756
hypertension 0.040329 -0.29263 0.23422 0.1637 -0.17751 0.25803 0.073764 0.085735 0.03434 -0.088618 -0.040775 -0.30806 -0.1913 0.035359 -0.067295 0.031639 -0.13923 -0.41468 0.080037 0.14438 0.27739 0.29521 -0.042043 0.092381 0.30025 -0.33892 0.34845 -0.059958 -0.31824 -0.31408 -0.60952 -0.41407 0.15613 0.23807 0.45549 -0.27827 -0.27638 0.086858 0.37538 0.19053 -0.34172 0.6309 0.10485 0.16453 0.32346 0.011547 0.049901 -0.17136 0.64495 0.26603 0.37436 -0.20304 0.014635 -0.24278 -0.19523 0.43865 -0.081955 0.49667 0.31947 -0.095349 0.0544 -0.43303 -0.2237 0.58923 0.38906 0.29941 0.3383 -0.098987 -0.098119 -0.25496 0.37462 0.45639 0.31151 0.13924 0.12066 -0.13633 0.13966 0.20696 -0.019937 0.30947 -0.1538 -0.33799 0.41046 0.30517 0.23581 -0.12645 0.089285 -0.17793 0.23103 -0.087306 0.48673 0.040105 0.074053 0.49373 -0.014343 -0.31155 -0.20671 -0.096125 -0.028693 0.29693
president -0.021863 -0.86997 -0.42931 -0.59571 0.17489 -0.13614 0.44125 -0.11305 0.10158 0.25965 0.088861 -0.62295 -0.072123 -0.13325 0.25356 0.17051 0.088803 -0.05351 -0.70279 -0.028638 0.058235 0.086725 -0.34416 0.062593 0.13385 -0.31539 0.060775 -0.019268 -0.40608 -0.40394 -0.01799 0.27431 0.15665 -0.038644 0.25678 -0.70055 0.013419 0.12437 -0.5039 0.15114 -0.45068 0.24762 0.1894 0.1631 -0.3513 -0.0086948 0.24865 0.19374 0.2554 0.40168 0.64085 -0.12338 -0.38109 0.16364 -0.024941 -0.19176 0.4683 -0.19164 -0.21498 0.28545 -0.313 0.2696 0.30223 0.51855 -0.44604 0.24336 -0.10159 0.090468 0.36617 -0.27748 -0.11394 0.35705 0.14255 -0.3239 0.15278 -0.31953 -0.062664 -0.22397 0.15539 -0.056018 0.043331 -0.49123 -0.14455 0.25737 0.3845 0.051133 0.2202 -0.054387 -0.29994 0.61611 0.28291 -0.46638 0.64882 -0.34414 0.31533 -0.28698 -0.29262 0.34223 0.15763 0.23193
atmosphere 0.29556 -0.22922 -0.075299 -0.19731 -0.039004 0.18853 0.066776 0.35667 0.29233 1.0038 0.33543 -0.95121 0.083497 0.14391 -0.0091245 0.0028755 -0.04764 -0.65386 0.75377 -0.034673 0.20934 0.3024 0.39185 0.082462 -0.33862 -0.16799 -0.24611 -0.0036309 -0.4756 -0.0087361 -0.33897 0.39918 -0.0028587 0.41575 0.53375 -0.71928 -0.52275 0.23549 -0.71576 -0.028468 -0.068637 0.51795 -0.33824 -0.31024 0.43753 0.13172 0.11255 0.10406 -0.15128 0.013222 0.68538 -0.46304 0.28969 0.0070205 0.12661 -0.17609 -0.11907 0.020241 0.26901 -0.45892 -0.04704 -0.18572 0.025534 -0.035226 0.20747 0.066424 0.47698 0.11011 -0.030554 -0.83673 0.15611 0.076232 -0.43937 0.097617 0.45896 0.26521 -0.19218 0.025177 0.24266 -0.40193 0.10613 0.34758 -0.12201 -0.24798 0.41075 -0.14302 0.077926 -0.22788 0.43118 0.15222 0.02533 0.52731 0.53999 -0.20395 -0.36251 -0.068256 -0.15491 0.08277 -0.02975 0.23938
practice 0.32695 -0.35205 -0.26654 -0.043067 -0.0025491 0.20353 -0.056877 0.28273 0.50674 0.32891 0.4209 0.53918 0.81157 0.6949 -0.037949 0.34622 0.21416 0.027615 -0.08071 -0.090545 -0.42523 0.4424 0.33445 -0.14687 -0.019739 0.085885 -0.41656 -0.13844 -0.34801 0.06096 -0.29983 -0.1715 0.17384 0.45852 0.12526 -0.52788 0.18009 -0.3768 -0.015372 -0.0035832 -0.24048 0.70261 0.38496 -0.19455 0.18203 -0.14876 -0.0098016 2.9802E-6 0.2784 0.38557 0.29779 -0.34764 -0.17557 -0.37376 -0.27855 -0.12268 -0.31242 0.079945 0.29923 0.79932 0.23045 -0.28162 -0.19383 0.38326 -0.035925 0.093963 0.18308 -0.43725 -0.23837 -0.040648 0.03339 0.30736 -0.43498 -0.10806 -0.34415 -0.50894 0.16445 -0.18025 -0.3387 0.2238 0.04071 0.072666 0.060779 -0.097595 -0.069105 -0.50647 -0.16791 0.13525 0.093671 -0.31075 0.39538 -0.22675 0.12723 -0.10115 0.43405 -0.48736 0.17555 0.55662 -0.32106 0.60708
movie -0.032252 0.20598 -0.59435 0.23004 0.21312 0.26871 0.51725 0.70968 0.93354 0.053063 -0.31744 -0.31759 0.046398 -0.34128 0.43276 -0.059233 0.27026 -0.49264 -0.20762 0.22959 0.098428 0.25205 -0.14932 -0.28127 -0.45316 0.21444 -0.069039 0.2458 -0.2939 -0.098482 0.064102 -0.22644 -0.43799 0.43383 0.16014 -0.57504 -0.4151 0.52199 -0.39654 0.46079 -0.76539 0.2344 -0.52367 0.81017 0.33866 -0.027259 0.13209 -0.08902 -0.23701 0.25951 0.51507 -0.28802 0.18299 -0.090999 0.20751 0.040549 -0.05873 -0.0095676 -0.32404 -0.30861 -0.70725 0.19519 -0.17416 0.29824 0.22369 -0.13713 0.22275 0.05375 0.20096 0.026482 0.3675 0.4092 -0.1928 -0.34339 0.25583 0.52332 -0.31234 -0.27573 0.26505 -0.62251 0.41471 -0.46641 0.11898 0.3175 -0.0052285 0.22252 -0.19893 -0.13511 0.19522 -0.35201 -0.31962 -0.60143 0.44259 0.27317 -0.19401 0.24688 0.40067 0.73088 0.19108 0.19081
popcorn 0.23383 -0.21543 -0.32511 0.047961 0.16556 0.14415 0.0085675 0.76359 0.23531 0.092073 0.086813 -0.093682 -0.027608 -0.21722 -0.058205 -0.18784 0.36629 -0.27479 0.023403 0.055454 0.36741 0.23711 0.052 -0.29836 0.20077 0.043267 0.045467 0.018208 -0.39492 -0.11513 -0.33264 -0.0023805 0.056211 0.71722 0.32264 -0.22452 -0.60129 -0.0090784 -0.051597 0.16145 -0.2435 0.26676 -0.17731 0.14729 0.14423 0.039463 0.020731 -0.017052 0.0039381 0.063644 0.21967 -0.020076 0.35849 -0.17287 -0.081279 -0.1323 0.22236 -0.18256 -0.11575 0.20055 -0.19893 -0.36947 0.097317 -0.028966 0.5915 -0.29891 0.56994 0.0096113 -0.27563 -0.1584 0.30088 0.13983 -0.24167 0.20624 0.16818 0.12405 -0.033776 -0.41012 -0.28598 -0.046067 0.23672 -0.19748 0.63719 0.15917 0.11259 -0.10333 0.061004 -0.55809 0.56407 0.093999 0.13643 -0.047318 -0.15237 0.17026 -0.37694 -0.34735 0.40173 0.053153 0.028087 0.11132
recommendation -0.58298 -0.90039 -0.07652 0.10938 0.02619 0.42946 0.071858 0.092758 0.46532 0.41519 0.14325 -0.083846 0.23705 0.099932 0.28644 -0.068448 -0.21245 0.16517 0.20656 0.17374 0.35765 0.21007 0.098338 0.064204 -0.08405 0.3029 0.18493 0.14521 0.24713 -0.5371 -0.023415 -0.22098 0.0098026 0.20334 0.068221 0.15511 -0.099194 0.078312 -0.096816 0.10385 -0.64312 0.34471 0.52405 -0.043065 0.26984 0.11396 -0.15142 0.2507 0.31998 0.69725 0.15792 -0.16233 0.028614 0.041102 -0.18424 -0.34052 -0.2002 -0.16967 0.3853 0.21577 -0.050505 -0.041013 -0.018723 0.34939 -0.20064 0.83786 -0.30969 -0.11456 -0.15829 -0.018556 0.31262 0.34641 -0.20497 -0.26878 0.16113 -0.1017 0.054424 -0.26369 -0.38146 0.059302 -0.16293 -0.74534 0.20429 0.2631 0.12861 -0.2612 -0.38612 -0.13562 0.010891 0.33789 0.60376 -0.26942 0.46136 -0.060797 0.48557 0.19606 0.026042 0.23205 -0.74441 0.030927
focus 0.12678 -0.43468 0.13829 0.49222 -0.36191 0.19393 0.44872 0.05002 0.11344 -0.11808 0.38792 -0.021255 0.041736 -0.18929 0.55037 0.47764 0.079397 -0.14423 -0.24297 -0.14626 0.34035 0.25756 3.1265E-4 0.076874 0.013011 0.58847 0.027066 0.19005 -0.083063 -0.34315 -0.6658 -0.26951 0.077915 -0.19304 -0.057703 -0.79827 0.1983 0.4219 -0.20066 -0.04316 -0.39243 0.045513 0.037077 -0.10023 -0.0082794 -0.087385 0.56738 -0.40807 -0.17379 0.22816 0.44728 -0.11274 0.40531 0.18129 -0.65218 0.13833 -0.33342 0.43122 0.092781 0.25554 0.20924 -0.34263 0.2841 0.2861 0.22551 0.52548 -0.10979 -0.037288 -0.17619 -0.35566 0.11839 0.7277 -0.22987 -0.0073051 0.31264 -0.15844 -0.28117 -0.027504 -0.34554 0.32952 -0.11654 -0.47632 -0.10134 -0.35057 0.55604 -0.62246 0.16928 -0.31291 -0.044935 0.01255 0.20277 0.40069 0.049389 0.46521 -0.12253 0.063497 0.28727 0.23561 -0.1475 0.093352
attempt -0.3518 -0.088983 0.039029 -0.27192 -0.1943 -0.051339 0.72256 0.52254 0.44374 0.21357 -0.16068 -0.2291 0.48669 0.56254 0.04556 0.50341 -0.41279 -0.0093915 0.33962 0.11538 0.40914 0.4832 0.55841 0.63086 -0.44483 -0.044122 -0.072253 0.22227 -0.3138 0.19201 -0.1593 -0.12648 -0.13783 -0.0338 -0.25371 -0.3111 0.25468 0.027252 0.44022 -0.051558 -0.4518 0.42728 0.83772 0.40955 0.52364 0.097784 0.061564 -0.21385 0.2785 0.35895 0.17632 0.076572 -0.48282 0.092011 -0.18851 -0.33463 -0.096265 0.081406 -0.81862 -0.36759 0.10435 0.18394 0.25596 0.18301 0.3068 0.15815 -0.17997 -0.16649 0.036062 -0.56268 -0.041527 0.19646 -0.31145 0.18057 -0.045973 0.24959 -0.24361 0.58213 -0.37709 -0.03268 0.06204 -0.34242 0.46298 -0.30288 0.18204 0.4877 0.34856 -0.038367 -0.20155 -0.03906 0.51127 -0.28503 -0.016827 -0.74342 -0.08039 -0.18964 -0.64539 0.20104 -0.304 0.22441
approach 0.30655 -0.73298 0.13793 0.0012616 -0.43928 0.069655 0.43513 -0.0038643 0.28501 0.20432 0.56138 -0.074084 0.10147 0.0236 0.49989 0.34563 -0.21445 -0.10705 -0.059751 0.10814 -0.19071 0.3104 0.16177 -0.1449 -0.35548 -0.22646 0.015841 0.20464 0.1808 0.069889 0.0064139 -0.10101 0.29689 0.13911 -0.0029953 -0.50041 -0.33057 0.15515 0.051044 -0.043 -0.51867 0.74382 0.15496 -0.17884 0.29808 0.015883 0.46375 -0.14099 0.23399 0.20434 0.26831 0.094721 0.10635 -0.002708 -0.14053 0.012992 -0.41264 0.52844 -0.042216 0.33531 0.19475 4.1238E-4 -0.091392 0.12688 -0.27901 0.55835 -0.0083275 -0.20032 0.057806 -0.29794 0.55634 0.3079 -0.33054 0.13999 0.26371 -0.18132 0.014978 0.11961 -0.27862 0.13503 -0.49053 -0.50107 0.028891 0.048397 0.63606 -0.0071656 -0.22676 -0.40782 -0.10265 -0.10253 0.4846 0.25734 0.48972 -0.25552 -0.039868 -0.39856 -0.30548 0.19329 -0.48083 0.17498
number -0.18448 -0.26027 -0.18619 0.34595 -0.001618 0.37923 -0.38531 0.34544 0.56314 0.07363 -0.023769 0.34322 -0.23521 -0.67743 -0.082196 -0.13544 -0.57936 0.030237 -0.3263 -0.14982 -0.0031173 0.10931 0.13498 0.18184 -0.17536 0.17017 -0.2899 0.14718 -0.30349 -0.59019 -0.05637 0.37501 -0.059698 0.16789 0.5597 7.0715E-4 0.032164 0.38879 0.25139 0.47917 0.067205 0.051704 0.064039 0.094045 0.21131 0.18677 -0.11707 -0.62719 0.11506 0.47844 -0.11147 -0.12391 0.35767 -0.045313 0.019714 0.25079 0.20677 -0.41195 -0.0091632 0.46259 0.30707 -0.38172 0.13715 0.35492 0.69681 -0.034968 -0.48817 0.11094 0.018557 -0.26107 0.66622 -0.026296 0.25329 -0.22893 0.46853 0.39988 -0.24404 0.33562 -0.006684 0.30874 -0.0748 -0.74505 0.17684 0.1166 0.4805 -0.0066764 0.21734 -0.3839 0.28027 0.24474 0.053622 0.3886 0.43353 0.04178 -0.14337 0.096743 -0.24558 0.21734 0.17234 0.71964
property -0.46306 0.30453 -0.69553 -0.68281 -0.19431 0.76658 -0.033892 0.21498 0.46795 0.25676 0.032729 0.29625 -0.0047923 0.070974 0.21664 0.71039 0.011633 -0.44553 0.41218 -0.16839 0.13241 0.74697 0.44403 -0.36603 0.39332 0.19126 0.63892 -0.19794 -0.037724 0.23483 -0.029156 0.020308 -0.14522 0.24663 -0.080673 -0.22531 0.10996 -0.20085 -0.233 -0.011577 0.015217 0.58761 -0.057404 0.1543 0.29352 0.039012 0.2589 -0.56781 -0.34049 0.6292 0.37995 0.13049 0.24252 0.58699 -0.051938 -0.040923 -0.24681 0.44858 -0.16105 0.65782 -0.22898 -0.26102 0.086694 0.61453 0.043976 -0.24297 0.17218 -0.25778 0.1116 -0.46144 0.51016 0.18517 0.22471 -0.17705 0.25077 0.034212 -0.65262 0.21989 0.45296 0.15463 -0.55029 0.073738 0.35436 0.049924 0.054369 0.043974 0.1829 0.48126 0.32122 0.19257 -0.087174 -0.3703 -0.27435 0.56902 -0.076118 -0.14639 -0.2415 -0.16573 -0.65828 -0.049731
fingerprint 0.012099 -0.12116 -0.29486 0.12887 -0.23352 0.71451 0.23291 -0.15819 0.26522 0.49129 0.067377 0.14281 -0.13328 0.39632 -0.0468 0.049412 0.40405 -0.26911 0.29357 0.24393 0.02945 0.58661 -0.14773 0.23216 0.026158 -0.10364 -0.47877 0.20347 0.17308 -0.32327 -0.21557 -0.28908 -0.044966 0.27056 -0.16863 -0.35008 0.13817 0.015842 -0.18894 0.28976 -0.07048 0.32815 0.30318 0.14724 0.61434 0.049247 0.068122 -0.31599 -0.19634 0.26717 0.37907 -0.18928 0.011229 0.081619 -0.019501 -0.025943 0.62343 -0.23467 0.045629 0.10317 0.35368 -0.25132 0.040867 0.3033 0.14987 -0.14696 -0.054675 -0.096031 -0.14733 -0.058496 0.41716 0.28497 -0.10964 -0.11128 0.010844 -0.43779 0.25766 0.1761 -0.067607 -0.038941 -0.14352 -0.66563 0.60946 -0.12465 -0.18857 -0.13171 -0.0025783 -0.50974 0.33861 0.17945 0.41072 -0.11323 -0.476 0.36956 0.19581 -0.36564 -0.084049 0.55346 -0.1395 -0.18784
reservation -0.10799 -0.29781 -0.19924 -0.26336 -0.1644 0.635 -0.071578 -0.24505 0.0087688 0.68352 0.012656 -0.010081 -0.25197 0.097206 0.12966 0.4796 -0.15674 -0.51776 0.21581 -0.023541 0.48362 0.41864 0.070286 0.26605 -0.09776 -0.12797 0.1348 0.16533 0.018469 0.14396 0.067352 0.12998 0.048297 0.54667 0.10301 0.18953 -0.10569 -0.28486 -0.29955 0.26797 -0.2589 0.42214 0.24047 -0.08461 0.20145 -0.19325 -0.031453 -0.0084692 0.21973 -0.0098871 -0.10986 -0.56213 0.13275 0.085881 -0.13554 -0.10398 -0.3109 0.08462 0.38062 -0.064905 -0.47699 -0.41509 -0.09819 0.25732 0.4703 0.13345 0.21987 0.078624 0.39902 -0.43827 0.33104 0.35124 0.20472 -0.25594 0.3731 -0.17134 -0.22038 -0.34585 -0.1737 -0.048762 0.24628 -0.30108 0.69969 0.63835 0.27119 -0.38263 0.13062 -0.04699 0.073977 0.12687 0.25541 -0.11948 -6.8514E-4 -0.11901 -0.011445 0.33872 -0.27126 0.22645 -0.68289 0.27788
block -0.24132 -0.22406 -0.34741 -0.19855 -0.57954 0.28019 0.3444 0.18375 0.29202 0.15064 0.28956 -0.022761 -0.13881 0.20918 -0.077045 0.44191 -0.18338 -0.1271 0.146 -0.11523 0.50076 0.71794 0.10342 0.23314 -0.42949 0.13644 0.13327 0.67205 0.13516 0.16872 0.37307 -0.068907 -0.087263 0.55263 0.20843 -0.14103 -0.22302 0.052612 0.45978 0.247 -0.097122 0.57232 0.07765 0.25193 -0.26884 0.29502 -0.28637 0.053466 -0.20144 0.066214 0.60561 0.44695 0.12168 0.21809 -0.55785 -0.05064 0.16234 -0.20757 -0.21423 -0.046482 -0.026125 0.027205 0.17385 -0.18409 0.33096 0.32506 0.3644 -0.057037 0.026511 -0.57975 0.27338 0.25085 -0.075748 0.12075 0.081874 -0.13914 -0.41793 0.22323 0.27941 0.21369 0.14003 -0.017174 0.69218 0.28824 0.17128 0.17634 -0.0093443 0.13111 0.11756 0.4177 0.14394 -0.018371 -0.12681 0.70302 0.33072 0.30239 -0.22903 0.56741 0.28715 0.17954
fear 0.02692 -0.32107 -0.013604 -0.39028 0.50506 0.091847 0.14225 0.47383 0.072792 0.29045 0.49833 -0.33604 -0.12251 -0.29201 0.095957 0.85305 0.22897 -0.39944 0.37085 -0.022117 0.33619 0.25255 0.062245 0.092879 0.089113 0.018457 -0.085515 -0.16878 -0.058554 -0.53866 -0.37212 0.196 0.08912 0.42541 0.10447 -0.36067 -0.025085 0.44243 0.1738 -0.25701 -0.59968 0.50356 -0.0068795 0.42153 0.11399 -0.22787 -0.011759 -0.33445 0.17868 0.15543 0.27261 0.29551 0.24294 0.15182 -0.30925 0.42819 0.094397 -0.29507 0.15211 -0.082008 0.38408 0.39457 0.12783 0.61537 0.73445 -0.060359 0.28546 -0.30937 -0.56338 -0.24823 -0.25811 0.18175 -0.14118 0.25059 -0.012778 -0.17877 0.050403 0.12471 0.43259 0.32622 -0.56734 -0.51413 0.0091378 0.24304 0.34692 -0.054738 0.27553 -0.37658 0.031468 -0.33773 0.086249 -0.39345 -0.32656 -0.015693 0.17019 0.092764 -0.16558 -0.32668 0.41672 0.61411
surface 0.21466 -0.19063 -0.13266 -0.22943 -0.5793 0.50124 -0.17585 0.38251 0.080515 0.27927 0.17107 0.03888 0.050281 0.64383 0.23812 -0.082187 0.58153 0.033663 0.75059 -0.11269 0.20806 0.67033 0.062108 0.068699 0.10662 -0.0097349 0.073712 0.035159 -0.53158 -0.071146 -0.60435 0.054881 0.097306 0.84076 -0.10724 -0.16353 -0.66251 -0.063426 -0.20212 0.62605 -0.44211 0.30933 0.25518 -0.38335 0.2861 -0.11254 0.16173 -0.30801 0.077666 0.32219 0.0010219 -0.29979 0.16332 -0.075346 0.014972 -0.10738 0.18665 0.37503 0.57363 -0.26942 -0.098217 -0.024575 0.29382 -0.074658 0.12986 0.059939 0.52191 -0.37019 0.10461 -0.96845 0.54266 0.10387 -0.57882 0.47199 0.61744 0.20015 -0.36308 -0.015636 -0.0061527 0.058553 0.20254 0.081687 0.11146 -0.18168 0.020585 -0.037693 0.17464 -0.65357 0.18838 0.085785 0.11834 0.049944 -0.15433 -0.12196 0.062312 -0.76816 0.17479 0.35175 0.10302 0.24638
issue 0.19587 -0.52387 -0.51781 -0.0026823 -0.036902 0.51563 0.49245 0.22741 -0.078638 0.34411 0.38435 -0.2633 0.0022474 0.60363 -0.1045 0.38061 -0.10451 -0.38496 -0.367 0.024163 0.29887 0.2049 0.5736 0.1478 -0.23718 0.094059 -0.020626 0.23659 -0.71349 -0.37514 -0.35771 -0.17767 0.24656 -0.18809 -0.14582 -0.67647 -0.46294 0.38555 0.26767 0.38826 -0.22626 0.41817 0.1482 0.24028 0.57425 0.026591 -0.057929 0.14772 -0.010111 0.21514 0.22459 0.063906 -0.11882 0.1339 -0.28506 0.32211 -0.36489 0.025523 0.15366 0.319 0.10138 0.18305 0.19822 0.24072 -0.2791 0.32467 -0.16938 -0.030696 0.32436 -0.034866 -0.083548 0.59434 0.017874 0.09961 -0.099751 -0.2863 0.077371 0.40531 0.43747 -0.17905 -0.16503 -0.53586 0.19597 -0.073458 0.74561 -0.25031 -0.20528 -0.35943 0.034658 0.33808 0.32124 0.45925 -0.20768 0.2769 0.25545 -0.38067 -0.25759 0.078989 -0.51582 0.12656
metal -0.32035 0.1333 -0.55707 0.12037 -0.26407 0.16753 -0.31094 0.57717 0.050849 -0.037237 0.25352 0.14148 -0.41713 0.13705 0.13702 0.55519 0.31541 -0.15232 0.71053 -0.12737 0.31171 0.91983 0.12959 -0.13086 -0.24281 -0.13373 0.22208 0.17519 -0.33576 -0.49409 -0.45133 -0.74968 0.15916 0.47223 0.22342 -0.20123 -0.31842 -0.3702 0.022586 0.46442 -0.103 0.3204 0.036241 0.55092 0.65673 0.70414 0.053205 -0.1724 -0.63794 0.24656 0.51448 -0.094627 0.14432 -0.28013 0.031622 -0.28344 0.30248 -0.57945 0.34625 -0.12479 -0.18553 -0.26619 -0.24642 0.068957 0.29365 -0.18252 0.28996 0.037295 -0.59476 -0.26811 0.56993 0.14575 -0.36407 0.49525 0.55267 0.35839 -0.36138 -0.74845 -0.011255 0.072806 0.12449 0.4521 1.0182 -0.2238 -0.3597 -0.080731 -0.11082 -0.5536 0.34084 0.27944 0.24718 -0.042978 -0.014834 0.34025 -0.33404 -0.34503 0.19508 0.28293 0.2152 0.30609
index -1.1699 0.31013 -0.80505 -0.077801 -0.22048 0.04665 0.068969 0.48756 -0.012816 0.33191 0.84887 0.026643 -0.56248 0.62145 -0.72716 -0.55788 -0.39782 0.44885 -0.50352 -0.54816 -0.021979 0.32598 -0.8211 -0.45208 0.12938 0.069993 -0.45005 -0.65065 -0.31687 -0.49348 -0.77575 0.44522 0.034921 0.70496 -0.23967 -0.62718 -0.41584 -0.39215 -0.37609 -0.49206 -0.035331 0.94825 -0.14992 0.27133 0.76105 -1.0965 0.072872 -1.7315 -0.29256 0.23775 0.56981 0.29443 0.046339 0.56363 0.55762 -0.27429 -0.36688 -0.31522 0.4187 0.55793 0.36407 -0.51651 0.13041 0.91725 0.75812 0.96183 -0.8895 0.015754 0.29779 -0.64335 0.50946 1.1683 -0.039266 0.39953 0.40883 0.47484 -0.63364 0.072173 -0.13248 -0.45589 0.14301 -0.18982 0.31647 -0.37405 -0.49247 -0.026236 -0.17838 -0.54069 -0.14535 -0.022958 0.75533 0.29436 -0.08355 0.32246 0.32415 -0.54104 -0.20461 0.16281 -0.58237 -0.088045
isolation 0.27375 -0.52207 0.023591 -0.16604 -0.030033 0.62612 0.11555 -0.12582 0.29442 0.30362 0.25105 -0.42045 0.032166 0.19878 0.02675 0.30216 -0.05203 -0.39825 0.38401 0.15486 0.58212 0.24111 0.26683 0.20499 0.17262 -0.16155 0.068567 0.15028 -0.23333 -0.10846 -0.51073 0.2104 0.36588 0.14125 0.38747 -0.37189 -0.32585 -0.03417 -0.35771 0.16296 -0.15316 0.94202 0.17346 0.022159 -0.22558 -0.36597 0.042239 -0.29519 0.42707 0.49173 0.090109 -0.12993 -0.15738 -0.0013346 -0.13248 0.14073 -0.08341 0.37041 0.3037 -0.40856 0.21763 -0.27505 0.20639 0.22085 0.25479 0.17875 0.085786 -0.19252 0.14668 -0.55805 0.23653 -0.047867 -0.16275 0.30437 0.14301 0.087683 -0.0027043 0.49971 0.23669 0.11473 -0.37401 -0.30195 0.10274 0.53445 0.13827 -0.10536 0.0093479 -0.20843 0.13525 -0.23349 0.21322 0.089801 0.46983 0.029029 -0.11136 -0.36057 -0.34746 0.098803 0.08625 0.36539
impartiality -0.11811 -0.57284 0.19651 -0.38826 -0.15558 0.64617 0.20935 -0.023728 0.046581 0.29825 0.090975 -0.26982 0.022006 0.01039 -0.041058 0.44843 -0.19133 -0.29923 0.06344 -0.29982 0.033251 0.34908 -0.024793 -0.049629 0.033338 -0.031887 -0.095635 0.24771 0.14106 -0.28089 -0.3961 -0.082099 0.041165 -0.12137 0.20141 -0.3687 -0.32302 0.20554 0.068555 0.29033 -0.17919 0.43041 -0.23677 -0.29885 0.46501 0.26602 0.44737 -0.12401 -0.07702 0.39112 0.37346 -0.0066478 0.022906 -0.44013 0.20953 0.020764 0.21307 0.03779 0.15707 0.11153 0.029328 0.097919 -0.038189 0.82535 0.014941 0.078169 0.14876 -0.40155 0.054683 -0.12334 0.13009 0.22036 -0.28012 -0.20294 0.044425 -0.03216 -0.29795 0.11172 0.045203 0.22799 -0.25668 -0.66767 0.22321 0.046918 0.37945 -0.1867 -0.23478 0.048634 -0.15431 -0.058581 0.25524 -0.29067 -0.028977 0.1446 0.31101 0.027395 -0.043481 0.19364 -0.012843 0.23262
